0.553874834259
-0.424604702501
0.674868038243
0.793802739528
-0.136835429415
-0.657256529606
0.862617863668
-0.482425040473
-0.152834679388
-0.25267196189
0.91474169824
-0.721467467537
-0.616148984961
0.227509297982
-0.526738469828
0.183929978853
0.479980879654
-0.2197972021
0.64376159467
-0.668395597606
-0.858216384032
-0.191946471381
-0.163574803663
-0.919547959056
-0.130999017942
-0.13403321736
0.0582133906584
0.1215939553
-0.912604212118
-0.632288758282
-0.119836770229
-0.736226564621
0.0391604344553
-0.248927306268
-0.668194593157
-0.20364892489
0.0344961339236
0.079794499568
0.00992352473487
-0.011080172583
-0.856074678385
0.460025476479
-0.0671745556595
0.597595915608
-0.856833349897
-0.876196499169
-0.190050115392
-0.71128227405
0.504214570898
-0.388346417235
0.769379864076
0.793999495334
0.51014754063
-0.350850201927
0.251305302446
0.859811590629
0.604956795719
0.307224246744
-0.984462576425
-0.487291818227
-0.176102331834
0.418778215962
-0.814418771004
-0.696538062153
-0.650873582568
-0.755670744742
0.493007537041
0.50257664481
-0.11603463057
-0.39873396726
-0.967712061179
-0.292315414823
-0.0690278526341
0.633575977096
0.749427796188
0.803875642421
-0.163348268618
-0.520774943103
-0.338050341556
0.248696038186
-0.845794268856
0.364131220564
0.283927909857
0.113268955191
0.293010070884
0.65456254917
-0.707060937921
-0.925135276126
0.881984272067
0.0317417902679
0.817434946599
-0.93842839666
-0.973717921898
0.315238055329
-0.0467533437926
-0.387108366266
0.925140322909
0.283360313444
-0.368905802958
0.0782778691169
0.316703687796
-0.668633757127
-0.592070730041
-0.324867634908
-0.723546495955
0.599323091281
-0.0766292977537
-0.0112941315133
-0.396107258545
-0.948617543655
-0.606400368768
-0.754474278144
0.290385198101
0.789086737041
0.710995594944
0.615478015474
0.209762195115
-0.698238425804
0.717658301509
0.00356299491233
-0.13117268678
0.487287864489
0.514349428637
-0.355434681962
-0.274612258155
-0.290423843621
0.743123821979
0.199873526075
-0.251388881012
-0.0561435961314
-0.475557874229
-0.286684037742
0.323582011713
0.0548914500768
-0.487017483838
0.839469350695
-0.452957554349
-0.61234235707
-0.339584916819
-0.380290720303
-0.499322841924
-0.613208826802
-0.489093056593
0.797063900499
-0.0833945006307
0.975488759449
0.681104211728
-0.583589757092
0.498412444802
0.609700203438
0.200420426444
0.047407487546
0.181252445959
0.536144809891
-0.00632150804631
0.0563227945954
0.133217357043
0.434096480407
0.271549379772
-0.795067904531
0.0932445615558
-0.647419392283
0.392246076323
-0.987226773506
-0.633439864723
-0.287895218729
-0.872461139917
0.243747874147
0.325480422921
0.314955097648
0.938121311357
-0.172621597081
0.18332172195
0.296906441366
-0.526717516309
-0.4522139455
-0.395543848235
0.398122738974
0.991182029195
0.990626517987
0.171950886384
0.685942277176
-0.950095983511
-0.838584974241
-0.375307192165
0.499654445804
0.827250499122
0.486118209552
0.194923650006
0.559589871169
0.493146561319
-0.49678907134
-0.216246309477
-0.882375294316
-0.255936274364
-0.248897591238
-0.0190038698398
-0.650788133253
-0.525601670011
-0.847519103864
-0.855647286344
0.735762743423
-0.95247190427
0.500345072136
0.134215123428
-0.872412740626
0.650327655152
-0.907996771447
0.885901984699
0.920169517904
0.0231375207169
-0.281660479328
0.580066466451
-0.946591183237
-0.0945953612491
0.530453531152
-0.894785531528
0.088819358887
-0.22498519654
-0.0608565983561
-0.40494137602
-0.239129574985
-0.133330717199
0.768743488325
-0.352675859925
0.11239348764
0.466325105639
0.233360165431
0.838278534477
-0.685422394908
0.444709791995
-0.821605721051
0.368545028132
-0.418886853832
-0.620040236131
0.640853153289
0.50712701203
-0.374506357149
-0.955569112996
-0.195149060961
-0.0471095506804
0.091541221538
0.242897078879
-0.40741971064
-0.911674419576
0.246370715764
-0.273116194228
-0.648003862055
0.946693554247
0.534702538785
0.178079579436
0.731125975021
0.0865097106154
-0.252434873592
0.0556622837023
0.629698979204
0.668272683767
-0.126452074025
0.371191937806
0.129462751553
-0.772738268963
0.00653567629642
0.194791601376
0.863056200822
-0.722773461898
0.16674487958
0.0114373979048
0.804327331228
0.0741421970143
0.836826651401
-0.19366035395
-0.632806553344
-0.0719684495132
0.901509386378
0.696932033137
-0.446290323094
-0.643522856323
0.179035149026
0.852977184836
-0.676115066147
-0.30386346699
-0.272063298545
0.374396071014
0.0961024617645
0.196642305158
0.639468265985
-0.888955925329
0.105420967816
-0.418092316923
-0.395516105704
-0.773113998315
-0.853050262795
0.93706381197
-0.241066298707
-0.688727783163
0.501921388854
0.490424454321
0.830124046656
-0.201033117502
-0.932555904
0.893476223495
-0.365112746893
0.0349187150912
-0.261559675096
-0.977239227447
0.659824988938
0.288275661366
-0.856841928909
-0.52184955452
0.514737018216
0.358970720538
0.132164217451
0.636791922837
-0.101666546923
-0.628749938907
-0.302905812461
0.970742250905
0.698458395834
0.667095060292
0.447863455208
-0.0819780977145
-0.217374648374
-0.752178857433
-0.400568617618
0.434987690678
0.315108884872
-0.934566251281
-0.092821958602
-0.315059570256
-0.143167377267
0.846680979407
0.987896177741
0.0955131427428
0.818471955251
-0.542770194192
-0.571684931817
-0.609504611674
-0.500675464245
-0.0894239934524
-0.100713462837
-0.161325791097
0.0236683387789
-0.745779369747
0.447648128103
-0.979742412959
0.754638114246
-0.204463873537
0.985725297688
-0.888046020324
0.300422479132
-0.770204709877
-0.96592382562
-0.0313280388919
0.233255205789
0.0325894999404
-0.724257194995
0.476851751178
0.0572489894832
0.346275989837
0.780723322245
-0.425443338395
0.143128991397
-0.982071983415
0.303619335099
0.469330085246
0.0691736743779
0.0648282141955
0.752259186667
0.310789009129
-0.463328385249
0.656619610141
0.783685922031
0.92748682765
0.558043633197
0.374757602822
-0.0553967214747
-0.644668340133
0.669670127147
0.832516137621
0.716386325593
0.148273206948
-0.691175584405
0.968853520395
0.155126550281
0.642709067931
0.540988496235
0.798802401858
0.945868812636
-0.143093009064
0.746344319662
0.710196433139
-0.326129307207
-0.477856150367
0.692000198782
-0.918120297226
-0.287439080416
0.208379723428
-0.663858229819
-0.949509470947
0.181119441484
-0.401549308596
0.676921711367
-0.475780481185
-0.819642657658
-0.457136517398
-0.212494709848
0.0602417313098
-0.966640366515
-0.612471438145
0.183864411897
0.350567832497
-0.606565269457
-0.586160713394
0.998722577655
0.306714564044
-0.580667150056
-0.824331713875
0.125439031656
0.817055676075
0.909248270275
-0.990045830879
-0.449263715715
-0.40359904012
-0.408014122148
0.601381496036
0.616069963047
-0.0336551646679
0.375578551201
0.9965950032
0.383754367024
-0.745345301951
0.450773111536
0.509559363748
0.742720495988
-0.419697052176
0.459408698088
-0.54977621921
-0.732084209711
0.842443642289
0.874172470893
0.291523574298
0.000202840236353
0.652286754324
0.232847421805
-0.862502829649
0.559147766233
-0.0629612352264
-0.055019648291
-0.566667013627
0.71434852053
-0.570038050538
0.847835381708
-0.280439026222
-0.766057953797
-0.580617369539
-0.606098019055
-0.954368375856
-0.346268821352
-0.336164658215
-0.612469968437
-0.875449379222
-0.601644604345
-0.0541944413476
0.190793711513
0.717813834795
-0.116236906355
0.796631200989
0.607160230747
-0.147447560623
-0.240094337161
-0.422857604373
-0.653588336832
0.486935393552
-0.88134497255
-0.438979507752
0.571321852769
0.442604781615
-0.623018590762
-0.0626279164469
-0.185060206731
-0.131230262553
-0.0753370114434
0.678993887294
-0.233541887367
-0.727146114988
-0.772948133628
0.878400743613
-0.619439372264
0.114062903938
-0.426650940039
0.375535057522
-0.415105384961
-0.991153045485
0.270227260765
0.422426817416
-0.0442002559469
-0.702637377414
-0.440206284112
-0.246545579412
-0.364849915786
0.240989139204
-0.553805709315
-0.00664289286192
-0.375662482045
0.552911471027
-0.0949480821725
-0.544251444014
-0.566851888401
0.41816387543
0.0923638618275
-0.150437184861
-0.356562108707
-0.0294102802526
-0.112563698957
0.66446362072
0.536042912701
-0.339738180076
0.5666823332
-0.972886243694
0.188500584212
0.35657035757
0.0468209796488
0.584998910787
0.884242003047
-0.84395632717
0.756702780902
-0.32708646974
-0.368775115307
-0.937949207389
-0.0120788193348
-0.57280861624
0.191125318586
-0.0587104059837
-0.887509704205
-0.76044501681
0.375685072251
0.619347257468
0.591372451731
0.449594391419
-0.423578027456
0.707443409582
0.944764422773
0.273295874362
-0.429569272188
0.931680328334
0.340095645397
-0.210386253277
0.739780347938
0.401758902182
-0.164708496838
-0.37002196722
-0.227223937809
-0.915569687733
0.499774005637
-0.328641453451
-0.535441765948
-0.784434313979
-0.430969688724
-0.552470098968
0.549190453801
-0.435649326962
-0.155370861233
0.841155768088
-0.698066440404
0.217990678827
0.176719476529
-0.332884611359
-0.349050039981
0.981131431803
0.919108161617
-0.763485471514
0.432581471642
-0.167299467648
0.966420028909
0.90888430324
-0.313299846502
-0.742779091936
0.13817208485
0.225117378499
0.852141459835
-0.0376157881456
-0.224404298653
0.646676130452
-0.694028146839
0.730488698878
0.990049628493
-0.491376333369
-0.630155319009
-0.425330764033
0.921164384428
0.622184977506
0.863524122031
-0.227487018407
-0.543232495894
-0.168465734036
-0.0759608260507
-0.334633381056
-0.523795761273
-0.15506923292
0.637449534876
-0.0946954725681
-0.792869949348
-0.72192979269
-0.187446434239
-0.817595088002
-0.573738228794
-0.670689002839
-0.71092986476
0.822581032652
-0.151931251497
-0.645203824653
-0.993115276733
-0.755539567089
0.463060080974
0.479321514821
0.30201798732
-0.494392729813
0.181724658969
-0.0650959520336
0.54376735382
-0.020224761617
-0.933380139212
-0.107760873543
0.520298136735
0.260580644719
0.93047576452
0.566838078739
-0.111814208699
-0.810313782854
-0.280579469778
0.89415663697
-0.169373082215
0.522744441529
-0.117786082299
0.033779987155
0.00424913005368
0.0167936794859
-0.968140649736
-0.206161312909
-0.589660725283
-0.138568619062
-0.243776484003
-0.317505328984
-0.460077888986
-0.483450212112
-0.705230444449
-0.251430654003
-0.93531190048
-0.891811309905
-0.73910596445
-0.81010817712
-0.516691024066
-0.409910143701
-0.103684011682
0.223516473116
0.927923474786
0.353136580001
-0.352114284701
-0.618380765897
-0.381452795137
-0.363853739677
-0.409054099784
-0.314281234021
-0.645279607654
0.156059216366
0.710168837237
0.760326701204
0.875943683361
0.712664137262
-0.976277667073
0.106980967472
-0.640532251307
-0.370477175194
0.904399163364
0.482813250308
0.973804959748
-0.589983263402
0.1007305249
-0.128955480718
-0.952147843214
-0.497142968886
0.715451193356
-0.839363740184
0.442273792831
0.403822212974
-0.385702245639
-0.290123718449
0.161964060841
0.215056665871
0.133482528824
-0.0290204722325
0.955770393747
-0.192764921276
-0.438690568878
0.358122145812
-0.404735338954
0.762190581337
0.501408400478
0.108797205851
-0.0034852930699
0.341145672188
-0.966342773934
0.0873733126739
-0.562523023601
-0.0398533474325
0.814058837048
0.261687066729
-0.165931168048
-0.911651734687
0.324623145317
0.96493195907
-0.0971357615952
-0.260983492682
0.254861477945
-0.790907231184
-0.925820978056
-0.276416497929
-0.546370187124
-0.436810659968
0.253608265777
0.710579935506
0.322432251394
0.161196567083
-0.518108990261
0.410686744867
0.150484829343
-0.814226454327
-0.0279014901839
0.202007854347
-0.133938140187
0.879962193833
-0.272797533754
0.277112362563
-0.449495635763
0.122272152838
0.883688042127
-0.551710773415
0.105251677843
0.677564689596
-0.763776313085
-0.594642510368
-0.41935556033
-0.594037540439
-0.770322805308
-0.778505851084
-0.408137205213
-0.822352668919
0.914900021139
-0.216839309468
0.317468521295
-0.681070358479
-0.649925568491
0.330999493949
-0.377261568768
-0.910185647072
-0.824200653845
0.454940282666
-0.221499689891
0.464917715331
-0.475298216846
-0.0111790110195
-0.0379134647664
-0.750583521631
0.478807658703
0.122278506142
-0.49730800684
0.207612489828
-0.732071603787
0.413219538416
-0.83496233836
-0.423218034921
-0.757604960103
0.890463164554
0.320477357812
-0.0945981077815
-0.371973338962
0.321774019798
0.128452061772
0.134196681567
0.585424991109
-0.0949810230249
-0.470847947558
0.219720827431
-0.0759218245637
0.711266998353
0.814408227947
0.967634250284
0.313662209017
0.623747780522
0.227598172957
0.86303451276
-0.801148251961
-0.736035836751
0.582218231774
-0.628154367104
-0.379979527504
-0.547791901756
0.928134202807
0.357815047305
0.665153216928
0.923463203441
0.308994080969
-0.248164179307
0.881977794768
0.472614824111
-0.774602940625
-0.301231292733
-0.361724363755
-0.411069639326
0.593211400358
-0.0534743120002
-0.711178309296
-0.178962824399
-0.531401043273
-0.732021968047
-0.638919962995
0.60221520153
-0.867417324104
-0.629050266531
0.0583222900087
-0.405114522889
-0.461443348365
-0.110210013457
-0.928980765768
0.0305526354727
-0.511294558763
-0.345008733513
0.304035045611
-0.801343938116
-0.875839640872
-0.463349396201
0.702063122613
0.150035694616
-0.0025599906342
0.733001879828
0.954328224513
-0.67540364707
0.896751830982
0.731982328601
0.743598359446
0.855625101954
-0.662857914606
0.922759502926
0.890433520067
-0.243592111776
0.757784518448
0.24594643065
-0.135630995877
0.98091088291
-0.794942912806
0.600640696003
-0.887954811756
0.116722467578
0.712447405173
-0.953270117966
-0.095384871195
0.50797070291
-0.771821211905
-0.126284171674
-0.233953794381
0.831796069316
-0.235377630812
-0.838202139368
-0.280048120149
0.227729524466
-0.267308559873
-0.18923816004
-0.78894894434
-0.544083702956
0.620481709821
0.951839109263
0.070820163547
-0.927662597754
0.689030673522
0.275245182475
-0.59167999952
-0.165384425967
-0.524069383124
0.15460403721
-0.606887935646
0.78328188006
-0.448463118591
0.491873051225
-0.620786625831
-0.97556564406
-0.508709947009
0.823930717285
-0.820773320075
-0.332506087591
0.139905155038
-0.0325480843658
-0.276205320846
-0.768877117933
-0.817083916619
0.0314532304584
0.468032787888
0.196322734299
-0.749963159002
-0.0307878579207
0.11294856816
-0.537215627141
0.483940672856
0.512822171333
-0.261263869288
-0.650031244338
0.188820074829
0.257907938279
0.298822833813
-0.951077760994
0.427846167202
0.0937117604169
0.22774001915
0.815692385233
-0.205618807549
-0.483594634635
-0.553056367981
0.683822740757
0.380244322766
0.986199755738
-0.541125635184
-0.770820052302
-0.0655909623958
0.993097201237
-0.273411628915
-0.0659744455178
-0.281000572187
0.295751478848
0.283768667819
-0.710758131654
-0.322925051647
-0.697495799648
-0.886754534491
0.00921556874296
0.279373505153
-0.751811708293
0.686503952515
-0.439244268777
0.145841615763
-0.763662055161
-0.561423140546
-0.973901977185
-0.751828336207
-0.410957136402
0.423507496844
0.79837007082
0.623695885279
-0.777912241089
-0.256376990623
-0.288144894527
0.71865263221
-0.249572075834
0.207380717005
0.122099571704
-0.195444937797
0.900668174557
0.233127468855
0.476853378087
0.0794874052795
-0.551485372538
-0.185625892387
-0.29234870517
0.31715181497
0.678087361794
-0.544344760825
-0.0887552847151
-0.236075924244
-0.261515737383
-0.370927784163
0.0122783681382
-0.93466048594
-0.871983296954
0.195967009088
0.419922870644
-0.0883630424135
0.449488075313
-0.234204883069
-0.0376380955484
0.213604844478
-0.112112787351
-0.627814090268
-0.518942769197
-0.430237858994
0.648151328266
0.620962218954
-0.865220660412
-0.15982001005
0.991469711259
0.943376904072
-0.739295119074
-0.592065461775
-0.0287793252806
0.195920224455
-0.486592365798
-0.143808131379
-0.591192925508
-0.233620474668
0.871397861669
-0.607440011807
0.245965921184
-0.341548727217
-0.668625424608
-0.941754900813
0.572067181963
-0.394340640429
-0.576011310084
-0.710306265813
-0.281887439868
0.445611962394
0.484748084918
-0.244614242821
-0.195558975126
0.176143297889
0.61605218364
0.308869791835
0.780099844493
0.806954738164
0.518483105016
0.203070979031
0.510048781352
0.775684497222
0.783336168679
-0.847316142833
-0.000169643338731
-0.312919699719
-0.0235301522934
-0.937823564509
-0.66427920546
0.990355608741
0.346960274625
-0.115585481629
-0.7058381028
0.981720222108
0.205948663726
-0.202452225499
-0.552991273303
0.245074511862
0.0673755919487
-0.996053705323
-0.375046417682
0.244874253103
0.140859341177
0.644088006147
-0.750913239956
0.269912409787
0.0918114483283
0.585641392575
0.831516053535
0.405771118189
0.508906541844
-0.838357618311
-0.474661296956
-0.514240533146
-0.393790657886
0.0606417494296
-0.982677550106
-0.352988658701
0.0715487830508
-0.389567500467
0.721788548311
0.887199289227
0.996833108883
-0.246278910247
0.838587273978
-0.949098729759
-0.987135850421
-0.393617992657
-0.0262785567993
-0.686268700429
0.759485843222
0.671137494599
0.172171587065
0.430772212
-0.532116362967
-0.00553369858807
-0.81529829289
-0.203583516486
0.230280659855
0.787324534844
-0.43506995411
0.026390674745
0.258893163072
0.921468989568
0.00461448077017
-0.998701192223
-0.356499868812
0.436136252726
-0.796189571452
-0.990121598735
0.00995245876168
0.908666927889
0.0553988083989
0.0955560892096
0.610934818063
-0.385148432855
-0.857080922591
0.399963360309
-0.54648485587
0.407620813471
-0.134909400438
-0.0672599721336
0.220164372939
-0.0314952450789
-0.141412812025
-0.901944999455
0.72549313332
-0.28443175482
0.567010572478
0.346793847107
-0.193723478243
-0.672726952831
0.673622049709
-0.31719851493
-0.951432979816
0.605590191716
-0.265403260782
-0.229872356145
0.713112192997
-0.703272332197
0.963417705397
-0.298774537396
-0.660368167365
-0.118628148057
0.812464002663
0.297848687062
0.619312549078
0.413140558442
-0.91417021599
-0.0248213087609
0.791861458006
0.966294960438
-0.558726502989
-0.60052112741
0.798408407952
0.176383184434
0.582497980736
0.440573863013
-0.720848421307
-0.200856113022
0.827447997594
-0.73733030261
0.253127331301
0.177542593585
0.827863901157
0.907878402225
0.345361495062
-0.377061596842
-0.167768980538
0.281407613645
0.834769397147
-0.613930864051
0.765383415517
-0.598612644994
-0.564020877072
0.890089872887
-0.431592859278
-0.490517932287
-0.326784367034
0.364592475006
0.148047221087
0.699188855337
0.15143947729
0.638116879645
0.961022629614
0.0953680445386
-0.83693354777
0.947264251477
-0.303269838976
-0.745606508723
-0.194217739687
-0.507254526199
-0.287992710818
0.803062902194
0.481923379361
0.634427645974
-0.302144263638
-0.329935479852
0.553626692522
-0.742735031105
-0.885841715619
0.720172463433
0.0379990978657
-0.150189742681
-0.808890814987
0.585379467839
-0.744988700003
0.838422053084
-0.48344348669
-0.315152813331
0.42231143931
-0.123590324494
-0.671992510847
-0.331207214642
0.779134710441
0.114482334281
0.503905782542
0.920980303191
0.360825627472
0.854566692534
0.446916430456
0.288984612315
0.537987704652
-0.376807936135
-0.318376714991
0.617792504378
0.821460659157
-0.728055321284
0.559920254979
-0.660509805107
0.0983112074259
-0.47191361296
-0.180311762295
-0.164341573073
-0.969294602413
-0.931468840081
0.865158069737
-0.841716491406
0.292228798099
-0.546467804386
0.989260879353
-0.177454452886
-0.753436035332
0.800043846761
-0.171451718273
-0.861823788941
0.251802076653
0.00358247064047
-0.362487630806
-0.901872238236
0.705956674493
-0.648376553187
0.389077228584
0.769423537755
-0.416998394496
0.310976399772
0.295750815551
0.248104466696
0.842290395103
0.571106329937
0.170582225153
0.566159192528
-0.579869155411
-0.992694999753
-0.209673064761
-0.281567198797
0.951990146084
0.233456108604
0.720219818462
0.0379703593909
-0.714246314899
-0.201083569453
-0.690004654444
0.858076623576
-0.744529263761
0.0613215612534
-0.658685797543
-0.429457105181
0.276438741697
0.247711883733
-0.0938660037677
-0.110216050677
0.473976560005
-0.628587192686
-0.820347283706
-0.702241351582
-0.719071739162
-0.271506492129
0.918121887861
0.13682955791
0.0303768816686
-0.231886135357
-0.606072218628
0.917891756662
0.522146520285
0.963029417594
0.407642115637
-0.829850133388
0.198204963959
-0.774351706381
0.199889429446
0.245317622784
-0.696828052852
0.539515313796
0.327411198656
-0.0637974966325
-0.229533707699
-0.20541924769
-0.27495236084
0.543412522511
0.906890039333
-0.610772756438
0.594044862825
-0.921908870649
0.0935674514304
-0.975933116748
-0.749822120515
0.811465938421
-0.22387923721
0.365418472158
-0.30620299154
-0.834836337931
-0.572278640782
-0.8826124878
0.0852451009519
0.25036391252
0.744857057915
0.656843612551
0.166782125155
-0.151237242
-0.29580510626
-0.0515820102063
0.67779998944
0.450209805751
-0.928679144193
0.841049355865
-0.733655901075
-0.31140167106
-0.511101571844
-0.814449361463
0.253907463058
-0.780968895538
0.395700255159
0.924196231465
0.968393168969
0.931794651136
-0.825807090616
-0.213421812279
0.340199933673
-0.829027358304
-0.702288462296
-0.533689816611
0.681901247946
-0.805978921895
0.285685891905
0.804257546356
-0.339628863702
-0.952360996835
-0.474240337521
0.792657325763
-0.483051135148
0.431152429332
0.342738081448
0.893396142602
0.996022015025
-0.0938960184965
-0.486817537403
0.57679967254
0.87184277613
-0.715877723942
-0.864684357457
-0.0951700423903
-0.0454045399328
0.964935152801
-0.0263525702994
-0.838317514016
-0.685675371811
0.779637135447
0.773037163859
0.106428258299
-0.913020274874
-0.688973281968
0.890475869821
0.529908824444
0.354937578377
-0.260144931723
0.662346746187
0.487949470683
0.442474459371
-0.417230721961
-0.952254085921
0.992695783666
0.020745315508
-0.676337762744
-0.573585146335
0.175026568002
-0.93330050486
0.848112462646
-0.656623569517
0.664050336331
0.654631555436
-0.878602545115
0.690753202339
0.287444073914
0.464111554337
0.12672099953
-0.00312108788691
-0.634415639802
-0.560424009647
-0.181972889465
0.158409837218
-0.0427328504229
0.747246133868
0.219503272127
-0.0362945253302
0.268490728006
0.221356047473
-0.109569374169
0.0210308564147
0.62808059009
-0.621934342408
-0.949991489214
-0.690894135825
0.924177683341
0.501267407174
0.822769176494
0.740218868216
0.572124905126
-0.176132778509
-0.657114954797
-0.415329170416
0.0929304654177
0.880346101698
0.972447395381
-0.919953367445
-0.292306149066
0.00691399289107
0.617612634742
0.895852661486
-0.142124407621
-0.676744901039
-0.0323721529951
-0.420945092274
-0.403392462669
0.549090049881
-0.790374986171
-0.0671971766769
-0.0340679590406
-0.57024400208
0.25397967464
0.374383955731
0.698725361699
0.148493338676
0.275210116787
0.223148479848
0.259353793503
0.862627301492
-0.580233219325
0.103406335729
0.394765406645
-0.974633482764
0.351534587202
0.427438925199
-0.585012643478
0.0916922903506
0.323799832765
-0.882778640179
0.460522589503
0.237466462304
0.631425541503
0.840999921855
-0.329193146149
0.505763380555
0.274412830794
-0.593120609693
0.160136816679
-0.967043747116
0.189980381363
0.419389690467
0.226305892474
-0.956800636088
0.601783316227
0.780766133259
0.434464608953
0.0347060084588
0.0959084148512
0.770379843885
-0.706850802402
0.943805636839
-0.107804962453
-0.355648766803
0.918413626523
0.131585003341
-0.330523917793
-0.92252090811
0.474383447955
0.242626439082
-0.247218920442
0.712665048037
-0.262109720585
0.947568559646
-0.714054471782
0.309266696553
-0.459064624639
0.699916583181
0.588054578685
0.356922138319
-0.429388442354
0.436687240175
-0.927340882071
0.39038482377
-0.960904851023
0.13059884511
0.256157520016
-0.643638999301
0.65976607902
-0.655504470763
0.573788461975
0.646155990693
-0.326486452521
0.0835960891455
0.8919166838
-0.391671687308
-0.434060211237
-0.908783533745
-0.252791155415
-0.24256234832
0.0142824105477
-0.780582315655
-0.704087922559
-0.475988957261
0.161183091908
0.958264936324
-0.998370945757
0.714057421407
0.0158965102028
0.389117152508
-0.498288395022
-0.0463983779427
0.964350050548
0.910060714008
-0.575974984421
-0.510115935703
0.527076214805
-0.22307776235
-0.9995648865
-0.358213588397
-0.727721927544
-0.192232197177
0.143975048297
0.836371583036
0.88965187213
-0.490585441979
0.758862044183
0.411470576377
0.253873479649
0.563852416816
0.207909103205
-0.513722969508
-0.970589015972
0.697193891797
-0.358607716953
-0.860242058567
-0.516726579485
0.228106237205
0.537349876753
-0.793910738941
-0.00568243156537
0.289871175662
-0.470955143329
-0.872829038054
-0.436427718572
0.138267380984
0.595129905872
0.443235430296
0.279418022465
-0.601093709997
-0.156972081305
0.250704691513
-0.0392525413822
-0.300790697435
-0.00642921214028
0.657211855056
0.0521898820396
0.952727798497
0.28841111799
-0.116290521504
-0.309965628161
0.786285466058
-0.989721443932
0.450594586833
-0.873800012148
-0.994378488163
0.855301584042
-0.84842405773
-0.888261967827
-0.694715360093
-0.260730316515
0.895758525821
-0.975040120108
0.752913781603
-0.17418643665
0.51719174863
0.168534617177
0.865424609174
-0.494428914278
-0.910878533568
0.717803213585
0.906920876742
-0.418004674713
0.28231201329
0.877881963421
-0.292997943682
-0.526628833762
0.133030753823
-0.304525734619
-0.919427525916
-0.734365984731
0.957093720133
-0.940777541583
0.811016013794
0.0170764014076
0.940216323567
0.304028598665
0.552781577991
-0.417555354747
0.760596588805
0.639755857378
-0.400915258489
0.749314696663
-0.585288741004
-0.0661492177995
-0.0780277500199
-0.26625046503
-0.304763994321
-0.134132524546
0.256165137449
-0.702640233657
0.882962203662
-0.19714917803
0.123233024119
0.0687022993263
-0.451040047861
-0.735330525682
-0.293870450869
0.202785959602
0.556824739321
0.159417984772
0.981430115437
-0.179762426346
0.824496648047
-0.592409478265
-0.320485671652
0.833065288948
0.178427515767
-0.232822850722
-0.773290140532
0.12258627387
0.154745278413
-0.0620312596996
0.279944341802
-0.624679029769
-0.408654321182
0.0702611478289
0.43112358831
-0.319351452763
0.786062095858
-0.190072725128
0.803924824558
0.94188606859
-0.391030542719
0.41767569674
0.0172347463235
0.700275755663
0.82304546522
0.325623776567
-0.746555330522
0.593770917854
0.311669837834
0.278945918232
0.528095321203
-0.903483667364
0.0636524195028
-0.146312198284
0.717164686597
-0.172098111471
-0.479208003929
-0.0814305135675
-0.607659886371
-0.991343451504
-0.37141280174
-0.843025396257
-0.485772726254
-0.211068854677
0.46354750232
-0.717943609672
-0.746781857583
0.606679043032
0.072609431872
-0.66192287549
0.0989362781364
0.670695365702
0.549565099364
-0.366233624287
-0.842284541227
0.0028336368556
-0.655005171406
0.0853271809866
0.950387061967
-0.271083341548
0.958264109554
0.736108352381
0.584533469143
-0.798040273298
-0.693267059788
0.683178505077
-0.0481017516141
0.701988751609
0.89911621198
-0.307587011635
0.136886008729
0.761331671141
-0.750673178038
-0.0184260574448
0.782904625189
0.44661035312
0.549636131743
-0.964965643033
-0.45342573338
-0.915886678891
-0.115936037956
-0.901529476408
0.568435372147
-0.17074783723
0.989812623505
0.49872701861
-0.890565603975
-0.883527730411
0.384167447784
0.341125107424
-0.613537527342
0.819555628954
0.425248182505
-0.295725531596
-0.707092120813
0.398115769432
0.810912674083
-0.146982805918
0.304980115142
0.44627052988
-0.347227409581
0.591062201767
-0.537186610748
-0.790216211753
-0.298144802948
0.69017384105
0.211625609073
0.761359772613
-0.281341834713
-0.866596810371
-0.0433699499398
0.485555785196
-0.246251298019
0.690827385922
-0.225863128018
-0.397930587118
-0.216445575203
0.294132761682
0.391340201168
0.0673320668179
0.599496513793
-0.934082642569
-0.269336668156
-0.140580607825
-0.675286436229
-0.316602620411
-0.613627826461
0.481389936909
0.542354646538
-0.512454453267
0.943666576942
0.431443124128
-0.967558066989
-0.827038055016
0.119148293967
0.938529384278
0.929922436867
0.249219137413
0.527818326498
-0.280960361013
-0.460544205183
0.152166737488
-0.519527437272
-0.109165912056
0.54811373806
0.106152953237
0.132925568441
-0.965943612888
-0.229120276961
0.693687880927
-0.795747467147
0.764750713427
-0.761354835733
0.031256449379
0.0270654481177
-0.718142275063
-0.420236357058
-0.207188611813
0.792669692612
-0.684395356785
0.165620882072
0.620793370897
-0.312220805508
-0.519591583942
0.515624577813
-0.762134332074
-0.0848943771101
0.199712080671
-0.239808111097
0.702157146835
0.314170201384
0.164342815616
0.427951068322
0.0899522833379
0.104794184121
-0.241812379377
-0.0893900640805
0.176555965837
-0.100245729866
0.0617842476775
0.336563798456
-0.466210735563
0.360442198571
-0.366026304693
0.399694476434
0.511169422475
-0.638157765095
-0.591270260393
0.33042575263
0.128930533946
-0.617338054196
0.0446401454073
-0.609043458618
0.960288771625
-0.185216408538
0.324683749291
-0.0184268034158
0.203667955412
-0.122791653113
0.526265101276
0.837966748232
-0.232202377689
-0.475218501113
-0.740398649929
-0.95275945203
-0.0934085845255
0.629935041963
-0.441532631277
-0.390883171611
-0.991219718898
0.39031315182
0.665661623523
0.665843677335
-0.171847812594
-0.416782217188
-0.78454239818
0.258409349773
-0.749577436453
0.0736646185213
0.738622962564
0.673851936755
-0.924465026211
0.58864420888
0.26091712331
0.62785966953
-0.601611390133
0.901939350524
-0.934086902005
-0.154084384328
0.650733783696
-0.183222607839
-0.944250381862
0.517460092738
-0.8273554606
0.545089999532
0.875794613338
0.645353851194
0.470417246769
0.918947729041
-0.25733080913
-0.116956363312
-0.389703880017
0.0622332828054
0.552020447969
0.31847903063
0.0601008454831
-0.14690224385
0.637690504143
0.751645639125
0.0245806575341
0.103668816915
-0.754558444587
0.227838225812
0.719527976762
0.79128717809
0.158951170231
-0.0147978089974
0.915725768148
-0.940856702562
0.940256735204
-0.142411799435
-0.379161216515
0.871594064203
0.166137305461
0.713660312348
-0.696899984893
-0.231975397808
-0.691537156342
0.782703680414
0.631260224436
0.494157668488
-0.50402460345
0.464853318754
-0.245114607816
0.0446014731668
-0.892947048011
0.293778491664
0.168138033481
-0.686625241949
0.346224225026
0.73922177974
-0.12759303604
0.101958265463
-0.778389812338
0.171007616559
-0.967197671879
-0.392285194353
-0.224706422014
0.765981883249
0.432458482563
-0.789814934983
-0.455195913968
-0.219311816961
0.51706421514
-0.734247702359
-0.393610130747
-0.364431214811
-0.208006723192
-0.917166196928
0.0291403191272
-0.560199410841
-0.303677931578
0.77649758106
-0.382749440013
-0.339608310931
-0.160858597856
-0.853195403072
-0.260817436922
0.385570595674
0.740222837132
0.189916716093
-0.658750759348
-0.770892046044
-0.817031992901
-0.521193473593
0.457509292251
-0.014927288387
-0.862034802212
0.488827409155
-0.563031640205
0.077878429258
-0.491701435749
-0.492545465887
-0.48834809866
0.153801188296
-0.822004696432
-0.773720128298
0.62749215634
-0.630875786047
-0.0605580024418
0.353264778774
0.385860426505
0.569753897931
-0.431879594227
0.957861095024
-0.945454760111
0.237076687654
0.730654750307
-0.489116801267
-0.477877161305
-0.541577791117
-0.922239996601
-0.242659618892
0.681868263924
-0.896125701175
-0.596214093356
0.681425527032
-0.749393263914
-0.305474236245
0.208884213308
0.777612991067
0.627545442116
-0.513302066016
-0.673503150729
0.359652038316
0.815663830557
0.320513272788
0.462774023692
0.98562395357
0.440392347946
-0.775029767696
-0.77754343486
-0.995275074238
-0.00991069976073
0.85222967511
-0.110264870034
0.0737825839621
-0.772978781931
-0.1454283905
-0.299569513331
-0.159684104347
-0.609640248234
-0.0336257510638
0.780428615908
0.232718886028
0.874615771453
0.665106578714
-0.901688094769
-0.877023406367
0.507214213324
-0.892482855226
-0.0945117462008
0.468551758666
-0.694928852821
-0.0345038729892
0.0575739788369
-0.74525917538
0.186919073495
0.986804152567
0.332443783422
-0.465839063055
-0.194424985044
0.625166831059
0.981844362353
-0.245926138018
-0.374419603761
0.368134675639
0.667245171714
0.132602007977
0.106393925007
-0.981667125927
0.81506806094
-0.159885321728
0.119092760245
0.130665257936
0.288979040173
0.774141048135
0.634222432929
-0.518467742861
0.863304493565
-0.837740976871
-0.463141454912
0.946421484601
0.647206717993
0.388967012876
0.203329530255
0.24789923768
-0.414705045414
0.256750213573
-0.866592088552
-0.200961980018
0.385176469668
0.358121673515
0.941158650591
0.209698578043
0.10227268126
-0.560582506144
-0.955289365338
-0.816701863718
0.307565492914
-0.358261949997
-0.726100799627
0.629828600403
0.984051642702
0.212627562615
0.356647960304
0.510012758368
-0.413755548078
0.852224796502
-0.918810289133
0.04908136677
0.405808581636
-0.165116180202
0.247724408041
-0.565356393125
0.0626138628072
0.377968725953
0.502552589236
0.240646723811
-0.0568420468898
-0.709492262384
-0.420953129018
-0.988447131379
-0.129444054704
-0.888639625947
0.673172904668
0.122523179605
-0.52612523754
-0.929895297973
0.480392519524
-0.318348035871
-0.635672191935
0.219444937038
-0.228001630855
-0.574336132976
0.889804855775
-0.849089573613
0.0527527230282
-0.762487777462
0.560105956258
0.0105016566858
0.016121856874
0.20252171469
0.494509585378
0.440092564001
-0.105094527996
-0.64789316499
0.500890575728
0.4755880055
-0.781623576111
-0.0757376205492
0.576642268757
0.547483221931
0.552413353695
0.724725709496
-0.451330713701
0.173374378594
0.151774169169
0.886156303498
0.909895792351
0.0266600040638
-0.793255093768
0.32215711493
0.183785344665
-0.227267663079
-0.0808354473367
-0.0680946664425
-0.75839717399
-0.378397475387
0.619763641054
0.447956704443
0.67558958272
-0.594103074835
0.734778806134
-0.553931685415
0.306270399617
-0.540056266442
-0.629197018356
0.376876968829
0.719484257719
-0.935801387752
0.646033381191
0.0245167962927
0.825771207978
0.0189579943987
-0.553583034109
-0.0244093739203
-0.756141040356
-0.803581684481
-0.603061788582
0.527923310455
-0.157192485699
-0.938230323969
0.102505952045
-0.0736137964585
0.905364952975
-0.757012552135
-0.263042178718
-0.757127259707
0.473466927886
0.782975906841
-0.166858538588
-0.740347255137
0.824819017061
-0.281407977294
0.916712418252
0.712017692775
0.259438989441
-0.652887522183
0.956546209274
-0.824237936026
0.957723278973
0.475784529213
0.940113185203
0.117858562177
-0.380082861241
0.244938865701
0.753525406262
-0.649365196536
0.0459283166714
0.301175097392
0.891543493042
0.674677367395
-0.779463233065
-0.587782364951
0.135947179761
-0.341478217112
-0.724029437723
-0.054319817569
-0.325002271325
0.905733671451
-0.364743090558
-0.656792618948
-0.111398528071
0.469736895093
0.755186682119
0.370923031454
-0.533837044974
-0.924216480583
-0.566140473447
0.338713773809
0.279617045164
-0.23497897936
-0.596432840946
-0.39981979348
-0.889192869032
-0.717760020329
-0.0378605365074
0.250702809788
0.314757178682
0.558150249232
0.676138263557
-0.508537532064
-0.578116512465
-0.886634447045
-0.000670223580198
0.704339177563
0.420414215104
0.775867404154
0.567618057885
-0.305353779275
-0.88859723432
-0.398690844842
-0.0418696209473
0.585421747057
-0.52580696343
0.445071923889
-0.184139809175
0.398020089055
-0.205109576708
-0.639089538545
-0.386615558446
0.80568930421
-0.615477217182
-0.696510604649
0.176722729983
0.204080215972
0.536062889791
0.682321732706
-0.524218999101
-0.342983097402
0.158027033642
0.0541276565159
-0.00636272686942
-0.741199734609
0.983521035514
-0.908439536304
0.874239345084
0.931414799345
0.410392265389
-0.550384105855
-0.488705564835
0.0816729155154
0.630817152714
0.0725220621007
0.847900831518
-0.786811416972
-0.363561193949
0.66968054564
-0.651084217707
-0.0730015171127
0.216242232928
0.715722876463
-0.172144814939
0.0715111997207
0.456062127621
-0.187884382696
0.0655845909677
0.431197278509
-0.296162156132
-0.682695202173
-0.575278117784
0.419093442886
0.433954383012
0.208625993555
0.476779927851
-0.582359916796
-0.507420415769
0.862454851085
-0.473999873044
-0.217561179458
0.309366232143
0.980654814865
0.8838975203
0.841958804129
-0.63137219152
0.421142576425
0.755989476673
0.822355817122
0.995214873816
-0.226747963458
-0.899335789956
-0.765246603466
-0.566291520135
-0.437183280236
0.606098908568
-0.604239601398
-0.244177380346
-0.924827954471
0.574290432976
-0.884217259712
-0.945094346285
0.800170644096
0.504897178354
0.895070255567
0.266587049176
0.641833382075
0.443318568617
-0.368047021766
-0.409501841265
-0.201587087534
-0.844329449049
0.939125410841
-0.407440474643
0.239294695172
-0.48332915311
-0.297109952524
0.37551692517
-0.0340186908348
0.473952332597
-0.292946241413
-0.917305413681
-0.426036627525
-0.822567232083
0.0505550610311
0.999039282172
-0.149545951117
0.625458700073
0.683042353819
0.493339059314
-0.666793965928
0.0732413456462
-0.951049254897
0.411841030435
-0.521217986954
-0.0879777877026
0.178376607353
-0.803431298638
0.13504000083
0.352006165693
0.84211255983
-0.884852853931
-0.676887624762
-0.968730858958
0.0223654495617
-0.799671972331
-0.734386109314
0.461345173001
-0.836042182898
0.899086174584
-0.960432436422
0.373363597484
-0.612619795843
0.330966794958
0.360656882349
0.406792525645
0.444975576131
-0.381185488417
-0.73175928726
-0.0804595585536
0.962478243173
-0.838617524823
-0.614594710325
-0.846714995305
-0.267453188128
-0.563131295669
0.230408538984
-0.439750013584
0.525920659476
0.245452656009
0.793579735095
0.229839702321
-0.577279034153
0.304527517262
-0.814028228138
-0.123193792347
0.585218957448
-0.905439378824
0.628465929839
-0.970200654606
-0.421635810152
-0.723909053957
0.270259587253
0.109545486083
-0.397199969055
-0.266931517822
-0.17616996635
0.893549384699
-0.908300583762
0.188159045619
0.324203324758
-0.686761011367
-0.632648131055
-0.506747867293
-0.148241960095
-0.293009177526
0.554420062391
0.758614512767
-0.276715152162
0.100896858576
-0.656290987827
-0.825520774723
-0.927090020106
0.95577564301
-0.69626235409
-0.999298278368
-0.380866608162
-0.744797799792
-0.745870755964
0.475659848201
0.643366781598
-0.274174305407
0.255699257983
-0.829788985681
0.196380595112
0.912877760623
0.294730237047
-0.577984774589
0.270085350968
0.447070932459
0.796838584342
-0.245979005699
-0.740919353439
-0.265452807712
0.0454942216355
0.482848744943
-0.19991997585
-0.62104146286
-0.3979864508
-0.119450460229
-0.15924761392
-0.504763428815
0.279897271989
0.0990191189165
-0.44355166659
-0.732969190009
-0.831402203817
-0.780462142695
-0.229150077833
-0.736968722171
-0.268308655221
-0.539351350983
0.774011357869
-0.983079253188
0.162941843485
0.0191326852472
0.0632649853202
0.781630869397
-0.222565227057
-0.460373894909
0.87688638338
-0.109169084985
0.952652183013
0.40911893809
0.741726986189
-0.0840163798067
0.0305477530277
0.0569033710854
-0.47720502485
0.0944946314406
0.986764272088
0.331405150897
-0.51141886329
0.550374904588
0.701611926191
0.651157014522
-0.244808946254
0.246526366001
-0.479857914417
0.859619294616
0.66129516502
0.548213403486
-0.971141764323
-0.198207111302
-0.935283533964
-0.878600181982
0.336290308639
-0.738420470156
0.805714886144
-0.267316220098
0.496457183034
-0.0728184446866
0.911820200367
0.0374044626454
-0.790893555778
-0.84980824915
0.807425950483
0.284407164365
-0.267945486448
0.785581080943
-0.192733033782
0.828677213205
0.85375267607
0.523442750449
-0.0724129382017
0.0477668165875
-0.807718479515
-0.56275890271
0.27988258544
-0.876938934091
0.772839896486
-0.310096131301
0.827271257337
0.966911782045
-0.114266197999
-0.0802403481953
-0.0241344233583
-0.819348957176
-0.0201237373396
-0.593439588136
-0.724630600232
0.732867363314
-0.378947123812
0.152892073372
-0.214528415186
-0.668990264033
0.217952614195
0.734703128842
0.290467055588
-0.308866897816
-0.997292363808
0.616803302762
-0.655499350378
-0.863334702272
-0.893911831036
-0.464884961001
-0.529655746686
-0.0597811688657
0.305692608059
0.670593461178
-0.876435589118
-0.662294726119
-0.767846707532
-0.797896443234
-0.83917793683
0.662248417654
-0.366865198892
0.0269222299879
-0.0643650805774
-0.224483560055
-0.32821542485
0.528595361042
0.241287934879
-0.581564306547
-0.290928284689
0.599549057591
0.630840806061
-0.516826229142
0.182756031896
-0.451975721665
-0.0587209182721
0.709154367777
-0.547483203245
-0.188570062707
0.611918576738
-0.656063993608
0.809440061398
0.207256499743
0.055313565645
-0.324048046507
-0.887651177471
-0.67528606792
0.141226870054
-0.591807437351
0.092416339978
-0.467718732973
-0.372286656716
-0.356106383706
0.930563537521
0.167896721474
-0.70182594171
0.167034649123
-0.00319193949323
0.878486421288
-0.128461769074
-0.625807702772
0.149093025451
-0.829226436957
-0.186363344985
-0.553451173843
0.978362075433
-0.207947522085
-0.581769642769
-0.321689217022
0.269076103019
0.808484173597
-0.244368379671
-0.908894218575
0.0393843070543
0.496243501365
-0.00447731382754
-0.775004167125
-0.01592290156
0.95416195354
-0.00454503993599
0.853169893522
-0.0595517772062
0.779203402417
0.919348206286
0.0921996636835
-0.963712333107
0.980995722697
-0.4924078058
0.140658490236
-0.490119432457
0.33184271243
-0.258022657673
0.735144120242
-0.0012191896751
0.44605158308
0.813095556002
0.172235278218
-0.212363425457
-0.483950962794
-0.269319322122
-0.168214128149
0.519188936589
-0.450494645763
0.568732844994
-0.812214295053
0.143494605902
0.218481849471
-0.739163337885
0.648710126159
0.209718050384
-0.834136089425
-0.951040557282
-0.105122932866
0.473316675938
-0.573035322584
0.711863190183
-0.544927512072
0.548624885219
0.372617147437
0.103554035653
-0.522441835456
0.19020865003
-0.284304563471
-0.312188068342
0.819849319406
0.432690939148
0.32614395205
-0.796081822517
0.976912993874
-0.754607628416
0.97593343072
0.148036730809
-0.357407989049
-0.792129306478
0.964156797606
0.824511870741
-0.987427237122
0.621465069429
-0.507966895549
0.515230897443
0.0976064220885
-0.679401644412
-0.130975299023
-0.250236925951
0.352192231895
-0.577497159162
-0.0741388370831
-0.57355832973
-0.0621748126586
-0.446253669843
-0.623322215568
-0.302857613584
-0.484971889967
0.230152080471
-0.902293935479
0.396672826298
-0.359993034546
0.812432162334
-0.552708157654
0.204235998209
0.647023041266
-0.399846019431
0.0785841407239
0.597446333889
0.633468202185
-0.613634800567
0.854170016307
-0.131272533106
0.898632518199
0.855723447713
0.659594279679
-0.436382920028
0.517160018127
-0.401607110168
-0.316841059591
-0.916776774445
-0.948770153817
0.279954795885
-0.912122060993
0.786364758831
0.70684752815
-0.873245724423
-0.805496797366
-0.792075332914
-0.825027843956
-0.750081680753
-0.119580089517
-0.020681292032
-0.382815899856
-0.687447462086
-0.724321022155
-0.498585585217
0.716285275911
0.893895771911
-0.0268983977098
0.6896691012
0.163798963799
-0.985030707487
0.853942464938
-0.065557375886
-0.0394035180437
-0.269367050529
-0.926222094959
-0.86042130742
-0.126701475033
-0.373034199735
-0.806433867601
0.469226321924
0.65059855537
0.260436090596
-0.576519261549
-0.506073634919
-0.43624453372
0.426785085945
-0.283277991934
0.507439676282
0.479073844163
0.614369341364
0.979309112606
-0.792647131006
0.302645304818
-0.295060154114
-0.342149954528
-0.457061042216
-0.180031766584
0.184248302031
0.297824327315
0.523169644938
0.156750284961
0.67478901203
0.864595039923
0.500158444729
-0.157682032216
0.22468550309
0.0612206453281
0.681293600113
0.520760139779
0.245293890168
-0.730695087633
0.0847867477692
-0.978704311975
-0.132355693708
-0.571432643547
-0.674398148035
-0.522324153279
-0.673521314022
0.26396194804
-0.543389636316
-0.0777469471681
-0.281751471284
-0.43834194845
0.350624423701
-0.794721495136
0.462227775459
-0.227074219398
-0.922266924119
0.767309271344
0.876746875447
0.901131212375
-0.915612498125
-0.585831731489
-0.695159566404
-0.818385388769
0.510061545167
0.254744653623
0.571655174491
-0.0771054222655
-0.664353309849
0.247712110449
0.931799208558
0.5548647661
0.716226934116
-0.430561163561
-0.373136397597
0.187627747178
-0.695003423763
-0.406741699797
0.905272508617
-0.433564411428
0.344820647636
0.222298380216
-0.0537873067027
0.208559279059
-0.0702338983505
-0.377025036591
-0.98225542988
-0.00206760942907
0.281900507359
-0.247727262809
0.635139945748
0.302587406717
0.558405147518
-0.187043810884
-0.786595468523
0.84751571549
-0.636904339704
-0.701701620758
-0.355824804173
-0.762076304277
-0.247520444965
0.986595531805
-0.0855968997754
-0.390899478267
-0.870689344249
-0.276909045811
0.673245643283
-0.913718616073
-0.346133489496
-0.907328933697
0.269933713673
-0.217879490671
-0.174084456302
-0.894745643514
-0.910221903264
-0.907558558609
0.327424435229
-0.43253287882
-0.87861307137
0.296101890723
0.995623982794
0.343900345313
-0.483625556995
-0.306792074789
-0.890483490798
0.538592940705
0.24724926955
-0.0702048788354
0.92226112874
0.506668898657
0.668787045297
-0.354751875036
0.954055102663
-0.172593849778
0.383743106369
-0.569424092846
-0.878781649768
0.932174913716
-0.759956720299
0.146110090885
0.593701681545
0.164614299802
-0.636450140239
0.944479054761
-0.980362905965
-0.549507394807
0.523654880525
-0.605661858017
-0.00783025664642
-0.885088632711
0.75617510522
-0.124448766467
0.518264474707
0.190864043812
0.750794157715
-0.382882112292
0.0682724541979
-0.170321770975
-0.726395116347
0.733102406052
0.00722051744411
0.484945388404
-0.335154849637
0.18609022199
-0.559640034381
-0.933115783621
-0.151555332301
0.385325181337
-0.281845890358
-0.754204650698
-0.0867590932259
0.830777862549
-0.735388274771
0.210088288907
-0.552481220477
-0.617809191364
-0.019096670899
-0.777276754826
-0.341204530709
0.810128687572
0.887454342782
-0.425550732147
0.565267306595
0.60048673785
0.393410971525
0.304162873973
0.414439469355
0.951959928893
0.0249136175501
0.548601982019
-0.935921861249
-0.239488595107
0.263025856423
-0.215447774701
0.252577902755
0.228811451917
-0.691816105972
0.693150736951
0.0841144782679
0.182107275246
-0.41306706469
-0.895892284282
-0.779688211455
-0.384359464437
0.0273884643387
0.23725998741
0.923409499196
0.19302475652
0.0748803623559
-0.739699307318
-0.544785739085
0.215028670612
0.963389355788
0.662659446357
-0.983888795055
0.972270113957
-0.253589965629
0.101989070724
0.563472557079
0.163059824054
0.00247159545898
0.780767042458
0.340051490712
0.561311824709
0.526360947354
-0.483274115744
-0.0779972805218
-0.228200324374
-0.134695518956
0.885266948143
-0.986957495282
-0.287986258703
-0.800598191254
-0.960712623266
0.968628965902
0.215459193198
0.249842538607
-0.192721333009
-0.313989071912
-0.23864258696
-0.725006069124
0.156653793224
-0.812176175425
0.360259693043
-0.670749532969
0.527030365555
0.270821398108
0.288673924099
0.662307148354
0.334458447154
0.799693607584
-0.506046091392
-0.288344145207
-0.222682453355
0.0369525051108
0.0708040885772
0.617887048559
-0.873331762982
-0.569108534433
-0.913430055234
0.315449804075
-0.532409981852
0.523615624747
-0.610006103703
-0.547551021661
0.524884648108
-0.909009943764
0.585376740924
0.152428432952
-0.825684281911
-0.177680518937
0.0295799469336
-0.907127129088
0.566852860661
0.0657458800584
-0.115189110326
-0.41743577753
0.324332153026
0.509136799678
0.73205139157
-0.838932908731
-0.561734824728
-0.254554319206
-0.195201881615
-0.706045324637
-0.347129039302
-0.662611650566
0.542791002235
-0.31398938693
-0.844721495509
0.957746475235
0.740503691501
0.667488660517
0.635500079276
-0.162200958778
-0.127762126385
0.0737220883292
0.513954321005
0.904555006634
-0.422890771989
0.634091961467
0.909201287458
0.898829328015
-0.400375572686
-0.19738703735
0.179266866132
0.156694695017
-0.778820926116
-0.357233839828
0.917708150263
-0.162476562905
0.611838441746
0.93456871909
0.502919394522
0.348340881357
-0.326498144813
-0.605895999619
0.963915181357
0.543258519658
0.691511775422
-0.0766413711328
-0.472673585981
0.378951062137
0.461866182677
-0.683174915991
0.681946335398
-0.73948010638
-0.0728218929341
0.617888531412
-0.492200233379
0.46880550599
0.339126746035
0.450459422374
-0.201753330961
0.90748781393
0.802835297606
0.884368141305
0.924179959681
0.393596058911
-0.978671661616
0.402258574044
-0.455385708818
-0.915293457101
-0.989585120121
0.750334609572
0.619517607373
-0.618075879176
-0.23050145748
-0.613211160913
-0.926403733867
-0.52418018296
0.0856985028783
-0.612327803176
-0.285118698196
0.178757313065
-0.780509350948
-0.990901066668
0.945304045974
0.857522466639
-0.0821265372227
-0.197995623337
-0.772644670541
-0.960471996703
0.723038129921
0.129108755436
-0.335667754654
-0.896106635063
0.0315656307376
-0.739480580954
-0.60221858268
-0.0925117054643
-0.602810441571
-0.468260682416
0.770692610704
-0.641403891291
-0.130784276386
-0.387024947853
0.162499906034
-0.308895810775
-0.338925543047
-0.615327403665
-0.0820381486539
0.498521168368
-0.727295222182
0.859911225729
-0.937237191556
-0.985743506844
0.609562277414
0.748695916117
0.361898729081
0.756237420035
-0.565479846588
-0.25740678954
-0.142967586548
0.548524499996
-0.476485069158
-0.624132894986
0.0868150034303
0.71312965325
0.997608097155
-0.119031569405
-0.480249919033
-0.150827178101
-0.620057129562
0.0694357764895
-0.886349572045
-0.800000524485
-0.508112428838
-0.984792009249
-0.144247549269
-0.604081543836
0.169076871168
0.23933253709
0.138617393657
-0.690564813185
0.433053066931
0.966901993553
-0.269331329617
-0.712725403955
-0.466081205485
-0.740890234389
-0.00193928075905
-0.633745713885
-0.63800805623
-0.826181745332
0.944637380726
0.283634575833
-0.642829596111
-0.767855946087
0.179068694221
0.61249952762
0.311447270718
-0.185707768675
0.10678291919
0.058842083749
0.643245839921
-0.545394483939
0.12524338626
-0.798729739241
-0.286328212256
-0.0799001690706
0.90918064648
0.653805268419
0.19474794276
-0.743515147353
0.637794249529
0.0763073870792
0.753120438548
-0.126142580438
0.507409410439
0.496531816418
-0.423779202798
-0.514408125696
-0.672247872954
0.326904196206
-0.32738453557
-0.835475360639
0.813161888964
0.124507593334
0.103330696525
-0.148547801696
-0.319520728211
-0.597039750998
-0.16316382192
0.440292658525
-0.995536738067
0.729884470708
0.610756725645
-0.999534868443
-0.0821046991552
0.12222708959
0.553647193293
0.698237065256
-0.824755441281
0.54745920151
-0.363245660512
-0.118494887229
0.560859163892
-0.67316356359
0.160889683468
-0.00771611866597
0.618831473376
0.707063308533
0.958146826476
0.658521235646
0.913484466909
-0.341314792236
0.714527945923
-0.333393410335
0.732466335011
0.0595648434114
0.151840570594
0.62006407138
-0.269650809288
-0.595226353146
-0.193563014966
0.954745719811
-0.0844509971496
0.135343781207
-0.530445781911
0.0932036930282
-0.576128354331
0.783832722863
0.586375303541
-0.149760955951
-0.895043024259
0.653051695497
0.662533890481
-0.19707472716
0.161032855093
0.596939040211
0.449189306648
-0.325238809079
0.309154216815
-0.688235304532
-0.674950562734
-0.950127699236
-0.871471596081
-0.120927410897
-0.704832288193
-0.938673968898
0.0604970190059
-0.0704415318939
0.677423370163
-0.0912144192346
-0.660554778149
0.0361481773686
-0.432911120196
0.249782998219
0.822047420612
0.386592719985
0.873661272553
0.68549568484
0.434670434905
0.793652890073
0.0334425592857
0.273780677777
0.399410385689
-0.338051493842
0.0318824109134
-0.530625124108
-0.103153720603
0.928201314704
0.89508357463
-0.337796741626
-0.456558357717
-0.50171231023
0.935436369836
0.48494455448
-0.493530171819
0.24415414903
-0.0646020345353
-0.303461441944
0.574351769621
0.435254956506
-0.106974614045
-0.634457347166
-0.817845816286
0.787295526318
-0.91244099822
0.310925917304
-0.698847939852
0.143262683677
-0.00462108051942
0.915093984649
0.506554927885
0.00112531853678
-0.33054920866
-0.531574996715
0.967778088312
0.291994729341
0.604843442433
0.971538928416
-0.818254430564
-0.474202159946
0.118935704466
-0.684140969981
-0.597700999978
-0.748842952308
-0.764984814715
-0.534765232275
-0.136342573739
0.184197462549
-0.354142187936
0.230981158992
0.0115167183381
0.769341947594
0.711500306295
0.169208513628
-0.27989953111
-0.852097971557
-0.415763635341
0.701438409329
-0.206727380159
0.467483155538
-0.668799346014
-0.20980730701
0.33846235588
-0.898151271746
0.417698001815
0.0829538890836
0.402357736357
0.631688306787
0.543813837476
0.975433091812
0.697804689929
0.263263963087
0.538920992694
0.645263199947
-0.600993246616
0.746145864651
-0.974960960272
0.767092304814
-0.898565086213
-0.57990872425
-0.189171706583
0.288220803559
-0.350879963837
-0.708872863586
0.809134638101
0.595241524283
0.924757973653
0.527132976296
0.960675478509
-0.192778546344
0.974884086609
-0.54037975612
0.575992548983
0.590029448504
-0.37269668639
-0.536154973444
-0.495840453341
0.841929856233
0.917756962997
-0.24122546453
-0.575731143205
0.269246892357
-0.388648728209
-0.163512818588
0.606608634817
-0.84845713703
0.633591751582
0.608584345698
-0.075297472405
0.596639104116
-0.198205050742
0.0594031501249
0.160176076699
-0.339497353683
0.905131861806
0.953551242134
0.509727535166
-0.951405816958
0.367735248573
-0.397183309735
-0.727486048371
0.666595215679
0.684097145375
-0.202386817423
0.96271170667
-0.0725482266919
0.706749262561
0.303171967755
0.448874373121
0.871758678261
-0.429092393792
0.348920495297
-0.339252839002
0.461101420242
-0.220115136324
0.817892039121
0.721407747707
-0.75369652141
-0.124095827167
0.532563912923
0.48749402096
-0.240484102675
-0.256974563341
0.382017117585
-0.726758563213
-0.597852070204
-0.659992227913
0.397763467138
0.997744075203
-0.0106244032444
0.147586078349
0.664427981929
0.536443919508
0.719531604302
0.29067200663
-0.275231558176
0.894084205557
-0.877493887595
-0.12909284366
0.948393843192
0.773670086623
-0.129856616146
0.848769272982
0.805562716891
0.761270816414
0.838638018559
0.450884059876
0.019820750305
0.707606103231
0.721517641255
0.503577986814
-0.815493200907
-0.50411201234
-0.837522291318
0.0122615736055
0.904617964597
0.530188325439
-0.408090718009
0.390998600785
0.178511817508
-0.757677419952
0.0129800205341
0.463376165961
-0.0611376958043
0.312909973067
0.275300917086
-0.0925792556492
0.243481240988
-0.65593050666
-0.953750511308
0.893025595267
0.951970885328
-0.716280305019
-0.0983968150703
0.288661675492
-0.348084171143
-0.840733987039
-0.558165824708
0.440230385707
-0.380586523823
0.0202409465105
-0.00173456708597
0.346849476013
-0.939042370935
0.0818777321386
-0.0086574407455
-0.819080888216
-0.361797638287
0.16072716249
-0.838806925293
-0.185710985772
0.699827076029
0.521236162433
0.701404968277
0.308589351442
-0.376974258032
-0.586510574405
-0.729322229089
-0.227088666935
0.0363657957554
-0.417599055108
-0.104545655387
-0.495804710745
0.443441568396
0.356890122621
-0.37126817044
0.380563773744
-0.387945517893
-0.914390478594
0.603757044515
0.844305448697
0.0345705531294
0.7807013585
-0.785858848825
-0.654365997151
0.426145140249
0.306350692121
0.434656065876
-0.651612353458
-0.428944908068
0.883230629617
-0.601856820414
0.520942465283
-0.897349687389
-0.0417267919622
-0.44907266023
-0.572798645008
-0.189407667149
0.517137369473
-0.742884353953
0.720693221653
0.762775487625
-0.0514604114893
-0.86980414795
0.550142647189
0.709867943693
-0.948877296226
0.553635894382
-0.923663260798
0.262042240231
0.781198867638
-0.65106838724
-0.537888240798
-0.532681388013
0.244595848239
-0.902786845738
0.488127991822
-0.515612055151
0.592701423945
-0.230813424869
0.622725575453
0.372740287794
-0.342573122443
0.976207006202
-0.862285336989
-0.62331975563
-0.465479347795
-0.899058574681
0.641515388945
0.076553174178
0.619266885465
-0.594321590468
0.00281595453788
-0.222672062875
0.381311744598
-0.233902264167
-0.223453620899
0.676543152831
0.367965912735
0.0148889233842
0.90306408587
-0.596807757869
0.806775900002
-0.444934613429
0.852270870843
0.465062259666
0.277599273965
-0.171821928838
-0.0995473466919
-0.670679432342
0.100204146097
0.400330100721
-0.868325739372
-0.38509545532
-0.146418958857
-0.375138395418
0.161601591103
0.959612145645
0.834756798575
0.137959493848
-0.382336123702
-0.950583845282
0.927198378329
0.941503449392
-0.0779439298785
-0.0153550926268
0.0590576955
0.796173582273
-0.621780371714
-0.346192666792
0.831533975994
0.716445924902
0.255828261788
0.385816755067
-0.416654708941
0.876151892279
-0.525184512397
0.673394270091
-0.796254180601
-0.91296138569
0.230148541947
-0.729377617236
-0.638537969937
-0.309264320666
-0.882852257141
-0.828837675394
-0.0354536121216
-0.0426077009918
0.0972707566327
-0.825647012759
0.511024539395
-0.814143302879
-0.847003006588
0.774347645939
0.454218824283
0.938043440822
0.00633098654179
0.623540171574
0.360115236658
0.160495332382
0.90699408282
0.59618947049
0.73909651139
0.508888959248
-0.17137014468
0.169236776501
-0.0197446740385
0.903606282921
-0.400872310476
-0.646077019187
0.393145819437
-0.662806625113
-0.0558517307025
0.835153343537
0.0465674841182
-0.389151546362
0.0402158465859
-0.536996900203
-0.990503096096
0.218254333124
0.763133513229
0.9115688539
0.186895211632
-0.849882979148
0.32130682074
-0.1933396158
-0.137671230577
-0.115005856837
0.106597370945
0.594264573393
0.999528055698
-0.623325559901
-0.453863825484
0.720498202206
-0.322383746813
-0.424187186759
0.0460573815202
0.833783969165
0.775385756931
-0.351532722497
0.876391909551
0.484459778843
0.510411617402
-0.859926036093
0.943847689541
-0.224562311713
-0.30409951142
-0.209792062872
-0.0829385001617
-0.0587236315627
0.245315644441
0.677540043674
-0.625858131294
0.20142900341
0.827968869219
-0.621567799881
-0.588361192577
-0.566829241627
0.865263850701
-0.753629430886
0.195970471
0.576664615908
-0.945102824746
0.908300819061
-0.776705671145
0.877979747516
-0.885063597049
-0.0186097752554
0.668863976956
0.12992846368
0.506505964655
0.127339410557
0.0640778976526
0.264362891491
-0.61715030132
-0.138315477792
0.652650132231
0.558323788568
0.286316292902
0.35497223437
-0.531369984656
-0.957967571948
0.484887518924
0.371901706335
0.142603973276
0.230281407337
-0.618477755779
0.823160084749
-0.827523667476
0.272258675051
0.0215524542605
0.558342567772
-0.0855207813937
-0.627152124559
-0.814099403502
-0.551567587516
0.386608889236
-0.832543786591
-0.44687055573
-0.103306168171
0.288006321202
0.210057529892
0.696344470164
0.6559664968
-0.945311299847
0.720657332724
0.331676026932
0.986758278709
-0.713126379354
-0.50679838941
-0.370355638249
0.89434179049
-0.370535436592
0.6158432583
-0.678066456847
-0.416279411582
-0.840679792405
0.22613200082
-0.630029108266
0.128887100768
0.544218293897
0.551970596684
0.607561649382
-0.390832444351
0.305779928199
0.795654657806
0.225215283136
0.482790327323
0.913885238053
0.618027421106
0.129368017544
-0.0752653146031
-0.00511908655564
-0.64869571071
0.58387809945
0.795524352152
-0.82698542211
0.931965586089
-0.832843257505
0.910073502158
-0.63839073133
-0.338411100092
0.339761850807
-0.692342812511
0.419479120579
-0.975941284065
0.467949028232
-0.0754224840731
0.435323364608
-0.930912160521
0.295275501041
0.865204186478
0.983912342977
-0.306253375128
0.539308774533
-0.955291829207
0.614852296192
0.864270051128
-0.342173437822
-0.0314416843779
-0.66055605826
0.829184672741
0.0256389929934
-0.0289701668831
0.314434633727
-0.265408724837
-0.707964642698
-0.682280566448
-0.623333789155
0.929269448321
0.117499816662
0.112957264325
0.517142065448
-0.379291924669
-0.833746070871
0.253128576775
0.715188241177
0.490939951305
0.997059598975
0.625093972957
0.569020298435
-0.199361265162
-0.667842192733
-0.569115589303
-0.0711686657297
-0.510689097103
-0.681155863139
-0.05072118714
0.327901324576
-0.819148710871
0.0501946126103
-0.353940999459
0.623919961742
-0.972517006227
-0.811846265377
-0.547516558734
0.58364033358
-0.798494314164
-0.69154709665
0.197459243875
0.53197260242
-0.173886942225
-0.577501294158
-0.0221681827445
-0.734723217433
-0.970242420109
0.820394352308
0.186169010644
0.309866556297
-0.302275477322
0.749398303468
0.225441393619
-0.649684639398
0.600286160901
0.840527951995
-0.738954640143
-0.781407305433
-0.730104938621
0.700409232032
-0.0193461855672
0.242464808777
0.108099503412
-0.803803279101
-0.712927546077
0.357935258147
-0.731261287728
0.916308701253
-0.81139034475
0.899223814598
-0.742968078646
-0.495819821463
-0.566097523535
0.154883959574
-0.302702266979
-0.498262761948
-0.878552860975
0.138392233176
0.421176404176
-0.405061361971
-0.407155029015
-0.177152617318
0.0969203427313
-0.87218494205
0.568016363469
-0.780098311223
0.549781154297
0.82189263614
-0.97555175761
-0.770563575932
0.779280933919
-0.380449180748
0.424853195771
0.452229316204
0.9320138696
-0.162285653104
0.0999006153957
0.408882226834
-0.294571719582
-0.199433901064
0.103428940884
-0.0834626982022
0.826466642599
-0.892234958201
-0.82953750792
-0.0741202411126
-0.947543187463
-0.71482556208
0.216862835111
0.0345064507486
-0.79024993159
-0.553941971302
-0.514346502015
0.884304209196
0.767677396084
-0.0970500747857
0.0987127080856
0.322043133659
-0.326217544647
0.322180626621
0.343350571797
0.924191345543
-0.509711735916
0.639628228334
0.319479421782
0.936772198458
-0.570057441772
0.977351824528
0.718425151743
-0.670163883896
-0.559217342185
-0.921378769445
0.689378656779
-0.950216537729
0.496314752339
-0.319504115267
0.346006657106
0.190725114619
-0.563870818891
-0.456311653059
0.294676397426
0.308255940892
-0.180282482534
0.461788734777
-0.513023211666
-0.634692907501
0.481274801081
-0.894741087607
0.796413620875
-0.957378792944
-0.350385442333
0.465185224449
-0.22352966916
-0.886218203393
-0.560417674077
0.107631223732
-0.735996891665
0.0413170671904
0.616067613398
-0.507252691517
0.0416497035382
-0.343303770468
-0.504306807441
0.0970437000901
-0.876663041461
-0.237388520865
-0.0874743679816
-0.29502170228
0.381736204044
0.0920850267415
-0.0572669411901
0.668573237779
0.759552855135
-0.816502672044
-0.421742430875
0.510776337138
0.691112144737
-0.53088727905
0.11773228764
-0.595718543618
0.122990168272
0.0237323073629
-0.238025318148
-0.405800165127
0.941142927451
-0.186051409561
-0.944207696016
-0.663975547843
-0.980783323708
-0.561030643117
-0.881694394708
0.104518486479
0.778340992045
0.0401651621751
0.922516808706
0.175067636524
-0.317854691633
0.533049673944
0.198480417761
0.00186132359079
0.120513421548
-0.0216290778112
0.944413253445
0.337888948213
-0.454420402711
0.00944842635149
0.650400526323
0.302317227625
-0.836252324576
-0.691514905939
0.308701271594
0.0863628896131
-0.194930199504
0.146960070663
-0.676904104711
0.206667958323
-0.764579939581
-0.562820408646
0.672257438441
-0.219502931563
-0.107106060607
0.25558674859
0.421514135634
0.703586835985
0.807278034113
0.815561988946
-0.717787005957
0.176148622491
-0.46015199721
0.835658929115
-0.486992946858
0.748124273411
0.467857628024
-0.0792504355828
-0.535985252362
0.0782403638945
0.299521030729
0.383844305596
-0.660451343189
-0.3055300327
-0.420535068997
0.842016406794
-0.378526280823
-0.191631740966
0.503570185643
0.48653700936
0.0110293589613
-0.231890972322
0.193656728368
0.51701643311
-0.862427796803
-0.72724071544
0.169593545821
-0.0488061958792
0.428733847816
-0.689336515124
-0.385829966188
-0.121543383579
-0.220121497326
0.271876500777
-0.70414961702
-0.357697601129
-0.657970228596
0.738935729733
0.520804134302
0.615287229208
-0.869617091882
-0.511526290444
0.817309004516
-0.0750496667055
0.615723022649
-0.87884230359
0.887844046992
0.759675195362
-0.940011828149
-0.380357439341
0.630644809309
0.064973538096
0.892054556688
0.528214905165
-0.69861280618
0.983953112996
0.173097488464
0.877013508719
0.511785204195
-0.671980570867
-0.97330751115
-0.066894449326
0.537754111054
0.508767264966
-0.786225157035
-0.460993757719
-0.0871359967161
-0.223492892868
0.510096834835
0.313565899021
-0.78047786041
-0.576542125196
0.745241831577
0.744201002067
0.14165281409
0.843016045096
-0.290429535309
-0.217990590455
-0.734984454623
-0.766481848493
0.464423175961
0.546204467545
-0.482737566638
0.160645862462
0.196675335821
-0.0840081813799
-0.228130065265
0.803498006686
-0.223224023668
-0.108611599717
0.704244016773
0.493559153545
-0.997329362403
-0.822388250692
-0.973768124589
0.135790959504
-0.600196262564
0.250953200046
0.395971902157
0.717946569386
0.28417895259
-0.270540480761
0.0887377081369
0.448468436319
0.540207260065
0.655523974625
-0.836425649766
0.603656865642
0.247732096914
-0.399472323287
0.825025381347
-0.148012372517
0.902227800412
-0.105630335349
0.63779387749
0.701956310513
0.90914868106
-0.202482090176
-0.330420067416
-0.595180122172
0.940870163846
-0.194842225002
0.536667954608
0.478263960488
-0.717683421279
-0.641015683926
0.24418176591
0.573142091048
-0.650366565013
0.411126853712
0.76769654002
0.873048496902
-0.729738454274
0.791090869712
0.958695446262
-0.823835419314
-0.133566529298
0.765990885133
0.263611756863
0.190402024692
0.880181233797
0.601712152389
0.896306309539
-0.0464486208549
-0.576758065268
-0.48006450766
0.27031893882
-0.934159954111
-0.077201715082
0.0730397212852
0.778380409036
-0.98144974409
0.665942494959
-0.639864396643
0.530142791876
0.28028177791
-0.988422933216
-0.982593211254
-0.0917865271086
-0.538784151414
-0.888071447509
0.104363367787
0.884219874641
-0.523273475528
0.791767283515
0.873081161737
0.111694260091
0.727235822119
0.34736635372
-0.472431730701
-0.197623570032
-0.67722403158
0.552036741183
0.599490049306
-0.166199241672
-0.363466348008
-0.309218131677
0.0402565270662
0.0581053765421
-0.417493268438
-0.67219122023
0.239776259551
-0.373357388556
0.485826417413
0.174103187052
0.330451323564
0.342698799082
-0.0891955855123
-0.351866691495
-0.783594705601
-0.339672139818
-0.0555531383708
0.79820445939
0.942382576698
-0.510021467699
-0.879369528489
-0.556511012812
0.678407683219
-0.295730635348
0.516306048096
-0.818901046244
0.135039343806
-0.282769112332
-0.366192014896
-0.46159806127
0.15746967689
-0.416221104553
-0.997861732939
-0.494954292354
0.180181999057
-0.803838482873
-0.251931500187
0.605740424645
-0.555400039842
-0.652929214638
-0.705931769706
-0.583528433972
-0.026073009617
0.03088751954
-0.688930750566
-0.606878278754
-0.296386321327
0.164983018014
-0.0898537220815
-0.506139798692
-0.441233136072
0.841136833117
0.484822065823
-0.484314868083
0.422381895612
0.103378991636
-0.13049244486
-0.869124417119
-0.543403084009
-0.905827582392
0.387618862647
0.0509829698713
-0.443626081214
0.521416386526
-0.0671697835726
0.942808040683
-0.693811865558
0.0461076565981
0.314595751988
0.716336974798
0.596298178286
-0.539674398344
-0.0220092703
0.267035089617
0.121641619617
0.614591861618
-0.204651357295
0.0277492890583
0.452269910383
0.373128744803
-0.369329360547
0.948033426235
0.0730616322069
-0.504322828088
0.0199264962559
0.335846356224
0.968836568855
-0.00527615093774
-0.130176838565
0.461237273448
-0.75581050827
0.757423987062
0.937360364489
-0.197938111053
0.89335345355
-0.511894838692
-0.693886008297
0.784971188265
0.316032493687
0.275155378651
-0.0869533916718
0.941838097391
0.283870493878
-0.288936759944
-0.208372022326
0.838968544895
0.573525758271
0.272083637034
0.815726435276
0.985202793208
-0.620309177415
-0.303260408958
-0.810232108234
0.698443413453
-0.401057017346
0.917470959845
0.401659680655
-0.41839395297
-0.274554848413
0.0881660406375
-0.809122654842
-0.0768219045432
0.155675359185
0.317581957541
0.551301579214
-0.265481349326
0.866437389819
-0.900169784812
-0.726857610318
0.903201599725
-0.748067314729
-0.856653328745
-0.552762318813
-0.577636835057
0.292775550324
0.289832127605
0.0699846344232
-0.97037534037
-0.255728117811
-0.0852469152906
-0.0797453841318
0.340710613007
-0.833743504509
-0.930905350245
0.514419365047
0.688461117707
-0.0139586759215
0.892079555107
-0.295192684775
-0.365036588803
0.893283916337
0.635310350964
-0.657238472088
0.766077484137
0.3355933808
0.724488126452
0.148952053058
0.395669013387
-0.593549603839
-0.413182759419
-0.874639930502
-0.426775122137
0.532198859283
-0.360026712288
-0.984403972105
-0.0535635823333
0.260095009994
0.490088724253
0.848004928769
-0.842411431881
-0.957592741032
0.951014756863
0.550229934091
0.559616405949
-0.734144553997
-0.16148432613
0.30897311412
-0.487657945831
0.698564486517
0.176193827265
0.202539970251
-0.207796522884
-0.733344789464
0.847677322994
-0.194593770054
-0.559715535257
-0.734981181486
-0.366434646984
-0.354110154943
-0.3472377498
-0.159221449179
0.537088932814
-0.621833663055
0.748128667219
0.998872738535
-0.868701484864
0.748047915851
-0.712431952608
-0.948796995476
0.734657770797
-0.423218168834
-0.169184509059
-0.722965747871
0.698913039152
0.827437215421
0.612664694133
0.70013828984
0.411081072501
-0.71501800397
0.708877004323
0.835146855744
0.0284736879886
0.610089757359
0.45061190144
0.651032965707
0.665367659899
-0.494294314719
0.181589537677
-0.323693239534
0.399865932281
0.108621050833
0.24703368578
0.240038380621
-0.668501341106
-0.389231128755
0.227371401551
-0.421842809981
0.656597093326
-0.0999372231553
-0.119239244465
-0.253482913821
0.466495031858
0.692399941558
-0.523786462107
-0.0466605073426
-0.170773587736
0.748611791192
0.562770732514
0.248166550869
0.971941552838
-0.0688604576966
0.960401269964
0.955778206579
-0.78376645449
0.594773600828
0.847668368588
0.871558676529
-0.999186759363
-0.0410278438788
0.421216132768
0.306851961149
-0.76220325562
0.547939946333
-0.984164039546
-0.594157133729
-0.577706312497
0.929916912095
0.572135128637
-0.180621121706
0.754228085813
-0.109927173277
-0.900701309283
0.143003143985
0.909842685074
0.641653584491
-0.610314436918
0.615137162254
0.361732655031
-0.677026670563
-0.984952962905
0.653040436998
0.302215844797
0.917579395823
0.718290495822
-0.593953150168
0.614215849478
0.859365703224
0.784058422536
0.616712284774
-0.0123709701029
0.742400782903
-0.0880668952624
-0.814929541036
-0.585974995028
-0.267645772629
0.997827631332
-0.394692123319
-0.674225183896
-0.5734277784
-0.465461747249
-0.25362446283
0.906880257695
-0.107375879618
0.119465533463
-0.688793087351
-0.855587460032
0.863104218153
0.487000177228
0.735813196481
-0.00580015361711
-0.790914784342
-0.405709003094
-0.655235075046
0.388383442703
0.241888447515
0.903973459561
0.642465433497
-0.483734862542
-0.401570893687
-0.119253315811
-0.291347930882
-0.757285244792
0.316438156039
0.64799865475
0.991647134605
-0.684267487428
-0.297897587741
0.215695595469
-0.588918155683
0.563017972937
-0.751220971213
0.515656260776
-0.471400457631
0.467805785645
0.743152396896
0.371820344953
0.599766377082
-0.242175642109
0.0428795988197
-0.865804840982
-0.943473033883
-0.776063518757
-0.329103750883
-0.720512638889
-0.573801723308
0.101375044514
0.671818096964
0.366108416666
0.668701352012
-0.473168488909
0.330226960725
0.681934288227
-0.89918557366
-0.770412494473
0.377750206896
0.680148405286
0.3848627274
-0.399798983275
0.989380660333
-0.99839074865
-0.287995441023
0.960678595905
0.464477251028
0.583273356267
0.304381123496
0.355824187406
0.0700109873183
0.00753603734737
-0.661483376507
-0.558892217986
-0.408967677913
0.026919404811
-0.173196459231
-0.277044050551
-0.944775752331
-0.948869457153
0.803909563932
0.0505296337624
-0.20924918252
0.829842577514
0.894069227071
-0.527193549694
-0.394921129172
0.923367836828
-0.207053491303
-0.45956664505
-0.113291494456
-0.645334080684
0.810567495377
0.171372935329
0.383187978722
-0.237753508931
0.731420816914
0.675307069606
0.801718204292
-0.693911752195
0.354180564709
-0.93435456395
-0.619360937877
0.491559931836
-0.523297387697
-0.444609438493
0.106429658609
0.660526757884
0.58719634663
0.717813169803
0.382254059959
-0.478040101176
0.315950875645
-0.967941391581
-0.368855761444
0.06038563571
0.556841207706
0.129214130865
-0.713747818828
0.252692206252
0.821321243475
-0.282450880184
-0.0117583917452
-0.21100632626
-0.842919494895
0.0682119596108
0.190160109208
0.29695102839
-0.0844993606566
-0.00314066539184
0.902835679341
-0.679784307228
0.337178286395
0.37162276906
-0.748423468954
0.888121991471
0.834523231974
0.567919684347
-0.75965912442
0.912012939873
-0.0348473587726
-0.623710310758
-0.839511553616
-0.814391318857
-0.575936912367
-0.493101242855
-0.977292788647
0.525674148299
0.428893781268
-0.488762293233
0.566868309786
0.171739638909
0.0866275577903
0.420511201449
-0.787866734773
0.721559981717
-0.199219785113
-0.591493504248
-0.0540786576608
-0.654963971476
0.538665340765
0.516014139347
0.382545359083
-0.13777458891
-0.186411359672
0.2030323049
0.393015594698
0.944398778413
0.513251256247
-0.123664648484
-0.827929043346
-0.726967852256
-0.451452451892
-0.579930313486
0.224111333717
0.884658246157
0.0390562456976
-0.682129051895
-0.195375603488
0.741846036361
0.464254907047
0.275362370562
0.209225636683
-0.0163624535602
0.414966474042
-0.25153135887
0.784106228525
0.0915925941091
-0.264635136019
0.120463600953
0.576540890918
-0.99650114339
0.747762308673
0.625845786234
-0.300655191203
-0.836477955713
0.978723953956
0.399703133419
0.0116058695394
-0.412888036416
-0.499981466363
-0.0224982860518
0.663136760154
-0.91272451775
-0.70753045406
0.681473045106
-0.625222883613
-0.259079346572
0.662573137744
0.280815909782
0.316361636996
0.4962555845
0.888699369101
0.955527581299
0.191461095691
-0.130694916033
-0.686385025137
0.132367335101
-0.383371259888
-0.692523329319
0.361733722094
-0.503158813836
-0.181517052674
0.38608058442
-0.335371467753
0.73596823747
-0.785619738262
0.140635744819
0.592786594269
-0.769559285638
-0.818900131431
-0.169363741427
-0.842900328533
0.35946145775
0.341917315698
0.871191837769
0.067544543703
-0.95359402417
0.261790823917
-0.992799293171
0.104236102731
0.7397099037
-0.55833524422
0.463004818765
-0.797527445388
-0.640897998832
-0.263591682716
-0.224307282564
0.743826276581
0.364425474559
-0.192054478935
-0.132428003986
0.701952039065
-0.415332972199
-0.749419722155
-0.126507227017
0.598057398303
-0.885991906774
0.797455616288
-0.295218016655
0.577277782601
-0.422047851491
-0.299649482383
-0.302045714512
-0.685329817628
0.0428620001751
0.653576740991
0.920437829408
-0.504128478505
-0.684323538242
0.2992722913
0.334134788075
-0.0589933824005
0.138693773889
0.678376908181
0.828129190992
-0.98825446939
0.177696775538
-0.0388581178361
0.776444915712
0.702910995367
-0.281379528726
0.392413795563
0.760760736751
0.339244624582
0.412465054463
0.659863669121
-0.690870766595
0.366806869009
0.825270604933
-0.168326073233
0.2864657456
0.77312344168
0.76612701028
0.896805833233
0.319051084012
-0.693954607326
-0.0650311403815
0.0777104461133
-0.738365644271
0.504867677971
0.954309637366
-0.911223800625
0.378265051864
0.996009522099
-0.403712387692
0.592030561445
0.045021816888
0.734305098908
-0.32919026167
-0.771065444519
-0.306437769737
-0.601179317803
0.397862886391
0.56753701911
0.242113097758
-0.650702756614
-0.377062471151
0.0947906383171
-0.235052440287
0.55759015943
-0.954569692244
-0.0654923821356
-0.96169305562
-0.349369363083
0.0450332994358
-0.282796635424
0.63951225625
0.546526938356
-0.662105855552
-0.45496561712
0.0464147962744
0.71478830186
-0.313608726774
-0.916271977581
0.0862470844078
-0.358351153118
0.129334468567
0.401591404003
0.702135201132
-0.139251068375
0.0616868863554
-0.43574139302
0.167302117239
0.27190923657
-0.150214665873
0.242538123093
-0.877191493957
0.871550844518
0.390343858814
-0.277133596515
0.0505919929833
0.658646122327
0.880472559495
-0.9364945012
-0.0625846237813
0.653900561792
0.413076238435
-0.124312739555
0.698493785517
0.649829559255
-0.890381557911
-0.680858945319
0.607302787193
0.809999113015
0.855864207263
-0.704424821874
-0.861704887744
0.701872651484
0.855296571067
0.185889241963
0.568880464258
-0.580050866218
-0.367798915212
0.0691124061761
-0.0308489267679
0.137731647741
-0.415106696959
0.0266309936159
-0.474003802482
-0.895221262878
0.429689225532
0.977981064953
-0.168680927547
0.540436046178
0.623083294395
0.873655141889
-0.935474136061
-0.588310540233
-0.105981103107
0.233236275949
0.342390132848
0.511979567924
-0.194521502111
-0.395347388907
0.877007895619
0.939089916704
0.954499454665
0.48653080765
0.252471188453
0.150813434014
-0.829958308157
0.782700268871
-0.150865613298
-0.78401171294
-0.906425235834
-0.555097979636
0.367351590127
-0.807922213918
-0.324952198973
0.921163790754
0.384473904826
0.389422754784
0.561826114441
-0.156663300626
0.0866127472049
-0.944311397428
0.645466127686
-0.192048370921
0.480078364929
-0.525725877594
-0.685499686825
-0.191754878905
-0.229116545352
0.0456459787257
-0.419368395057
-0.662282021603
0.741809045821
-0.354894484491
0.480909490235
0.0508670029496
-0.449473221125
-0.730134707377
0.387586511418
0.390211413003
0.392555731523
0.824793369736
-0.369520856489
0.483263366586
-0.0967643551155
0.672528055738
-0.897868186514
-0.136858161966
-0.460270636042
-0.105417798783
-0.973561757861
-0.0274132613142
0.861026798217
0.106376395973
0.272405103486
0.249968469868
-0.203167677737
0.362366709563
-0.289567490096
0.814972975727
0.523023748704
0.505904764298
0.305079082166
-0.342941929841
0.0602997461609
-0.932684055435
-0.0311869265121
0.2110163213
-0.620911592691
-0.939500205804
-0.703269974343
0.225938843383
-0.390223505889
0.153206752613
-0.677745719492
0.866044734311
-0.586823395956
-0.107593614276
-0.792535580401
0.713421633146
0.922016533959
0.291207723577
0.815843886106
-0.449833559707
-0.192084177896
0.665136647144
-0.657003186447
0.499228753595
0.0295747608823
0.0664978921358
0.959131954393
0.144703288919
-0.531269268193
-0.14470849429
0.888763728913
-0.738412252257
-0.639849075793
0.555475691294
0.595447162685
0.00298971162811
-0.8056320749
-0.30518678583
-0.148549052973
0.253658912885
-0.197184251766
-0.971665993338
0.514214654157
0.256019852797
-0.294822676588
-0.935717353373
0.923966582487
0.621084626618
-0.0683090478814
-0.207431524933
-0.820370556606
0.457899803754
0.829915548921
0.780026021478
-0.590674937086
-0.0628256075769
-0.768714009873
-0.224801673662
0.485224662542
0.879432994888
0.565979116758
0.00309974303006
0.11857302986
0.114399263576
0.538681293581
0.294397112375
-0.976273467708
0.657750468183
-0.395582376192
-0.243646905389
0.333267842602
-0.398690937085
0.746380172372
0.315247528454
0.157011077602
0.551544350387
-0.977077102666
0.994480560015
-0.687170160465
-0.859986297016
0.833305747815
0.267845686042
0.382905778101
0.330884298739
-0.918117926232
0.522370061691
-0.782656000595
-0.94108446085
-0.0924415517505
0.413698916109
0.0575337184516
0.271467959757
0.750088372121
0.0936831500496
0.23572710537
0.958184020216
-0.487704632873
-0.181056541516
0.46472366328
-0.914919865807
-0.7512157925
0.184072450988
-0.230220443935
-0.594875298683
-0.100118963884
-0.932703100523
0.230754592388
0.118238735309
0.421486080529
0.37787868424
-0.189052691792
0.575426581773
-0.54269805247
0.360273125219
0.312867262424
-0.975570126016
0.997391209114
0.883880364527
-0.281515374905
-0.59340132853
0.632718963444
0.281964386985
-0.324423632407
-0.830659999499
0.29235896743
-0.506709328499
-0.733149863249
0.186804121386
0.40326573927
-0.481531598058
-0.502239059912
0.682866132108
0.501738320792
0.569886394229
0.841338531715
0.740493032922
-0.502554607086
0.428525818345
-0.981455250787
0.295051211006
0.636823531718
-0.255689041965
0.457688918384
0.0254701343973
0.882997032301
-0.0464609187507
0.921500595609
0.974875136927
0.608593748017
-0.858483657991
0.192183477544
0.628536698732
-0.695420286263
0.988733075464
-0.880602093741
-0.280320241769
0.695413773533
0.996221417678
0.318088145395
0.456082424055
-0.855362131181
0.501211239262
-0.285075580499
-0.948475425145
-0.0372583709193
0.272892381506
-0.22438053065
0.51049278183
0.656295923975
0.807401362329
-0.0863028989071
-0.569134620992
0.354057898663
-0.0698825433358
-0.196470471337
0.623647786167
0.1809461984
0.0136405627441
0.992832363614
-0.204507197519
0.564407736406
-0.423450408044
0.209657254831
-0.504651154592
-0.861265300946
-0.740702766507
-0.808763633775
0.991368715786
-0.127174076642
0.517164174275
0.7107385197
-0.0275380381818
0.623022857632
-0.948508631108
0.0148833509584
0.407241526934
-0.01785788034
-0.145051127393
0.0878347753588
-0.758425334708
0.609863827782
-0.254085944567
0.893311214104
0.181920603716
-0.521898954473
0.971313322054
-0.0256840768421
-0.782732881756
0.750537959007
0.913319625306
0.199896532294
-0.0400907004703
-0.0533957385966
0.973338291783
0.115097366977
0.119197257285
-0.452816621726
-0.307409246625
0.855926669566
0.7604160646
-0.926386892475
0.969818913838
0.918642553291
0.390600606551
0.685483930215
0.0916625337903
-0.876262413312
-0.534022026325
-0.844583200547
-0.962505134116
0.0012714393889
0.655593195741
-0.781583503828
-0.948973011919
0.0693821555466
-0.604865978344
-0.9595235748
-0.327507348305
-0.340481342985
0.680772361697
-0.12468318701
-0.559401110191
0.803863689244
0.256184304294
-0.844092424102
0.467185769092
-0.534969859441
0.174650567697
-0.043918321921
-0.815241770719
0.474972280775
0.299741047332
-0.0410183426088
-0.326298391454
-0.36138197474
0.566689979326
0.594158750617
-0.431731390309
0.88508144591
-0.66267595793
-0.252709420571
0.63391971513
-0.0350594791875
-0.438470225321
-0.537138056358
-0.238180147813
0.0673772585519
0.0869384162469
-0.778096902203
-0.39932333915
-0.176119955845
-0.838101224462
0.330638271395
0.710801227888
-0.999154896441
0.156605780976
-0.234963871622
-0.660984351603
0.122990946431
0.963664130307
-0.994594342918
0.676265967151
-0.00335820996464
0.766262708858
0.707668283394
0.86799500877
-0.0248172648419
-0.722983113567
-0.0127036515201
0.372290161339
0.838119025564
0.143587679623
0.132563817062
0.923821287563
0.704059702415
0.128778978772
0.0776741214008
0.141764503881
-0.795529428531
0.0749525377216
-0.834424161398
-0.27219659381
0.166825681672
-0.228666535269
-0.930675954124
0.107076522313
0.32320275481
-0.89015563464
0.95439135603
-0.381996640246
-0.529753708307
0.290150564068
0.799869949844
0.575761291286
0.205963013692
-0.234068527022
0.735503113414
0.803903529607
-0.756618916649
-0.163113245713
-0.998197614813
0.685813392111
0.551038208007
0.772556085584
0.234157587065
-0.674826907016
0.359277855349
-0.0096608187344
0.522326585978
0.616737100832
0.0178539402929
0.953420270552
0.0991594872718
0.602401677476
-0.170430954528
0.452872290209
-0.85953903841
0.121247333412
0.511626581893
0.622974883723
-0.924182208018
0.86290712542
0.456508109234
-0.549712786193
0.13946709282
0.910954917896
0.0877514361022
-0.157282495938
0.495796547211
-0.839289358799
-0.238537931649
-0.701165953348
-0.391177349351
0.425256758322
-0.493817573845
0.466798050601
0.441524766819
0.885968507675
-0.29022116034
-0.144360722951
0.0229685388251
0.302647556534
0.256558045258
-0.985686471653
-0.0552851987722
-0.313108595761
-0.565996147658
0.603304034575
0.711719109816
0.533260977726
0.488700363921
-0.326013847105
0.730696329543
-0.606004329592
-0.833588001198
0.317953458246
-0.587836424303
0.812892736311
0.10855406084
-0.579836364967
0.384177927931
-0.897156011522
-0.602492547222
0.106203108773
-0.000485414657148
-0.584106566769
-0.59334391256
-0.241656956696
0.107346654441
0.45063235622
0.386583635445
-0.14848873168
0.78934190426
0.325069277385
0.00853924080184
-0.615396549087
0.311310738218
-0.232379064543
0.940814741337
0.435081854692
0.82098896758
-0.790635284912
-0.506505858789
-0.549843227946
0.410080300691
-0.367960646515
0.327699616544
0.363598801859
-0.909750007822
0.523246873084
0.491488374231
-0.947360740484
0.312626429466
-0.718257428705
-0.950839831934
-0.146118953288
0.490631315809
-0.422164491818
-0.125552275459
0.748218284606
-0.49904396222
-0.325973700676
-0.21719918664
-0.982405200161
-0.185516842899
0.799084076296
-0.497337661334
-0.0897180126055
0.139295049116
0.621480713355
0.384063409589
-0.738386335117
-0.173638610089
0.781885136442
0.170164745932
-0.819887217028
0.566470276071
0.930034600901
-0.633979486029
-0.46145409229
-0.841460750887
0.477132771315
-0.598485510598
-0.38934550365
0.172501106401
-0.144201708202
-0.168998231521
0.114066345023
-0.857974875116
0.777760159952
-0.0525254157934
0.949779292037
-0.518271354397
-0.232654030052
-0.419045324688
-0.270232412685
-0.917561331497
0.720134846928
0.27825288945
0.00759449161859
-0.76526482626
-0.576950220607
0.634513594148
0.448661263224
0.582297655978
0.0261867380158
0.492777685663
0.166586805947
-0.238140402724
0.506342369623
-0.817246786086
-0.761638975516
0.917808981762
-0.553268278536
0.942500724158
-0.194716654941
0.732512339384
0.0218933475861
0.27326031837
-0.100356896675
-0.608094916289
-0.249062589602
-0.554636537754
0.0652267286625
-0.760960214139
0.539243911355
-0.680745581471
-0.421496748106
-0.244793435439
-0.670696340423
-0.277413133237
-0.695062228254
0.836444373986
0.210222365222
-0.749274670024
-0.543862957548
0.611597318206
-0.495695250227
0.711108447523
-0.645699310919
-0.5401659116
0.631724224605
0.835159096633
-0.40853842731
0.807044816271
0.00234152990264
-0.453657287203
-0.256770616037
0.307566326509
0.275028576303
0.434506802989
0.0991754636272
-0.593818998371
-0.447329578254
-0.096697102145
-0.271627263636
0.597016829328
-0.377163350718
-0.352209365177
0.370674870218
0.846705103761
0.96723996066
0.592427228451
-0.245649567238
-0.0875386507887
-0.126755483043
-0.700399889951
0.887516777283
-0.452005600635
-0.885756649115
-0.997823969225
0.245004150123
0.700784931057
0.363684860132
0.318598996903
0.049618913152
0.854710417931
0.335879101474
-0.00503849647887
-0.436072820718
0.921226714009
-0.480217182624
-0.485025805027
0.48564290626
0.740968700325
-0.119030487248
-0.518439699847
-0.681106920637
0.0661902481648
0.813994798602
0.975780757569
0.890906471931
-0.925367587777
-0.377626473399
0.541730797978
0.344482603378
-0.0277277443193
0.485379861905
0.845046975643
0.700665548821
0.735622976048
0.546164231213
0.906091988184
-0.747880849055
-0.106465889075
-0.893403900794
-0.329353815105
0.0683776136667
0.419031315868
-0.832399489334
-0.885987068351
0.277681787426
-0.130489844592
-0.157624851038
0.354864028379
-0.0183977560215
-0.294035400198
-0.119365189168
-0.524071603096
0.50735548237
0.557807713885
0.489138510394
-0.827717583739
-0.696095768144
-0.761585375361
-0.339273979911
0.688409544932
0.85532312677
-0.298721473828
-0.729809146679
-0.0268225184613
0.437039273399
0.768753625465
0.102738648211
-0.254051129982
-0.549993286205
-0.044449692061
-0.0789029590834
-0.819560294033
0.793119158649
0.359785025758
0.9393289545
-0.878856633426
0.338201971816
0.529937824452
0.12949168254
0.117669289303
-0.728090185221
-0.646652108252
-0.821102730771
0.638655315
-0.00832290772113
0.233671239604
-0.425337871314
-0.358601693681
-0.172657057488
0.301850057815
0.0879979685876
0.621471415926
0.100387049949
0.432976548187
0.569202972342
0.717111327602
-0.111472964953
-0.429724269869
-0.973460738217
0.479635778593
0.0368678840944
-0.790942543972
-0.739056485493
-0.975407015521
0.808334821966
-0.216684093438
-0.312275608601
-0.486229270768
-0.326889385804
0.264062395184
-0.272006942277
-0.178683965857
-0.930765979963
-0.00131310217615
0.319507811672
0.136594593115
0.571830309536
0.490865957746
0.424120167717
0.541205902599
-0.515531763713
0.101420469664
0.303782859747
0.491745594082
-0.658342281286
0.405910986181
0.183702513822
-0.812883078418
-0.320058137561
-0.570511155933
-0.651797150873
-0.75275785325
0.824554813081
-0.231770185847
-0.46410156747
0.334072703124
-0.356251136554
-0.943041806449
0.515022881473
-0.3430608538
-0.970427502849
0.251272249357
0.462967669618
-0.589087733369
0.119649610133
0.964441782819
-0.96385155005
0.0202919422729
0.153007417687
-0.624163985893
0.401613999899
0.624359478531
0.671610962215
-0.643932359624
0.955473175101
-0.706991764087
-0.735678482829
0.402163509341
-0.635621441248
0.39810049306
0.341258239415
0.4226042964
-0.881420980969
0.425498877287
-0.714922829249
-0.478027819691
0.0745297093859
0.950631046833
0.814178336516
0.0591667454944
-0.632130613218
0.912100004176
-0.67161039809
-0.662594793106
-0.639808486991
0.0890154273652
0.253932165268
-0.953553808627
-0.625282089947
-0.142407016903
0.955605337095
0.98961989515
0.286879090637
-0.962684257847
0.732783463301
-0.774207355402
0.550070431226
0.440057661952
-0.809191435023
-0.745149268311
-0.0197707110138
-0.133481902735
-0.425016511537
-0.806703288395
0.282232612948
-0.542705561941
-0.0449163328584
-0.23807845673
-0.327027682939
0.430590282341
-0.245574896693
0.359597997772
-0.613629460143
-0.837760712817
0.806599862463
0.4770199294
-0.434347615978
0.316739714753
-0.56610000284
0.432035022699
0.622808476697
0.522710770371
0.355420879524
0.927097571571
0.633342516195
0.350973663699
0.806509284078
0.730726645687
0.206761249619
-0.827749814568
0.115090408033
0.150721915413
0.74456599968
0.575110612126
0.687657421612
0.278176474972
-0.555131714204
0.638577706672
-0.0323602836599
-0.0393661603724
0.9857423995
-0.664432357649
0.965928172563
0.515031100196
0.317532098027
-0.8810244308
0.0143418196148
-0.113209613067
-0.827389735314
-0.868541073469
-0.117509065155
0.80932279936
-0.899945751971
0.819190952582
-0.0394520743643
-0.829861439398
0.842275738822
-0.986898763929
0.532217964092
-0.137255964454
-0.890219723673
0.0557906315223
-0.769049818056
0.838571241034
-0.62998056009
-0.541929686844
-0.988795256943
-0.897295213668
-0.734468497345
-0.72373166708
-0.590596822936
-0.312705191435
0.57420559125
-0.399443835462
-0.571763327144
-0.117948548773
-0.119106266627
0.26386823713
0.528128704726
0.526812441213
0.619563104645
0.360043750673
0.0116701384197
0.697080723577
0.112219462325
0.656415969576
-0.363123358426
-0.424446899511
0.757457447371
0.287297974841
-0.341755895103
0.84989643225
-0.848187301582
0.257696491048
0.429080068814
0.85159654051
-0.582786645572
-0.0163743425698
-0.0744514096091
0.757553097693
0.769844413199
0.858350060133
-0.00355338518708
0.675010496246
-0.0226784879805
-0.512873290425
-0.539942849869
0.203067907842
0.110972719411
0.450748708211
-0.435012722729
0.993256992895
0.932068160451
-0.591078212646
-0.460636151465
0.874511730995
-0.940759845955
0.474641791327
-0.39140711546
-0.289633471583
-0.954386319766
0.600816509524
-0.766219095773
-0.533884719133
-0.22142496952
0.295292257725
0.115182296623
0.929110755154
-0.167233532394
-0.3901877224
-0.992171361279
0.593318692241
-0.873058933724
0.341491505771
-0.291254265027
-0.938421169132
-0.615624671083
-0.495576179911
0.117585106288
0.766074948785
0.122744938931
-0.285360990508
-0.0226220177685
-0.980869751097
-0.551105070907
0.616927059871
-0.0388509368539
0.534414416745
-0.712519768179
-0.871137063234
-0.215787274434
0.477366306939
0.253286387778
0.717562502022
0.627489890763
-0.211559103291
-0.654114574564
-0.112848633451
-0.686200411049
-0.592596284064
-0.300172210837
0.357309167592
0.803326754431
-0.0374233085413
0.825915571924
-0.795522544529
-0.889383557417
-0.247019797351
0.49885004527
-0.186159808652
0.325095920294
-0.179182569674
-0.501895113678
-0.430057316909
-0.43930936957
-0.0372071320632
-0.696979274035
-0.109984347825
-0.752713449873
0.517408051321
0.395348578568
0.275559401538
0.868427732845
-0.875650550056
0.0260218532439
0.219296808536
-0.786690038729
-0.533512790734
0.789207155866
0.984280704741
0.858888314581
0.231237400719
0.228905961196
-0.579618376529
0.109883184431
0.816157514571
-0.634138221652
0.270235655174
0.464288657267
0.335627939986
0.314699395038
0.746174986862
-0.188226510229
0.680289054485
0.222078986396
-0.646758099426
-0.357800065824
-0.608047794068
0.128763740828
0.0747304860248
0.977135601128
0.675815492651
0.589430523499
-0.919031071864
-0.740005547887
-0.165462242587
-0.56807693354
-0.560414046054
0.701709580678
-0.100818493765
-0.200981882456
0.511722052408
0.858768097459
-0.474104782669
0.0817298355148
0.515130030433
0.79361988267
0.962491486878
-0.592250921264
-0.00647657945847
-0.783642870729
0.00481141910411
-0.513008744044
-0.136165470242
-0.243018874743
0.510242251947
0.124154173369
0.126153532345
-0.908928083072
-0.0976606342618
-0.264325111114
-0.950754616106
-0.383400220902
0.475866835279
-0.13825422694
0.985896988752
0.0382375542891
-0.874307366817
-0.265399717909
0.761639845013
0.505088427216
-0.609093360839
-0.79380788233
-0.700933771447
-0.35052135029
-0.120000204761
0.307511696339
0.413056166965
0.617146059644
-0.322022836411
0.352241544936
0.78223072835
0.936527591785
0.759438603363
-0.861678444893
-0.830508627016
0.299150396979
0.760233192452
0.98737094561
-0.356653509728
-0.80731404841
-0.58607405027
-0.118285699587
0.161122310263
0.878030805557
0.740655186907
0.790487360874
-0.566661245758
0.984607703556
-0.670209656102
0.840387970771
-0.545476573003
-0.40285539125
0.0984597050692
-0.965558104219
-0.0827441241231
0.640730840125
-0.340074954575
-0.921432646986
-0.0204838833299
-0.398256025811
0.347765108737
-0.340452137442
-0.347133263307
0.347807424885
0.543040971326
-0.777362710527
-0.492611082131
-0.769985528886
-0.845937792136
-0.736192835442
0.160588744094
0.531064212466
-0.300477188871
-0.0535204726117
-0.490151350192
0.393412185408
0.583460224193
0.546593299497
0.544130003298
-0.321521744884
-0.640780782584
0.233534039321
-0.376590484807
-0.11071187676
0.533894189506
-0.252539867174
-0.330615641973
0.829733230626
0.843146674835
0.621310919448
-0.40813305349
0.29630419094
0.883984832284
-0.442329201568
-0.854710053397
0.910839997781
-0.973369404228
-0.801615275186
0.142175156013
-0.426544903608
-0.741497330229
-0.885948987203
-0.121898389338
0.762050789731
0.292219878183
0.384446692698
0.704486385116
-0.953727725606
-0.408125932483
0.77343029867
-0.373958462384
-0.549194399465
0.502068824765
-0.107398796578
-0.526984747433
0.484770031058
-0.0924205888507
-0.18665113223
-0.436098206026
0.618597112715
-0.327173647281
0.0542511020224
-0.120701239484
-0.284246306046
0.37320275259
0.248795357661
-0.647214358314
-0.853653911643
0.367735024101
-0.211458926231
0.578704949905
-0.542331893762
-0.0350522580373
-0.451055939113
-0.916691969022
-0.223297855029
-0.146448959159
0.000336396667282
-0.998243642893
0.634286880971
0.704041974702
-0.0647804272971
-0.742324330506
-0.750558617122
0.99593349715
0.38726725581
-0.117714747685
-0.106465032185
0.910027895178
-0.0879660173039
-0.55873038079
-0.728168996886
0.580231232992
0.895998155671
-0.0549117421538
0.28300635881
-0.368482251678
-0.41109854931
-0.484472072809
-0.316389977083
-0.489209042238
0.868849983428
-0.256456980442
0.288596055015
0.805646847335
0.850966708299
0.312597388849
0.122331388121
0.321509258593
0.490720684961
0.3784709873
0.607376812668
-0.165299567061
0.0395062235806
0.224161626007
-0.175834737078
0.0898763340043
-0.15326235588
0.562529696776
0.330722755804
-0.781991093895
-0.983887077231
0.606922013587
-0.372138203253
-0.420858530514
0.991274922552
-0.55393198792
-0.472764470546
-0.38343491357
0.127759223622
-0.964367470455
-0.0247424694838
-0.428921636364
-0.908033856261
-0.559886772393
0.0665345133952
-0.545920967275
-0.92672106788
-0.258384517609
-0.790520554849
0.00489873727042
-0.340079584088
0.721336205072
-0.159331683953
0.493627850748
-0.947116609436
-0.112968719865
0.649432845164
-0.880651652555
-0.641254473574
0.0391056576789
-0.963244789834
0.870551264273
0.513718106731
0.956908367326
0.632107207797
-0.909608501773
-0.890013483559
-0.326038954208
0.387511008325
0.446479457155
0.0999357823566
-0.968317834546
0.803782961989
-0.84920681172
-0.318242509349
0.209302539354
0.226954701635
0.104222335809
-0.412371330209
0.744511619932
0.425508871225
0.799093221066
-0.275925406668
-0.512399313693
-0.0134131914397
-0.639457851804
-0.838239307805
-0.445094738381
-0.897674031859
0.368299293677
0.674230737739
-0.446787621454
-0.19301255113
0.193455897738
0.496255466243
-0.149337537405
0.964969230398
-0.337402677296
-0.499363909887
0.432525215649
0.789244250321
-0.190953062109
-0.459521941219
0.543340790183
0.647463490697
0.0516597586683
0.95409071932
-0.863441001316
0.311152070299
0.388459848404
-0.146473331131
0.778308805274
-0.266679488115
0.928210374633
0.0817293461015
-0.596403312712
-0.9181153196
0.436119293247
0.30529531606
0.462004972712
0.349527144748
-0.234811135505
-0.045767438356
-0.379372439864
0.262264500516
-0.978825449113
-0.504685430947
0.964532525656
-0.0234776139854
-0.491033285875
-0.302997975365
0.350067401754
0.329772757392
-0.73583241638
-0.665586707548
0.898882065473
-0.673795486287
-0.327784002239
-0.79583840415
-0.604336368609
0.774094700927
0.162452598852
-0.259312730117
0.57706127904
0.328088335063
-0.9113210793
-0.1148111848
-0.796225755067
0.0272515773383
0.305249965199
-0.57843532628
0.380752947798
0.18436648611
-0.0512601215351
-0.117108424375
-0.593313463641
-0.483738832906
0.11071735758
-0.103732575014
0.93537192045
-0.797288861104
-0.0675612989863
0.989614969954
-0.825068590823
0.658661061176
0.116858654552
-0.587105121627
-0.457831271355
-0.608827455989
0.40522975442
0.740263925992
0.950002902926
-0.983909698277
-0.0431171253714
0.763906518515
-0.0895404680941
0.129357867311
0.683921207846
-0.242120887274
0.334753845433
-0.653232909869
0.73297761956
-0.114722288329
-0.26562064902
0.2737389277
-0.148431613469
-0.931363944335
-0.74401260769
0.399544166053
0.585644968306
-0.983521610849
-0.168796763158
0.174767146754
-0.173754101648
-0.419429812027
-0.100013823039
0.784598118892
-0.687572212458
-0.12633762926
0.0442506428158
-0.56788122312
-0.934459405525
0.896017812376
-0.522074924629
-0.0928965275675
-0.144056414484
0.146136834787
-0.335950180256
-0.121658763613
0.947685768888
-0.0669040060343
-0.344116518396
-0.605298389629
-0.767966037679
0.460701638148
-0.406526823575
-0.109914510245
-0.0752384842835
0.959578167511
0.714841934148
0.143601470368
-0.295142728066
0.371099961155
-0.446238077397
-0.869698646887
-0.235307524299
0.422996624131
-0.755419308753
0.805351073305
-0.345427207608
0.629619987348
-0.635117014008
-0.766657309069
0.705646725535
-0.641368648346
0.35217460883
0.0600284081301
0.0787078551182
-0.751103105521
0.138510602128
-0.0375477735105
0.970289590486
-0.998974959232
-0.484452320445
0.182557123109
-0.91994384036
0.167305772977
0.182556943379
0.548474570208
-0.835828125997
0.1589944782
-0.268115864938
-0.11681500718
0.114955968474
0.475592383404
-0.0223064890067
0.795974534097
-0.527423273771
0.395681719857
0.0170361016961
-0.691386480563
-0.524246247818
0.248710096131
-0.359340534453
0.756138085408
-0.305653596526
0.10279302347
-0.870191134697
0.629162239555
0.494526705071
0.420160486506
-0.0135160471494
0.0394017142993
-0.249341596257
-0.378623342835
0.782341234575
-0.202563706117
-0.22246541183
-0.126419165447
0.348704766164
-0.285595894183
0.972975979573
0.153828940473
-0.849858606389
0.676507551624
-0.939295928904
0.702675336038
-0.595770848653
-0.0864562812538
-0.475113376336
0.735162259051
0.21497917605
-0.830319265202
0.649583687496
-0.640598571532
0.0539243248654
0.904957540696
0.223185574032
0.00420424701165
0.675071603738
0.789636841784
-0.370662997473
-0.999096271369
0.305404550229
-0.0116416468878
0.529975329303
0.0710341845564
-0.265529260753
-0.890072703993
-0.0546916357338
0.935721921476
0.0156501734868
-0.130434124062
-0.042795423265
0.959825567049
0.466878423629
-0.825084799734
-0.655149775904
0.45062357136
-0.888147058532
-0.565745697201
-0.827475489543
-0.62698587875
-0.386338521713
0.979262836097
0.205464644327
0.0724321590829
-0.4879662217
-0.281451205985
0.965830479505
0.734402021422
-0.196092240683
0.131961119902
0.496682283039
0.382114833772
0.409189307896
-0.688004166164
-0.681945751674
-0.626305491574
-0.354554408995
-0.433151319848
0.00165012904896
-0.479587600144
-0.597867571365
-0.312421151893
-0.361918257828
-0.0993924748287
0.77036559375
0.437212624357
-0.110404700939
-0.905968081664
-0.74543032803
-0.559758107075
0.357202914179
-0.0872318694458
-0.888104532145
0.804393917606
-0.141615350019
0.574001306786
0.261168290803
0.802665979807
-0.966822132022
0.278365789426
-0.822352873465
0.1656779547
-0.0683288754421
0.489676576434
-0.54175122753
0.420577922282
0.415210859104
-0.268634970838
-0.094517859491
-0.798258985703
-0.589450162926
0.954576910116
0.418576840758
0.708995412422
-0.947789619321
0.0366939472421
0.0526440300839
0.311274213266
0.824902126484
-0.574055690387
-0.902642659563
0.480495058942
-0.168282458461
-0.0766156897652
-0.683149512279
-0.78670425969
0.401738849821
0.210470827094
-0.486521947748
-0.743519448125
-0.209799271862
0.347365562832
-0.883643640882
0.661618681052
0.0747460439265
-0.545791164505
0.753444712825
-0.927596714428
0.0508736694163
-0.385722122319
0.752588536421
0.958285391884
0.500548075546
0.665061830303
-0.295519815115
-0.501587992287
0.677848379638
-0.420325137154
0.161922363509
0.554013315144
0.034435244523
0.488029476237
0.413571137329
-0.932284915408
0.365135821637
-0.13596021792
-0.783716272299
0.200197548859
-0.895219277643
-0.179020053972
0.868334290215
-0.937932229742
-0.433822260001
0.569274027423
-0.0570127999634
-0.152494517455
-0.242694142923
0.139861556309
-0.371835497316
-0.910010952674
0.949233661193
-0.446792584091
0.63520674251
-0.181853989947
-0.75649817054
0.652423715406
0.334018496945
0.0465559176031
-0.247551438251
-0.887823184338
-0.625671234069
0.351616239938
0.442167628265
0.533748674717
0.989956486614
-0.585348801055
