-0.692165502726
-0.325591538607
-0.588101590389
-0.364334230339
0.395329379858
0.554795504951
0.541376614722
0.530966809724
-0.278791330251
0.0420981601202
-0.457679806537
-0.0863605993112
0.21961604892
-0.317366753676
-0.44964607151
-0.754800957941
0.143415513803
-0.282289313204
-0.808524083896
0.111911518698
0.742257292201
-0.0997466241763
0.0970453587396
-0.445399600782
-0.620302625626
0.732827267783
-0.554811425774
-0.545851671167
0.182710303052
0.480985456012
0.218704144385
0.386320882365
0.991681338943
0.204683852916
-0.933462983604
0.586242954023
-0.801531103365
0.102892602396
-0.970601048375
-0.567264014727
0.263407106047
0.752145588781
-0.043796693454
0.548784101867
-0.508977617646
0.232328473323
0.1297831676
-0.0586984475194
-0.987852638031
0.558758612336
0.422709070213
-0.275233843463
0.638737757166
-0.596221939352
0.348109420316
-0.554390471187
-0.208527719185
-0.404509375112
0.983497048103
0.34281565508
0.126527169832
0.0374921563002
-0.132881579593
0.536493564338
0.724311105277
0.512372554936
0.571813453889
-0.880057104884
0.93928633516
-0.0635542718323
0.294293069582
0.81193495648
-0.405473495872
-0.850893732103
-0.7840303449
-0.0122251687794
0.173619147509
-0.386281833295
0.35001616696
0.276847931055
0.505541152954
-0.384078581664
-0.517989393048
0.45400207167
-0.0563962320241
-0.301224249308
0.930974498047
-0.553357428446
-0.36350120893
-0.0582656250346
-0.390332087179
-0.129260426015
-0.372865985491
0.278192435008
-0.447417131487
-0.433888485657
-0.515661661085
0.592143840295
-0.929871812263
0.168167710413
-0.289450209292
0.352287131105
0.116137665293
-0.314617803855
0.166974352102
-0.934989647015
-0.585672064103
-0.954672593342
0.457280033413
0.0695924390885
0.456906616498
0.895393536001
-0.269966569499
-0.106777607004
-0.918871836448
-0.816177883752
0.201566575702
-0.981865528213
0.177905461181
-0.0945814745381
0.179349721751
-0.523809068194
-0.341538957736
0.312054239591
-0.480482826283
-0.0897147561255
0.548156256441
0.736433613106
-0.815092805148
0.149578604998
0.86721568592
-0.776863952839
0.781624949237
0.40716952143
0.210884410535
-0.270802616395
-0.196033947938
-0.667804255303
-0.97673149132
0.88345637066
0.41932427669
-0.618666394521
-0.0547919260925
-0.989322588371
-0.890777852238
0.327637667175
-0.763307982481
0.67991488523
-0.947637476035
0.886566246919
-0.817784636905
-0.447544064726
0.424694786436
0.761432395805
-0.767609208248
-0.64773488118
0.924216889952
0.039227090159
-0.126023296491
-0.582838526724
0.719367388589
0.632146491163
-0.559397075851
-0.0167737033155
-0.275958076744
-0.287124395036
-0.691037294549
-0.364962362873
-0.0206592283377
0.707492894013
0.189240233241
-0.767036477316
-0.738454122951
-0.630936925602
-0.643754907625
-0.0853037410403
0.796814839981
0.582641836045
0.605824478276
-0.0859726531688
-0.738624069288
0.226408429639
-0.111216535035
-0.0240658244086
0.557362291996
0.247144193331
-0.351338578304
-0.715801270667
-0.05145246283
0.214818843143
-0.483300668364
-0.758166047328
0.940374359261
-0.821352456484
-0.387662461696
0.105722628637
0.667161610046
0.513100462745
-0.90328729624
0.182215698673
0.957653041722
-0.777267246699
0.0179808705363
0.387983401121
-0.178901776802
-0.947209011292
-0.851508246555
0.641818685763
0.488850410895
0.689624163265
0.30912571374
-0.0522999876824
0.510590498354
-0.0848615677219
-0.487078519862
-0.737745787619
0.737741355761
0.230777932047
-0.145613790558
0.959851313717
-0.833106987309
0.818066557258
-0.0826366505726
0.586645136721
-0.00923893250355
-0.533070932867
-0.996633181873
-0.880612143651
0.40312124983
0.401348710228
0.0626117175041
0.495230883645
-0.688574108204
-0.33788146175
0.486768905321
-0.102694137728
0.0312089095141
-0.251806896273
0.223266213202
0.808394161677
0.355529956574
0.174803917902
0.783824948345
0.317921378915
-0.329456246105
0.54047216605
0.122397302398
0.709490973869
-0.39835482305
-0.508427366123
-0.0297721801924
-0.892577014066
-0.723448804473
-0.109429435945
-0.724869852381
-0.775149191838
0.978098110922
0.780840157032
-0.223121829141
0.224629144539
-0.623518072549
0.897452195503
0.797120572946
-0.999834208807
0.548137908293
-0.600389640215
-0.447305953573
-0.823081073684
-0.46815757733
-0.247170703652
0.121476689348
0.233561476123
-0.419769134166
0.359441160674
-0.219734300415
0.137938327422
0.511103157596
0.501738597529
0.393522170739
-0.938147994366
0.736082166206
0.998235056169
-0.629980274295
-0.672396598336
0.200425016912
-0.844801426385
-0.222973482749
0.277220348763
-0.558304851074
0.662447793538
-0.943978120954
-0.162236241799
0.391839607206
-0.768316607783
0.553459711274
0.969197528315
0.100667012711
-0.734720164037
-0.486722099115
-0.205730429677
-0.340215720675
0.813508107277
0.316412230273
0.616770608017
-0.418437810708
-0.418676506089
-0.0706797396629
0.204069489325
-0.721184300452
-0.64528847384
0.730978747265
-0.603383376
-0.646598515665
0.144333430557
0.440635324795
-0.246280313895
0.922642430127
0.767138658984
0.435207462272
-0.532531409161
-0.0694725641432
0.104217281151
0.342684689959
0.358360405902
-0.533211019833
0.0386112287802
-0.594258122962
0.567408853168
-0.897789365446
0.105759970038
-0.420272678958
-0.521761514888
0.990960820956
0.484847357678
0.82818097164
-0.0812704745433
0.723645986337
0.426707760946
0.419962148972
-0.480354276429
-0.769854658882
0.344495222646
0.891991426563
0.79263912548
-0.366414539313
-0.92660785708
-0.694497832234
-0.450098133921
-0.193383401172
0.523887117664
0.027103198911
0.161098304794
0.895594065061
-0.68894546375
-0.642075368874
0.696506056566
0.94957613666
0.114429274437
-0.803836321728
0.685303171295
-0.336954802986
0.846225998117
-0.714182653053
0.160286596394
0.778286022259
-0.705793654396
0.0336498671358
0.838275002185
0.263040713357
0.882689354846
0.573662293594
0.806250415937
-0.396171852494
-0.902504127575
-0.66455726813
-0.929835804963
0.385294719229
-0.596596930728
-0.718407209039
-0.408137584941
0.725090073273
0.398365222401
-0.461584844769
0.443366722639
-0.171515098532
-0.457796236376
0.0740812211233
-0.479590397165
-0.920375023891
-0.828334496175
0.203991943574
-0.842031489298
0.434470041195
-0.782013307218
0.797482108832
-0.319535102376
0.122834865348
0.982958922024
-0.0778720391249
-0.755347659807
0.25333873405
0.65644124081
-0.960715438508
0.500686396699
-0.911038207462
0.918774399633
-0.369343024449
0.773943774534
0.698482224279
0.325811017557
0.855960519189
-0.725455328236
0.950420708273
-0.245844469649
0.467044672654
-0.764004994085
-0.781387239819
0.264671588149
-0.236302392617
-0.449409572077
-0.0420333976912
0.840129589796
-0.533995573058
0.466757029936
0.667943401273
-0.659388955596
-0.468601685717
0.435333902342
0.932440164532
0.563058075245
-0.820343906462
0.827652318781
0.524135181556
-0.0936175100586
0.727318414035
-0.0636443676916
0.970709766876
-0.891086057002
-0.446934558634
-0.695691511216
0.558841254798
0.659681880847
-0.205543030632
-0.733377208168
0.650638905022
0.594089128537
0.738903927072
0.215231714062
0.239121040991
-0.269110574723
0.174157505146
-0.100619335448
-0.640313091856
0.101053126778
0.574460141722
0.676366149405
-0.299375301467
-0.000533130904165
0.891691206146
-0.115702030338
-0.910664927494
0.180263854596
0.941798590447
-0.152906055406
-0.914236560973
0.592936550738
0.879894116453
-0.0407113930322
0.556864452395
0.686920385486
0.543020059627
0.439274129138
-0.0421214095542
-0.589544452007
0.343215129968
0.545536148375
-0.66607405843
0.194840862309
0.39441032049
0.437659874098
0.613731104782
0.104257447542
-0.738425568135
0.604147436688
-0.998517308701
-0.912329679192
-0.575728282297
0.504311178088
0.607927392425
-0.63947249909
-0.169409313007
-0.401783440448
-0.513641902261
-0.716875958354
-0.998814329706
0.371817138948
-0.479161316626
-0.580905996062
0.204233067797
0.35743499198
0.798007810637
0.329899002741
0.0620638409306
0.754337846375
-0.547815629976
0.263759292209
0.00794038756345
-0.427298826804
0.588755135102
-0.981685554319
-0.8821765815
-0.924145064907
-0.603582517109
-0.51187020437
0.176731984667
-0.581908216224
0.384768762731
-0.914647356738
-0.286102670146
0.54071349186
-0.81530234305
0.0473023364941
0.589015420158
-0.106022453572
0.69334692379
-0.0548895904959
-0.756639439551
-0.32981349973
0.370427091219
0.799589593726
-0.271607641572
0.628693923762
-0.165543413501
0.841390125589
-0.797307239313
-0.598591574355
0.713412625397
-0.728724024497
0.262710504567
-0.759383389002
0.51283755262
-0.427579632734
0.0494093704365
-0.976801437035
-0.590674054072
-0.107707126044
0.142701476151
-0.806178528584
0.276903632158
-0.979611781656
0.574854505109
0.27035470878
-0.0984401567607
0.360981772608
0.0220818111539
0.351273015475
-0.926004868877
-0.539050192253
0.600651589807
-0.218050557183
-0.983190774164
0.119415733759
-0.480372614435
0.275773368673
0.998399856683
-0.647562174251
0.783126294437
-0.0523374746267
-0.208676243141
-0.391678889802
-0.871218812036
0.572663970299
0.570403045055
0.80964874884
-0.137284810234
0.488002810504
0.0681774001795
-0.0904014945795
-0.750279440099
-0.74076473854
-0.290313231342
-0.463443908531
0.210253983136
0.061414335716
-0.677539788334
-0.311273371049
0.77339282696
0.500760286535
-0.575932283249
0.235199280321
0.132539251531
0.66082580493
-0.265712063311
-0.204857726689
0.300634480307
-0.106309756002
-0.462876654443
-0.389615761498
0.489434735527
0.813689456788
0.32446357537
0.39084469844
0.807869753399
0.61110379365
0.151582645074
-0.629065856946
-0.987467196022
-0.657547171665
0.442961346759
-0.978813558019
-0.756363546312
0.289926087587
0.857156485767
-0.389729700228
-0.890921441282
-0.243038222827
0.0294128091372
0.675169872615
-0.398573468864
0.158009278927
-0.63233474543
-0.709266998558
-0.397542444566
0.76028017392
0.249843506388
-0.522114059221
-0.816060936465
-0.728927002359
0.186758957154
-0.978251090084
0.602998256236
0.789896683685
-0.042929696425
-0.383342220694
-0.944901657554
0.493617340871
-0.670944601849
-0.639126996506
0.345415943058
-0.352642273803
0.852162643298
0.826332125491
-0.392921035558
-0.53457336285
-0.123188147537
-0.501291567
0.0124008976666
-0.137219435432
0.0545517207834
-0.0402225986173
0.674640352878
-0.625661799211
0.178504412328
-0.282642859981
0.754111992275
0.595486839085
-0.141884889798
-0.574670963972
0.901612336246
-0.630480634432
-0.121980941682
0.396762689177
-0.675095228835
-0.91419071255
0.660058561891
-0.21010923509
0.407928955478
-0.212034315742
-0.211336342473
0.720820785561
-0.735541532641
0.674826963086
0.557236595442
0.0337426318837
-0.164869957802
-0.706767678797
0.749918964885
0.93875671511
-0.659559971599
0.183828954129
-0.69251370263
-0.589667935152
-0.650394649299
0.570700039154
-0.933444408979
0.684442452904
-0.335178520711
-0.0593941133666
0.482658188059
-0.216904372119
0.240263310588
-0.628510849044
-0.615051421497
0.655809575034
-0.310776758855
-0.260835207522
0.152679221687
0.971262815068
0.834012373824
0.346350128741
-0.793271115916
-0.859089151698
0.378197374209
-0.867860344586
0.931735994823
-0.66513549642
0.700076390067
0.597182644268
0.0741440407404
-0.739845031766
-0.450647094411
-0.0523238185545
-0.0240336136936
-0.0600315598731
-0.0341147742916
-0.618688160096
-0.308062609709
-0.48499695113
-0.568165161687
0.0877608154228
-0.664781552948
-0.17015255944
0.588855714705
-0.792210606883
0.134706515431
-0.495396553044
-0.590957663762
-0.557045722456
-0.550175283779
0.950753547193
-0.671163129688
0.727295180805
-0.447175034952
0.231812333278
-0.999897031574
-0.403708058544
-0.115168746092
0.105116448428
-0.0579139736933
-0.876857059031
0.57974807106
0.435313259129
-0.307258751506
0.079711735396
-0.365158948737
0.332123018873
0.449183860127
0.858388453447
0.256602286099
0.112445863161
0.275640853675
-0.650774631401
0.158349457315
-0.396925477213
0.638151572845
-0.900511968922
-0.715672033569
0.986237836248
-0.571741348143
-0.102532798279
0.491689009544
-0.624699651203
0.722944449499
0.765595815304
-0.229298299321
0.612465932244
0.391246073482
-0.76511525766
-0.513181353067
-0.929395227404
-0.259500724625
0.806131676704
-0.0660173806124
-0.967742703282
0.0743838687975
-0.477372750279
-0.980310418324
-0.345641714807
-0.728187102884
0.994263877414
-0.320089305549
0.0508598556656
0.357528001974
0.521822152198
-0.0252027673869
-0.835923350385
-0.576167889403
-0.0661006095654
0.726798876741
0.902017324803
-0.074009619675
-0.719325817471
0.628131223178
0.00962661839701
0.0516822175768
0.00545140138337
0.095194891018
0.44781712556
0.849148728444
-0.592565166361
0.179980378036
0.100882424773
-0.103914640134
0.749456127577
0.387890561043
-0.61856859342
0.689718309873
0.127152480685
0.927039601927
-0.690615776389
-0.463548168425
0.579814593342
-0.0625326259346
0.468133548934
0.991354321207
-0.53314923735
-0.0632525817968
-0.332093356577
-0.58724645957
0.363105268615
0.686897793043
0.919643505238
-0.628362968845
-0.969087335792
-0.240497407161
0.712174681466
-0.526427835787
-0.586545888794
0.123796770763
-0.638938054393
-0.947142638991
0.1963950203
0.595582613093
-0.300051986498
-0.23858972122
0.00393622211751
0.595347270245
-0.661944172777
0.395558641873
-0.485886778891
-0.861923077002
0.670489558942
0.0657093325952
0.0740733467748
-0.96879310112
0.37688380099
-0.314923035004
0.321808595991
0.641824330743
0.856061191636
0.419525203689
-0.315507396416
0.689098548827
-0.124903591285
-0.832742149968
-0.631587121223
0.676247873326
0.912395432585
-0.880048300506
-0.641383004461
0.704113045263
-0.294111489631
-0.846559763895
0.40908936075
-0.157252786821
-0.416568300448
-0.309808260482
0.0364954208468
-0.232675775329
-0.00788355844648
0.848375415345
0.758701172631
-0.24535847203
-0.958748166184
-0.3647429153
0.146798470663
0.566462780695
0.2274640583
-0.217845708028
0.98426716935
-0.0299868927691
-0.593049390507
-0.409312021743
0.222144690378
-0.503204120058
0.570712673792
0.808113185532
-0.949853454933
-0.987304960457
-0.0453489974847
0.245757288248
0.62852050676
0.50404921959
-0.0833488526415
-0.936316641284
-0.972658001717
-0.443209971026
-0.33686381474
-0.710525860207
0.865423054915
-0.298416181407
0.79121727935
-0.629078067672
0.332631645931
0.590484425075
-0.441631123068
-0.777215395474
0.892155273741
0.342425825657
0.83149992696
-0.504128278781
-0.0179002725457
-0.44836496342
0.254435103556
0.708619306227
0.739976142995
0.944762339279
-0.111810074597
-0.590748968026
-0.387005522006
-0.0176452198785
-0.917361736968
-0.854818721198
0.863052673495
-0.670633554208
0.361951991137
0.410207538509
0.134127524069
0.702782150838
-0.116431740072
-0.742063347676
-0.304251873405
-0.709263235243
0.516950644375
0.794819489616
0.226013484817
0.78717288959
0.216406701883
0.430747859612
0.199832594536
-0.366223389149
0.791334106629
-0.466062022323
-0.100621878428
0.613178195362
0.0629180835243
0.927501167104
-0.349555901169
0.0444057232039
-0.419580432443
-0.922022439182
0.651321506581
-0.494578752827
0.429471967541
-0.0457526274923
-0.850754328332
0.365381549586
-0.167826166349
0.875868911225
0.0196465013307
-0.250040881592
0.557156249735
0.0894393928377
-0.0198440859782
-0.246204378206
0.193779214137
0.958971961028
-0.233364965873
-0.669439002053
-0.310645280419
-0.257930760212
-0.0734182899247
0.999273942279
0.256099365787
0.605104982588
-0.14571029671
-0.271514968837
0.596691148071
0.756157797943
-0.406217221983
-0.0712447635026
0.513994202902
-0.87630340213
-0.382187947723
-0.707445343812
-0.158382519869
0.274429338844
0.898715171225
-0.413768074181
-0.854653723353
0.091414466012
0.828328034418
0.12487759019
-0.481450343516
0.376473266228
-0.640853229108
0.434550967512
0.393774230824
0.452942129897
-0.640412271918
0.21527466972
-0.643941008494
-0.950710001003
0.320960992051
-0.0455174009946
-0.647797257035
-0.623996123909
-0.509295444228
0.855327964544
0.257344733823
-0.231388663624
0.698677746443
-0.394007688576
0.293098508957
0.452696928854
0.775477018366
-0.311156843531
-0.068500428079
-0.984233064558
-0.464540498196
0.165271674409
0.742783387848
-0.929376227201
-0.0168783742341
0.0558881512147
0.092502862585
0.489928487043
-0.570847278648
0.646856031657
0.332497350575
0.160218954724
0.477457135648
0.765046275055
-0.0885675941546
0.855548743532
-0.386495663155
0.959758690747
0.398044271839
0.0864649563481
-0.236469359518
-0.786274028881
-0.925187676799
-0.231675572573
0.301477379939
-0.860116672777
0.0237555583936
-0.928409251205
-0.42799392516
-0.316389152464
-0.28830792382
0.584618427008
-0.955797501896
-0.54288676502
0.549891595966
-0.68355638604
-0.356305920052
0.15006193935
0.733348086644
0.403773214309
-0.31277741376
0.750981658734
-0.619564536631
0.648377851548
0.592584824612
0.100037636285
-0.726915446978
0.862723895389
0.680690933695
-0.0360526365663
-0.509558895691
0.0560077533711
-0.598787244805
0.237788897256
-0.770030320182
0.845733504434
-0.991441045665
0.817931891237
-0.418631286306
0.405978868703
0.722342135185
-0.560155602761
0.102943250073
-0.579862979841
-0.222488864196
0.15566141785
0.289027531132
-0.590614139898
-0.847693997299
0.517689688656
-0.567856149464
0.388106954594
0.828095781599
-0.476877217747
0.0225284028421
0.606710761586
0.857183121993
0.111347684429
-0.69359814018
-0.0765792381762
0.434804353542
0.409511768331
0.480254830596
0.927340812482
0.467960872848
-0.893884732538
0.813991076376
-0.257174325146
0.576308825987
-0.10983764509
0.64706988186
-0.370306692649
-0.487872979006
-0.423962510742
0.902609105362
0.892708608963
-0.751342282136
0.174474451934
0.371055976741
0.206799483907
-0.462722949612
0.272660140903
0.347159537588
0.786280723205
-0.583064163244
0.246139877271
0.548056625326
0.946018522604
0.534310272247
-0.3835598722
0.733098328476
-0.576918128871
0.49374807487
0.392136038969
0.124357278953
-0.301676929554
0.514181973381
-0.380310174204
-0.212838320426
-0.88074078682
0.975198437063
-0.492635113867
-0.0898208280716
-0.285637883414
-0.878837127367
-0.234469936169
0.526849166965
-0.850825541476
0.88215231422
-0.971893761925
-0.595036771089
-0.75017432353
-0.0751899171497
-0.596087321263
-0.267786384136
-0.769944405553
0.219226376661
-0.734019751928
0.85723289518
-0.148917482289
-0.766487095797
0.597884562248
-0.431881697528
-0.421400478827
-0.467368803569
-0.487095644769
0.299827187024
0.817218374071
0.0234486437799
0.821329980297
-0.900914664894
-0.680417294222
0.377507930086
-0.991482388614
0.647322023844
-0.925624491775
-0.522104853418
0.941372932807
0.391844149567
0.509001742013
0.807293929202
0.468710932993
-0.927428327241
0.0180501881497
0.396041746358
-0.988311913907
0.0173842237805
0.598936253627
0.203414736891
-0.982196263326
-0.886325284219
-0.490436178425
-0.896900523306
-0.835030255485
0.349598310276
0.242962820554
-0.865305041104
-0.00457263522571
0.0635046438556
-0.466726984548
-0.0400051090732
-0.000660950502437
-0.258993040331
-0.778289856869
0.975251238361
-0.709016764426
-0.0548397492973
0.269481770393
-0.387620634646
-0.840724467673
-0.717141264097
-0.883968404492
-0.332699092678
-0.959568559725
-0.95399539456
-0.516731084035
0.0910343576376
-0.670213501019
0.191868103691
0.308806033556
-0.472257013684
0.577390515631
0.780577098752
0.760385973986
-0.0800735035116
-0.792492364006
-0.527328676792
0.0939172746949
-0.370317275216
0.660937726867
-0.183637289378
0.446716075722
-0.69312212636
-0.762100894689
-0.0284605071131
-0.26483442118
0.0733916176967
-0.186369240441
-0.251280805539
-0.737152644753
0.760816348086
-0.467650336787
-0.790329664497
0.0587123726
0.979120742845
0.568953857909
-0.727511692161
-0.775052459304
0.664343160206
-0.0600697728502
-0.929634493519
-0.133459019994
-0.416236864517
0.00116037851619
-0.258816422921
-0.286126476806
-0.182477430941
0.932507893937
-0.819107207952
0.78705403783
0.172432746101
0.743603816037
0.146503704826
0.0600825507446
0.982709730388
0.331544963903
0.238887921975
0.65271415226
0.0677766821717
-0.103544980985
-0.626916022465
-0.496046081476
-0.423003922827
0.259515841812
0.41390079807
0.702349905599
-0.570212535207
-0.522799697005
-0.619267872069
-0.603474193835
-0.138944320829
0.360591498583
-0.112038510323
0.530944088427
-0.625337437976
0.56362290771
-0.767411591895
-0.433202484626
-0.680993799255
-0.0471255069806
0.101442846188
-0.646363363773
-0.328962483207
0.575377383732
-0.56814684766
-0.120987056336
0.556439962688
-0.682269726326
0.659849281958
0.0511691645128
-0.885506402277
0.976267768896
-0.583764727376
-0.322661188107
-0.810420701608
0.784206129768
-0.843472912722
0.675836489938
0.648027432517
0.312958471465
-0.127984591411
0.789991770374
0.708467151843
-0.163499765349
-0.0869080363947
-0.934036799227
0.0446584056217
0.414838369092
-0.440373733886
-0.725454477814
0.881580413863
-0.392522617395
0.993058462983
0.187018662408
0.687071326377
-0.101694580521
0.760061159188
-0.554749139238
0.232466372822
-0.755693581452
-0.676737690701
-0.445708144031
-0.45486179929
0.024260982357
0.298014088527
0.297340321939
0.178792599857
-0.0108342734394
0.491139253559
-0.728645282158
-0.58978727967
-0.297937794771
0.215241526009
-0.186709302021
0.40541606088
-0.576401137647
0.223289565565
-0.127378641164
0.249811531397
-0.393410019102
-0.368507486204
0.216352182039
-0.698943825018
0.799649854741
-0.764632741006
0.251343839987
0.425594182208
0.926121714783
-0.627323929869
-0.948081530973
0.866203656062
-0.710011425386
-0.0915840729844
-0.74545053254
0.0471278631775
-0.0310216016623
0.421745133334
0.176863377986
-0.332220995193
0.745525636983
-0.236731461582
0.867813681508
0.667183414964
-0.264106739782
-0.363182320383
-0.0862961472009
-0.89908481286
0.0428325035231
0.237266881885
-0.646875557119
-0.920981023398
0.413623200357
-0.833139107178
0.938288676778
0.799804080919
0.347738721979
0.522659013926
-0.662236013579
-0.652387201419
0.229263260847
-0.622708377851
-0.430971178288
-0.833403351521
0.401513570447
-0.162115586182
0.388435915248
-0.0691815401821
-0.216268874527
-0.626807305508
0.0417596563051
-0.970145928378
-0.302451612904
-0.195224782543
0.885112191725
-0.364194561024
-0.717515298439
-0.281101287636
-0.933133565759
0.888442886178
-0.884366162409
-0.36647446174
-0.505360347923
0.217810754384
0.508039846235
0.818291989498
0.747616683518
0.298095682193
-0.624046531423
-0.0562045725886
-0.826775366668
-0.615314133114
-0.0649170099881
-0.130768871145
-0.680723402583
-0.0142126327051
0.976932332042
0.282870651888
0.0832720721805
-0.781589878381
0.35955964418
-0.96320942902
-0.042378602553
-0.348267195814
0.191706467192
0.902227150584
-0.804582264305
-0.466148092712
0.189451928832
0.570336957508
0.762437767914
0.0883023153703
-0.123662491896
0.48086386999
0.332949536797
-0.514924750454
-0.538124465168
0.471994183382
0.957734279654
-0.334777512925
-0.578051738293
-0.801020027423
-0.16495754583
0.693613948754
0.767045575467
0.334965393555
-0.793481163005
-0.465875266807
0.485139830126
-0.759134775894
0.82379327578
0.824746570229
-0.632769485927
0.745559307864
0.754727042154
0.561265149699
0.167191074109
0.819942191717
0.648618858314
0.202929249671
0.0418132412296
0.352120430471
-0.622124713764
0.0618477196799
-0.0522485415154
0.107328396184
0.128347168228
-0.842279793081
-0.561892727811
-0.168658365712
0.322560558537
-0.29721192777
-0.65606579382
0.481468072328
0.759122344565
-0.401952464183
0.0973865091098
0.157945670513
-0.491776160024
0.934720678694
0.589694776461
-0.73060772968
-0.112312359599
0.901145480012
0.667505678019
0.353732222972
-0.0403483966452
-0.794216519193
-0.422451982681
0.184704108712
-0.388853333494
0.10181188773
0.937608850555
-0.718448876427
0.847159155795
0.663592136831
0.58880764285
0.928764986688
-0.221603106308
0.818225019833
-0.871669112518
0.295386916531
0.444857207105
0.936156294569
-0.54701291041
0.633614043503
-0.350159871176
0.559618795698
0.867405889409
-0.0981206484411
0.180832199247
-0.317432120827
0.80506669227
-0.798389250025
0.162495241254
0.712360241351
-0.977112455912
-0.180570637582
-0.169929343353
0.0410986982835
-0.214359452562
0.810386313633
0.944260621423
-0.902052598801
0.856622517697
-0.657019932278
0.678841673249
-0.275327951339
0.837059256999
-0.165831434161
0.16557755531
0.863425146976
0.340852396797
0.0173340710712
0.364463071253
-0.43293302532
0.65248978848
-0.132870459757
0.753938683063
0.790332682859
-0.402339454702
0.128405515807
-0.695517715913
0.853575716901
0.39119243484
-0.545701902756
0.914792804083
-0.690192831067
0.66273566004
-0.305971655033
-0.222638570416
0.0313535989183
-0.56525598139
0.165527609717
0.151767916948
-0.737997224709
0.198698816982
0.152991442821
-0.262339414546
-0.589634183435
0.972670476843
-0.8053060499
-0.794061512917
0.936279344674
-0.91645281608
-0.950985225689
0.87365516864
-0.64718271302
0.397520553848
-0.684450507454
-0.478224712933
0.86422051439
0.598445243609
-0.819353109572
-0.930500426676
0.734217653053
0.896677912814
0.320023279206
0.797605776589
-0.15826092199
-0.479063472906
0.845246668494
0.512225065696
-0.0806396229948
0.197383105487
0.49855766581
0.165249685948
0.637831763582
0.336611036054
0.694948866864
-0.740350322611
0.243996909089
-0.99804092165
0.880954949034
0.300647737621
0.458695551639
-0.711652859737
-0.574738672722
0.182897296273
0.22255798586
-0.28838478313
-0.312550350593
-0.807637183694
-0.48731397973
0.782669305162
0.423261078266
-0.754466667423
0.688235324652
-0.370905570206
0.631478229732
-0.116999545265
-0.426569651517
-0.545628078237
-0.30017320754
0.829455398527
-0.39417946928
-0.395725263512
-0.584392631626
-0.107274038986
0.121077328555
-0.521378209951
-0.979642490431
0.959148594096
-0.909958151312
0.284327032471
0.580902140198
-0.929434710127
0.307333065004
0.560873740757
-0.341899481234
0.286486925369
-0.297019344331
0.801736424002
-0.112879540839
-0.290423686475
0.242285572865
0.0947269781891
-0.790355244969
0.641606694211
-0.682593052123
-0.751917454705
0.30355340165
-0.110188889429
-0.9844743241
-0.615877726168
-0.169555569477
0.138495424738
0.954034362144
-0.774768439193
-0.753557770596
-0.223626204342
-0.0355338241325
0.559765000591
0.977769900396
0.283367901463
0.565114904389
-0.0960718861481
0.985863774384
0.25120732933
0.484361410154
0.6610251583
-0.841580349671
-0.52268524149
-0.4488109537
-0.565740409654
-0.0520521242394
-0.0365671792632
-0.845029606189
-0.700841224352
-0.793358836779
0.404934255454
-0.457764610986
-0.378600154709
0.117185386276
-0.624465222435
-0.919566349134
0.528032203737
-0.931940173624
0.70463299563
-0.857425593202
0.373770307657
0.0981456030929
-0.864635505434
0.648952804325
-0.852758914399
-0.793255494089
-0.330229205015
-0.99837012253
0.0722426940241
-0.580777777482
-0.0256700370649
0.510923116617
0.753972544319
-0.351927390565
-0.942531971057
0.88831875936
-0.639590359569
0.217648543328
0.0172515049721
0.533815299846
0.484179055527
0.0505549025515
-0.412056739967
-0.611949712461
-0.51297043226
0.435456065573
-0.711150654692
-0.0462633950002
-0.387323700454
0.51148192309
-0.216596371589
-0.346731037945
-0.590500444234
-0.990290034573
0.741663887583
-0.128975622455
0.836412795242
-0.659093751809
0.82508781167
-0.595085441955
0.349983776168
0.996254065237
-0.56685161987
0.0667245084556
0.432620563752
0.585618239251
-0.967491284187
0.651684015561
0.178498017446
-0.424660980936
0.687352425928
-0.146869215676
0.0691585225833
-0.139138704774
0.596209867345
-0.905490430278
0.793038636629
0.597934762094
-0.634173880887
0.63304363657
-0.284870389066
-0.512402039178
0.274338562218
-0.100263692949
-0.0483449236506
0.395464528886
0.204114138936
0.834322915352
-0.639261270498
-0.857418093565
0.552589531123
-0.84970787858
-0.807984578149
0.473608086034
0.298252244385
-0.860429856047
0.941987600261
-0.73362448468
0.056546359177
-0.248043563845
-0.857433864857
-0.513356095394
-0.365459163443
-0.266087927553
0.197649057319
-0.728035259524
-0.69931903966
0.669970219157
0.85741792597
0.74810466148
0.841066075495
0.440999392185
0.503257387588
0.974601128946
0.302181101427
0.0763650659694
0.513932835562
-0.994035488691
-0.743969451333
-0.783476796016
0.332012662363
0.698595886138
-0.951024107589
-0.351142125024
-0.00260252026962
0.401370374299
-0.675474608912
-0.320675434448
0.644221326683
0.541490184171
0.153408791182
0.949467950322
0.51325389539
-0.165359520961
0.225125369015
0.281860393079
-0.924433303166
0.718677656432
-0.591896425083
-0.260955621606
0.549627029515
-0.782861562056
-0.32802024251
0.218516343492
0.786406559859
-0.749111237422
0.166160314766
-0.923982455703
-0.545416461064
-0.984437427576
0.85935227912
0.918368542434
0.374736654742
0.297337600346
0.146039464006
-0.343760442601
-0.759903498528
-0.0330046256529
0.83703629213
0.418699080904
0.277274703134
0.964422471834
-0.0235755433979
-0.27956074707
-0.84389435767
-0.886746862228
0.402771325862
-0.975317192591
0.398060787235
-0.807535168318
-0.474838861073
0.276354968695
-0.761769766293
-0.72060376475
-0.456912310185
-0.938405571595
-0.189084192117
0.751655637652
-0.907402692378
-0.639421817828
0.0649053792559
-0.346056343482
-0.0941447926621
-0.0964849992014
-0.694269476085
0.399324892957
0.27706312116
0.425530861602
0.455051435563
0.249268276606
0.185462877384
0.124476456976
-0.482361231588
0.0835678736988
-0.359173478899
-0.668104900038
0.997080951098
-0.846227344142
-0.818359966119
-0.778162390324
-0.464321520604
-0.771760758744
-0.212192908041
0.837659648834
-0.258947301646
-0.112383736941
-0.368182910669
-0.437913359465
-0.856486818073
-0.923215010267
0.962630637457
-0.390251921068
0.289786423386
-0.345588586415
0.427095639391
-0.750253034429
0.738414819634
0.341611087296
-0.744301443979
0.226980748141
-0.885588492255
0.978498391901
-0.161264562614
-0.924082568023
0.785922386959
0.822768266233
-0.15355711851
0.439309199027
-0.785759441498
0.225446173223
0.462178301939
-0.542192267143
-0.511390695725
0.508383242374
0.708975911678
0.674507522887
0.387295138098
-0.0192876208231
-0.0714838267538
-0.340892077833
0.429784008706
0.552720384116
0.0539716091854
-0.245742258444
-0.746988786308
0.422679382509
0.433278951317
-0.0751375051872
0.350623742885
-0.844297098341
-0.418941604918
-0.787517850746
-0.344416047999
-0.925685329839
-0.530185867033
0.746113690579
0.849111012539
0.213851821618
0.656453880759
0.0961243041937
-0.798803318462
0.531830786467
0.281113713837
0.698953990466
-0.996229080903
0.81057111182
0.953303213351
-0.0399884636113
-0.290261809423
-0.067599199125
0.159553847996
0.0418170317803
0.11917528523
-0.149723917361
0.734705068474
0.698271777655
0.876289915666
0.297935058833
-0.640306034812
0.0902980830193
-0.88097773355
-0.574126074314
0.118075513839
0.622423167639
0.838654151474
0.617093706813
-0.269473023551
0.870594113722
-0.499939431146
-0.677996225456
-0.141571999567
0.592139295933
-0.214986831687
-0.0241081091482
0.84590421818
0.393089687209
-0.73645955107
-0.0779726565017
-0.460219313069
0.929601604999
0.186529786013
0.580376775713
-0.422895434403
0.752187259253
-0.51644214778
-0.841546750802
0.390206591674
-0.843651398731
0.143374518832
0.94193447192
-0.333217550265
0.098524774416
0.898443234563
0.116325232558
-0.582021359777
0.66538579061
0.575503930847
0.215744856011
0.754865520512
-0.343095459478
-0.951210755297
0.424153793139
-0.387524683663
-0.759827301911
0.582995110041
-0.488078932765
0.349318445745
-0.860721131629
0.732487306521
0.319298009639
0.750270373325
-0.968982721988
-0.839552887992
0.34633861606
0.435015193594
0.905127372218
0.050623377052
-0.499852712604
0.418505322277
0.304217542521
0.494925369833
0.413955184399
0.873870525871
-0.00337566498472
0.017253291622
-0.500024172904
-0.297909514979
0.911820389616
0.496771752304
0.861380830765
-0.221852631227
-0.93580145495
-0.230489562181
-0.529988584834
0.453152260451
-0.912859277989
-0.343754853462
-0.927335023985
0.679586355185
0.933771202858
0.653478408063
0.843686575989
0.501038083084
-0.273020101954
0.277622316264
-0.655657217533
-0.810887349616
0.20064974905
-0.388984372463
-0.365209780271
0.561285785803
-0.862506888539
0.460684404578
-0.874959617188
0.364634615863
-0.586670049715
-0.864783655363
-0.449656934401
0.414597743844
-0.71803411319
0.684317216778
-0.611343933196
0.03799395305
0.712962095474
0.618637286939
-0.448082682232
-0.216973053506
-0.74320280806
-0.231688565158
0.107949854708
-0.184010769056
0.955545599734
-0.0509970343175
-0.837124222654
0.552990834393
0.941378111882
-0.920925966401
0.522547718671
0.219685281893
-0.0283063271357
0.637626444281
-0.092082249668
-0.620061149569
-0.495291538503
0.531848212906
-0.347997983794
-0.981774811888
-0.546309818446
0.452043232228
0.391178516069
0.435824275981
0.626581765221
-0.286786053209
0.707756575754
0.530336437949
0.211196428501
0.387241310808
0.276651433448
-0.0485437587639
-0.664266833105
0.194592804853
0.636958792704
-0.740870433621
-0.432344690145
-0.880560104632
0.176890755983
-0.684493681421
-0.852220775981
-0.372838744724
0.0163435256612
0.578909885092
-0.441560769636
0.24871219778
0.223625108408
0.475681783652
-0.0170677048895
-0.000710819974756
0.907084746218
-0.89618383953
-0.855598015298
0.387148743509
0.878999533046
-0.913802341799
0.11530014321
0.496380763832
0.765873375632
-0.350212110424
0.041810376302
0.275175810616
-0.697439269315
0.995049347375
-0.145997132731
0.714673488481
0.810906959734
-0.369949349521
-0.262884946193
-0.127771489476
-0.826021545038
-0.110242560397
0.721924455957
0.97623766926
-0.880412005341
0.27770875027
-0.740330750302
-0.848589450546
0.624539046428
-0.498892927318
0.325627100565
0.434314428116
0.611919416557
0.996013519862
-0.961214729716
-0.548269346189
0.744416032049
0.877292096712
0.0150065391193
0.123943567131
0.00267057793739
-0.697847551648
0.744824491015
0.897822985095
-0.577102703004
0.209458536897
0.93470214696
0.400352869649
0.709985358765
0.709102632099
0.995057844836
-0.262815029725
-0.262278493629
0.751162333667
-0.746927898276
-0.450280952005
0.924537001063
0.398732831121
0.303582331999
-0.0890462223989
0.794898014018
-0.531196126019
0.227862084901
-0.926612685669
0.175919749276
0.133929308588
-0.452743638183
-0.0606323099231
-0.35916305024
-0.471475794966
-0.494522817163
-0.267309301878
-0.0872399698855
0.064978676264
0.226171988929
-0.341632652103
-0.603290786853
0.874417703821
-0.740293062952
0.546282663251
-0.421655544948
0.504994000363
-0.490329201973
-0.324681937233
-0.421683045731
-0.60897676795
-0.589769048642
0.848531350173
0.36961978274
0.857335085061
0.677866510879
0.19243878007
-0.429233375077
0.477026377857
-0.842696284837
-0.907064504573
-0.248295505432
0.0468025743197
-0.497196940294
-0.745714518779
-0.772173809944
-0.705035660616
-0.530163822743
-0.897553035
-0.806480631498
-0.536012398075
0.206298907576
0.500672454057
0.477550361545
0.242116873552
-0.90394243419
0.556382599754
0.98388003698
-0.905549010094
0.619502095726
0.908265082301
-0.651112917195
0.572511258352
-0.146979614792
-0.406947121789
-0.171726254722
0.400543682118
0.625749313405
0.827300711183
-0.216760473303
0.701624190636
0.406860674784
0.342495408252
-0.46798731956
0.119162300547
-0.00555671850031
-0.83447695788
0.258225155404
0.366837376284
-0.113368044962
0.793419660259
0.435360286571
0.376641951369
-0.63744544106
-0.098872921685
-0.0433905606307
0.0472846880939
-0.97663196253
-0.780663665173
-0.31736897284
0.998233657058
-0.82387269598
-0.976583268838
-0.966658005409
0.162439901747
-0.847011156339
-0.992917643074
0.882158256943
0.513182916958
0.0108527054558
-0.66843851103
-0.935409883455
-0.741230028097
-0.0899262956736
0.247204538466
-0.790923232322
-0.767560987635
0.192113845063
0.186524872908
-0.520402395052
-0.48550344291
-0.271543219338
0.191962197071
0.696258662981
0.949352642079
0.966408519761
-0.055957656855
-0.634336209563
0.203762241986
0.897135605047
0.76563353175
0.676851387398
0.988782696998
0.372539528981
-0.814533754616
0.0494673378289
-0.778873925556
-0.948399963424
-0.6419612956
0.518190226087
0.322477315153
0.837760885545
-0.259073688131
0.421707705733
-0.572373024933
-0.646858951568
0.889848334712
0.27401187267
0.637580758947
-0.0847900287178
0.627607275203
0.293188371103
-0.27969631547
0.74669017851
-0.473641763838
-0.108725268792
0.0163851326581
0.657214054804
-0.281701498578
0.440295099561
0.179422403491
0.457021580241
-0.623591177671
-0.463234962967
0.685677725886
-0.812089364197
-0.925154026233
-0.995073937261
-0.61175081766
-0.349623701692
-0.321672580686
-0.464532502959
0.278326625456
-0.975744279794
0.386241279685
-0.613029275636
-0.370086970352
0.3235084575
-0.804818505134
-0.647000694757
0.945201277341
0.0876765289938
0.687825581916
0.0704049583828
-0.19104114586
-0.0561979473888
-0.936365603529
-0.41114776669
-0.823828978631
-0.401113964667
-0.576001122708
0.492194790827
0.240467000706
-0.695829883751
-0.158924938097
0.538106943895
0.671330793526
-0.686294788399
0.178639521335
0.471171120717
0.551337138396
-0.466464166681
0.925594060915
0.0763437342113
0.105538888107
0.0094930914114
-0.801350740524
-0.034277175331
-0.824371133189
-0.064339976223
0.14260352202
-0.0708819148535
-0.470464111856
0.423447197607
-0.724795135923
0.387730786122
-0.062336967532
0.285841569975
0.0732752207786
0.261453277776
-0.327722452611
-0.560657873379
0.129202479529
-0.547497657538
0.579446106047
-0.381712170979
0.279819815633
0.241670389161
-0.287659162311
0.855048990996
0.80723659742
0.319485159828
-0.518696901918
-0.513895218207
-0.704829588642
-0.491348595668
0.413142413484
-0.265900915543
0.554093116153
0.609370606214
-0.630098174905
-0.499187868133
-0.574093824354
-0.740298434393
-0.0211021166317
0.349694629227
-0.946469257008
-0.651234947695
-0.607420902545
0.451575682326
-0.306700982947
0.721149404186
0.9558147675
0.0260714199234
0.375483597414
0.166972510583
-0.633948670594
0.0558764394444
0.599469387491
-0.436677805731
-0.525206000334
0.344856887236
0.627845536019
0.444071513026
-0.152877619258
0.369675828291
0.618827352912
-0.436101481885
-0.18486290972
-0.884171538445
0.288904462562
-0.0402557956264
0.732873019831
-0.721179145304
-0.800233128034
0.764574605197
0.162833476947
-0.182575251187
-0.506724484722
0.229350728873
-0.25874848645
-0.716331801663
-0.492256462501
-0.788386916312
-0.360663015745
0.0318881722123
0.939248976716
0.131368922397
0.587224267986
-0.984374018714
0.352819888439
0.716841887367
-0.681057169045
-0.298327558755
0.210786248705
-0.122841817244
-0.197286268068
-0.321174652794
-0.695284599989
0.332763826842
-0.928134443872
-0.977140200446
-0.182631477047
-0.449671765449
0.130793114804
0.831251869381
-0.632157900067
-0.535493241192
0.146338127837
-0.970802525619
-0.770116766251
-0.481909347765
0.975285092359
0.462750680091
0.10546937326
0.357939559042
-0.0678666224367
0.659998058454
-0.891813787388
0.321567432208
-0.0963378639438
-0.111668037846
-0.69101111736
-0.324589825799
-0.155595768285
-0.881463072141
-0.351854710529
-0.947981040068
-0.499255993523
0.55080823793
-0.536580639475
-0.916330416395
0.466078895544
0.313217420962
0.434831461101
-0.572245272572
-0.793760478942
0.856587753775
0.144301821542
-0.245193770046
-0.478742609004
0.0446009440019
-0.982562249076
0.395852640383
0.176702074418
0.0431356385161
0.508812198734
0.107807887214
-0.139774436183
-0.932656411433
-0.917323335913
-0.442266432997
0.896675388989
0.455099916381
-0.679597773999
0.300490786448
0.398366994936
0.941301118519
-0.304288194357
-0.225893614812
0.505695233242
0.563825480976
-0.293180105284
-0.556823733147
-0.533114191482
0.209963238668
-0.683833000328
0.120853479862
-0.383534720409
0.776687863309
-0.964137768952
0.171890162154
-0.757461556775
0.240599878625
-0.0545542628352
0.772988253159
0.767859591236
0.0828641868742
-0.849678500588
-0.651356454526
-0.0189642549038
-0.372772490585
0.859513897998
0.00645688202279
-0.991001292974
0.32744377462
-0.145074522644
0.679953187308
0.870598428493
0.278840343978
-0.941553394569
-0.618089651839
0.328222543345
-0.284527352518
-0.712534930322
-0.572874731376
0.903308593646
0.898848405416
0.657305872213
0.682787647378
0.946496095072
0.0114267527772
-0.124524967122
-0.602918023279
0.959380475418
-0.664313747316
-0.872729515805
0.815449892542
-0.13567369152
0.767303497958
0.281264916671
0.651649644976
-0.920851925007
-0.153300983626
0.693393004536
-0.756342613954
-0.224107914163
0.303524410459
-0.487039382744
0.862924927461
0.451775383695
-0.439648651831
-0.590009794934
0.0598676753048
-0.748069231861
0.226369945323
-0.566502829541
0.99852121225
0.926473447479
0.312702806292
-0.130200738445
-0.104018139797
-0.228800567276
-0.278754423428
0.486714880859
-0.679740963866
0.0526092004905
0.496169872225
0.994570344826
-0.981119335948
0.695201113403
0.0674909232686
0.191041409362
0.222085964964
0.209566573994
0.760744684766
0.227892415262
0.00659991575858
-0.190108282282
-0.240148328737
-0.752029358205
-0.156197895117
-0.176723759698
0.932637867231
0.536671299185
0.043085434727
0.706036195577
-0.324319029316
0.871102930327
0.504727784324
0.377107606376
-0.324949285546
0.660628546031
-0.392828677713
-0.313445321811
-0.128417316149
0.894659898299
0.216286709707
-0.596820417756
0.534590414818
-0.804990636646
-0.385875203715
-0.0213090383997
-0.416666010967
0.539346753219
0.50357202151
0.209524407985
0.278717857164
-0.254666098913
0.832172184337
-0.957664445347
-0.880759663757
-0.864970951673
-0.346071849513
-0.541653121492
-0.650799504199
-0.386637629293
0.187085414378
-0.284504959806
0.212791402871
-0.299491712316
0.0460813981418
-0.461485078356
0.753613305084
0.877949321521
-0.576520384338
0.581705190479
-0.224080883439
-0.930687362797
-0.975025742555
0.386069126169
0.835884222357
-0.544171133992
0.736639120478
0.366610899729
-0.449207129917
0.435371478065
-0.18432986481
0.948195106897
-0.586988684119
-0.103079222574
-0.980864582916
0.590825974885
-0.69933948612
0.948661634061
0.790115167038
-0.456270973392
-0.271479813188
0.405055244927
0.259719890361
0.156136592341
0.773830572263
0.0103633665973
-0.687824055931
-0.983352722496
-0.739841720595
-0.569269563095
-0.724055804463
0.0673987959645
-0.726650664104
0.24752941602
-0.308916446569
-0.45578715941
-0.15524180713
0.287316816065
-0.401097105815
0.090356668778
0.296652865907
-0.160088188545
-0.218356853605
-0.154845553433
-0.259458388626
-0.322444133712
0.458945574944
0.80851844513
-0.713618451614
0.0468044052143
-0.102076459051
-0.873665116035
-0.423543249026
-0.286346340261
0.625780410467
0.496458847611
-0.418903685182
0.26510008583
0.542573373203
0.930846110155
-0.0593398482676
-0.226937817878
0.0639949850577
0.900903170267
0.0453282853182
0.961852248373
0.173110564062
0.774370001438
0.370546601698
0.470126036435
0.0267575753269
0.318410882662
0.928647425166
-0.471411078613
-0.536013637855
0.343600411595
0.0117935509847
0.343850299422
-0.655797170056
-0.366353757133
-0.621330250832
-0.437223004914
0.314971048604
-0.168472326227
0.761872932626
0.546957751588
-0.326248539746
0.769030031108
0.0551055908182
-0.907587275357
0.543856583347
0.289624588352
-0.0629737923023
0.610703469843
-0.378065786589
0.800154910521
-0.746615822756
0.387291543864
0.896269997601
0.473257795827
-0.233987263568
-0.703020784575
-0.379079616677
0.453328236881
-0.47160284096
0.827605216184
-0.539704280479
-0.103604492527
-0.882470106388
0.31121351242
-0.745976854366
-0.0794075135826
-0.391859795466
0.283060342213
0.500798979664
0.84813826197
0.0992843696034
0.828976007052
-0.269791858986
-0.429587904724
0.256663497989
-0.884244075923
-0.985041026796
-0.926260154698
-0.89533712949
-0.237553780102
0.936423768268
0.960004764179
-0.57735118691
0.851524158558
0.83423259348
0.844489183211
-0.401592635326
-0.15412336695
0.524883947492
0.6519643826
-0.37278168562
0.478299209615
0.379307479485
0.857093275634
0.286030492543
-0.369502637294
0.734110851931
0.577444384457
0.35592558415
-0.0373150435779
-0.843818032414
-0.498418942194
-0.149041697114
-0.466405334928
0.4965939687
0.557364553923
-0.629847753917
-0.360554430763
0.543623993633
-0.373890193007
-0.946334169607
0.72350314107
-0.402352561926
-0.495976798642
-0.655322803965
0.739972060341
-0.966941799116
0.932687094356
0.456330764271
0.640954835426
-0.870992046691
-0.536300263232
0.247029560314
0.233404919053
-0.199549874802
0.300493167291
0.161543852158
-0.667625372489
0.873329664253
-0.627347884421
0.532189182665
0.633069809165
0.770737241208
-0.673988681323
0.680296321298
-0.317424751024
-0.570949843541
0.494607806822
-0.836130499824
0.711747467399
0.0329987341907
-0.548378069168
-0.610688608241
-0.678848132226
-0.0226860454083
0.0947147351619
0.0671480739451
0.352626248247
0.0682757711015
-0.721309405089
0.659683060318
-0.947129572938
-0.501801046768
-0.528834038357
-0.454097800804
-0.586942293193
0.56519643493
0.419677055536
-0.0575179526399
-0.86497663185
0.258904327046
-0.135316372681
0.0829168565123
0.71684992337
0.456689254742
-0.551850365577
0.14272250341
0.073925311519
0.624596996266
-0.0485823104274
0.413090536509
-0.645821873563
-0.720210382108
-0.539807722842
0.288421624216
0.287993598731
-0.0905661806147
-0.855791509128
0.651625205706
0.0666720770704
-0.437982615991
-0.0211014048657
0.474336700639
0.267090980174
-0.458963843295
0.504341525087
-0.347625227654
0.0994648965402
-0.250866908237
0.834934917835
0.707870080788
0.932299971824
0.629607910771
0.870900670369
0.71729976529
0.989729554182
-0.818528548386
-0.37673757876
-0.441786279307
0.343978821599
0.323578205509
0.451622605317
-0.239395605325
-0.719043503457
-0.677126678167
0.689885017497
0.110034512988
0.856035181942
0.0217569617349
0.724981122329
-0.545832312953
-0.325578763502
0.938379973132
0.254102361733
-0.673815266562
0.49097088553
-0.84822888992
-0.858452647901
-0.247400129178
-0.0627637157252
-0.955158680132
-0.0566504596509
0.828253303458
-0.0465910258621
-0.966420464322
-0.126070936458
0.833861886653
0.644326482906
0.873489862766
0.796727906113
-0.831182406574
0.23535342304
0.333785480546
-0.621246675977
-0.0846820519403
-0.232324207119
-0.790650067222
0.643395182622
-0.320237615998
-0.027761359531
-0.659239396002
0.319049039337
0.362839720454
0.737160059866
-0.51126882648
-0.84155568091
0.306749052093
-0.833891708254
0.447000774914
0.0572567509159
-0.948413195322
0.20380753493
-0.131032874785
-0.407906410137
-0.351676585992
0.987976968613
0.637944405807
0.88437257896
0.866275829284
-0.286299142597
-0.809852448482
0.35494469346
-0.535119673303
0.422872499139
-0.268833411509
0.947333548674
0.263954005365
-0.739331925327
-0.306861596028
0.591475662242
-0.767132552272
0.475543049606
0.0552767075141
0.0511662583924
-0.706935826474
-0.554126648868
-0.152792579611
-0.921594255785
-0.87235232156
0.810995834001
-0.599150000381
-0.176978333272
0.741431520038
-0.440399176666
-0.808155949368
-0.188374794326
0.635398026144
0.86991061295
0.768101432578
-0.575832678387
0.475049499607
0.15136703472
-0.314596609347
-0.527292882714
-0.669362864569
-0.763723748223
-0.914208250832
0.158046687112
-0.12361712555
0.338341818519
-0.178608780154
-0.2468141266
-0.446857328099
0.615444347118
-0.356441913395
-0.445400760656
-0.098555376056
-0.585446021224
0.836045168101
0.461719614403
-0.442772484845
-0.388993518409
-0.884315326147
-0.813478607507
-0.453698329456
-0.0420191031767
0.74671809608
-0.14461429335
-0.742099559037
-0.072894833714
-0.625743533778
0.390428104773
-0.821796020626
-0.618551421541
0.849214555975
-0.164232038027
-0.779629207168
-0.573003033519
0.067310819406
0.114779426674
0.727514848916
-0.800789205094
0.839529695292
-0.995439809694
-0.533556711863
0.933118960268
-0.97283286556
-0.57351689648
-0.33871659498
-0.0557705251714
-0.330189084636
0.0162987425337
0.957877194141
-0.322139808785
0.550314540835
-0.839664616179
0.661335361866
0.635783620791
0.676582105166
0.731428247297
-0.910272810706
0.549848749583
0.394245614357
-0.124265815315
-0.647082076811
-0.881934842033
0.613879597673
-0.600138545403
-0.293876879424
0.611245627812
0.508003437032
-0.355361021527
-0.869595347839
0.874999086558
-0.364262270134
0.702559494662
-0.598008401126
0.380513369718
-0.276353997611
0.517563574371
-0.613400541096
-0.778500238863
-0.530953658811
0.591310252883
-0.0717181406479
0.84882195156
0.522441599846
0.853889774893
-0.729877667862
0.715340769958
-0.587134335474
-0.565245154226
0.675792144866
-0.435931953245
-0.392426753998
0.305699181289
-0.126816261451
0.858579973258
0.788827655741
0.49989899372
-0.0919835445859
-0.403549026726
0.656044658141
-0.573399202245
-0.457692215185
-0.608624012508
-0.340537194567
-0.0188453311513
-0.521830476605
0.473397958126
-0.157378171158
0.357600677783
0.483981258776
0.93016847741
0.747696410508
-0.343749941433
0.780981321127
0.427694460318
0.236479266874
-0.62711836233
0.486877568774
-0.190159362444
0.774196193079
0.119339226742
-0.612530319898
-0.12009039986
-0.929930692551
0.947427885227
-0.953401511474
0.768994462037
-0.568850398463
-0.544212210743
0.127562449397
0.636926760903
-0.485768941798
-0.73665339701
0.105675765698
0.104804579381
-0.299946878365
-0.815879796298
-0.509629556088
0.20110109219
-0.406530876582
-0.775074151971
-0.210433202893
-0.391340106823
0.23809815393
0.501997663603
-0.192857064883
-0.864318320155
-0.484176720498
0.851062284692
-0.710744426559
-0.973960398144
0.280295650362
-0.979556489073
0.723424881125
0.85971666448
0.172295276423
-0.808756498042
-0.699584040948
-0.428808037224
0.325829146169
0.472603482953
0.63479141179
0.911449199256
0.608161533607
-0.0474528078445
-0.496488695941
0.713203331035
0.473469520864
-0.966345851071
-0.292899294999
0.112441779215
-0.130611532135
0.509298360408
0.936156444016
-0.758804449151
-0.254508646077
-0.800477200418
-0.417026113427
-0.124801866943
-0.10565257685
-0.48138267952
-0.445618302856
-0.776116017979
0.356179628655
0.75098731002
0.465766882588
-0.0197540888716
-0.358000220002
0.61640574198
-0.534071086923
0.906793712781
-0.519552187395
0.701150103688
0.31799011066
-0.61369398844
-0.849367146524
0.851342458325
0.217198492436
-0.720358567828
0.0174414061404
0.353809033665
0.0893147035966
0.54045004354
-0.0281663962878
0.432053044114
-0.161267901092
0.555733679681
0.656880171478
-0.142872168029
0.342895269703
0.66156303824
-0.463494955042
-0.206195592021
-0.886674970569
-0.0695220261766
-0.058229118206
-0.611049609168
0.382550851431
0.0141173352387
0.428635027138
-0.598129795737
0.212015340709
0.165229192081
-0.87513166392
-0.184872252131
-0.0809383644056
0.0516673678172
-0.904887484497
-0.240068942828
0.0228872885889
-0.383212578884
-0.199657100882
0.595769607147
0.572463836728
-0.356520049854
-0.0455989213155
-0.235585565689
0.261407755328
0.468866188699
0.358944265635
0.746364274955
0.554683205159
-0.0667153632919
0.778408331588
-0.192693081142
-0.929535797056
0.76524633771
0.906426608987
0.940929341628
-0.56700055027
0.783378778203
0.309753262492
-0.204225905563
0.478020622556
-0.0830852932821
-0.177216786534
-0.883172222543
-0.770229954316
-0.709500492437
0.406752203142
0.483247108725
-0.848555797854
-0.428160161114
-0.0926026858323
0.462170871248
-0.303211176568
0.558444382639
0.197703688587
-0.108146888251
0.568580734235
-0.670514489078
-0.711756791178
-0.566664856551
0.155359034939
0.183578047736
0.789858440816
0.0394838292717
0.987158521334
-0.562708905419
0.496617314589
0.919568371989
-0.939838716484
-0.886119730244
0.538381236197
0.510645645704
0.141721140651
-0.101935301413
0.82515873173
-0.625476816522
0.0824238134289
-0.743950381854
0.073487438041
0.604966554129
0.965943536651
-0.56366684361
0.0655048617068
0.198832465806
-0.414676669938
-0.870128950399
-0.723068002952
0.550136251985
0.756257182923
0.88402710426
0.44353180681
-0.246451975131
0.136574985877
-0.771862970775
-0.360003387096
0.690174219629
0.597664284208
-0.363838794482
0.123155776864
-0.379106125669
-0.480586124403
-0.765781411262
-0.418290734117
-0.105606684608
-0.405513154937
-0.454134815971
-0.444955816329
0.338860410169
-0.692339150915
0.791959096946
0.488008519175
0.343595575885
0.7211801997
0.400519572713
0.173202009297
0.0285945736988
-0.995465062221
0.267496458026
-0.23049024297
0.769279577411
0.466582110071
-0.920821350908
-0.0356659085058
0.667308602467
-0.372974351208
-0.62509583148
0.640617754606
0.515538270477
-0.710785428584
-0.95354143682
0.414690940168
0.4228348405
-0.461055342989
-0.207465194811
-0.471493305185
-0.143087895674
0.46390412249
-0.193930626982
-0.256254444703
0.705819345542
-0.892238877827
0.613241099736
0.692498192718
-0.616038555301
0.945151214906
-0.299228425698
-0.3191132916
-0.0654613273782
0.30962997535
0.987389647847
0.298468053824
0.202066141447
0.354269001305
0.593866350032
0.455671086626
-0.699980078948
0.0853592912907
-0.770778365419
0.470110967685
0.248106574091
-0.713073717646
-0.431673200833
-0.474480590243
0.805660357056
-0.732439263887
0.369914663505
-0.401842866729
0.468231546075
0.649728912284
0.948256239277
-0.957097749589
0.626373811611
-0.549658026371
0.921134983473
0.227858991569
0.0391827331288
0.2383020023
-0.694743818981
-0.816388960638
0.752598593872
0.986041947463
-0.475632466185
-0.100841098377
0.13456324273
0.132267516395
-0.801716213149
-0.244051849985
-0.338993635192
0.655806614063
0.585347131747
-0.962961902521
0.931247591108
-0.0381492717848
0.0241866989791
0.219715644607
-0.615482964229
-0.693020170924
-0.738498738242
-0.431390744566
0.269476939401
0.0604546290715
0.549659040586
-0.83079985878
-0.896249792299
0.345229808285
0.799232163912
-0.0587885368229
-0.681947784585
-0.864178224441
0.902208996359
-0.853778372379
0.267594433847
0.360883056722
-0.291856501429
0.00249867972834
-0.667351467899
-0.226607462373
-0.339866901977
-0.949888439497
-0.9564788755
-0.703796306681
-0.361272115861
0.825905963903
-0.843299460909
0.753015876843
-0.513858251601
-0.680431230016
0.285751137339
-0.604955369986
0.709983437604
-0.374616186678
0.843435891394
0.76104155111
0.491672387982
-0.49019078041
-0.685784439967
-0.38786362369
-0.6400622441
0.0377762930108
-0.0954547300341
-0.844849083852
-0.770816500908
0.754652761897
0.720671430384
-0.939553705313
-0.521546948709
0.502950107073
0.749092800473
0.968876411188
0.521889717613
-0.448832593517
0.161053610881
0.609471032143
-0.274204758915
-0.911270167457
-0.923496736528
0.498233100055
-0.0102210364464
-0.114792264586
0.693234174787
0.644972578191
-0.140568579158
-0.133002947916
-0.420071470747
0.011288850051
0.756916182953
-0.333581488812
-0.0141911205275
0.204201428724
0.372374926618
-0.879488680313
0.692724340946
0.179282669676
0.723952012311
-0.022229179543
0.308201894504
0.254087597033
-0.98640771231
-0.743692474176
0.58451404084
0.751813266589
-0.584700366267
-0.792667953913
0.849684588391
0.699667762154
0.664074566771
0.860999500087
-0.287021130704
-0.972275974007
0.333910899029
0.719854361497
-0.676700359257
-0.0817030412267
-0.280834941026
-0.505470009299
-0.856534494984
0.836491943758
0.334693213035
0.993161025122
-0.356587541292
0.817082341657
-0.0875362229817
0.783287119436
0.474769806037
0.0384608776783
0.0980421972617
-0.307084774738
-0.791675536755
-0.559077077745
0.0214776247432
0.540661631399
0.0584226100567
0.107189683686
0.34089470611
-0.121943120248
0.40144770494
0.206248614932
-0.10932087144
-0.366862961603
-0.701686247866
-0.765614466154
0.303264870875
-0.362257935584
-0.782858357898
-0.0397165276097
-0.0268687897538
-0.411438511239
0.904748628263
-0.62509641099
0.789587551898
0.710723941051
-0.688929967467
-0.171974717875
-0.529328397789
-0.610962971393
0.456354746939
0.0471384546168
0.553835860876
-0.341172588992
-0.589666820457
0.956166353034
-0.844618015091
0.0830768417276
-0.612856978012
0.584419608306
-0.35705102701
-0.885851697727
0.988793159129
0.178585545694
0.820120284375
0.0693888458182
-0.926338946197
0.0223054002832
-0.50571843406
-0.505632910481
-0.814144033237
-0.435706755685
-0.363808841336
0.0209668427933
0.934606798066
-0.648366640719
-0.842796919271
0.120216985706
0.127136646846
-0.37732458033
-0.153272441233
0.850337475732
-0.187406520934
0.504353313541
-0.127084214546
0.398725194503
-0.435989008683
0.423775164686
-0.837590845274
0.54494610527
0.201275821054
0.57069175705
0.380814941669
0.687529399296
0.356671972765
-0.379063038039
-0.798333075932
0.325209296697
-0.0982983762098
-0.627867539982
0.179257826212
-0.441495880651
0.938579340825
0.800628625839
0.915041564134
0.700289502864
-0.359925724663
-0.609522161392
0.53693438392
0.955438769464
-0.426161999754
0.109917557839
0.62833071873
0.412824945474
0.671439232714
0.741016912217
0.437643461384
-0.96110222119
0.554201905677
0.756836876798
0.118453737904
-0.402830756896
-0.977569815595
-0.437901224351
0.563517827136
0.95166712135
-0.818439852047
-0.5666872195
0.995646453798
0.408990210895
-0.36281974548
0.233217241552
0.819985880308
-0.594248735522
-0.741716232826
0.374317816584
0.215772847829
-0.784865224969
-0.903186140375
-0.358188712764
-0.286381526376
0.509172149749
0.58605073334
0.67751760731
-0.432718862759
-0.391240667898
0.056005851297
0.98090147424
-0.863255867009
0.201647291059
0.578155681217
-0.468630318152
-0.244069318316
0.992557752353
-0.786330418297
0.457659612427
0.796966136951
0.505694259895
-0.103629334637
-0.992168496917
-0.228441439564
0.120429225257
0.43207291739
-0.199799479482
0.48347457372
-0.455586056292
0.60351887468
-0.502902538518
-0.111559205402
-0.126345530819
-0.695726972191
-0.699206744138
0.39284929986
0.94624297492
-0.340855456509
0.0408057061
-0.542120468159
0.666473223647
-0.239933042009
0.387156934758
-0.254494755973
-0.338754668635
-0.564738407586
0.261933127474
-0.470278741013
-0.860723580908
0.777695100181
0.613797651837
-0.270782604432
-0.223395832934
-0.841239786325
0.678834966227
0.0837717186998
-0.372202428941
0.485738123182
-0.841507544578
-0.317167398559
-0.798741314291
0.0984290132266
-0.746280150634
-0.131968580039
0.589784383912
0.00291401500427
0.999495916905
0.440475905244
-0.216314080872
0.0254995144129
0.815588731691
0.919405526237
0.843301288245
-0.817195389694
0.354688676998
0.943333588337
0.501241276017
-0.998426725938
0.865368889059
0.112686697925
0.54124415114
0.499144530932
0.132133467854
-0.085146476887
-0.737462590233
0.489047090355
0.692125173506
0.858847849633
-0.891977525684
-0.456290943285
-0.790010330502
-0.581769252638
-0.756044539746
0.942663992599
0.794717960082
-0.413539896958
-0.221266223842
0.740614182203
0.965754936684
0.596146520457
0.602636948824
0.0417312385391
-0.315790322605
0.792093262248
0.546028249712
-0.0386395135424
0.676522548972
0.302694428742
0.72387694655
0.503453322452
0.47816727291
0.301078951388
-0.274896171415
0.807006351346
0.341362445154
0.0995346677933
0.493895590774
-0.769679825053
-0.0705140165324
0.932032767173
0.437826672012
-0.00444635917721
-0.995749508466
-0.713518576211
0.903474395469
-0.466627765208
0.801485086139
0.948167510778
-0.0486449202196
-0.532594395496
0.722047755405
-0.961510913032
-0.0992510578837
-0.691410981268
-0.664046302786
0.184892998606
0.80312832852
-0.403216680455
0.514986786678
-0.280950163903
-0.971899281307
0.366896251242
-0.705477196802
0.762564695269
0.511858985223
-0.197941510617
0.443187130192
-0.0808628806695
0.889314599146
0.528121029066
-0.359384263484
0.245920923077
0.365601296215
-0.990317671187
-0.406516568626
-0.343583540884
-0.614414472184
0.24143612924
0.324225364078
-0.742860241421
-0.664482116016
-0.597902755841
0.776582054146
-0.107392592782
-0.188057146867
0.506403840659
-0.900406186288
0.270847491234
-0.86387927566
-0.458948326298
0.0191239646799
-0.111671763775
-0.157337298198
-0.644100877164
-0.904852453588
-0.420163371335
-0.499897490183
-0.503407499789
-0.447505165345
-0.842103936536
0.898108077687
-0.238145179615
0.122932691758
0.421777363304
0.573145243942
0.567290888871
-0.0156049954705
0.443697793994
-0.289745541067
-0.272194864143
0.578183899286
-0.66998243536
-0.431049883049
-0.0469448832508
0.292209436545
-0.870526676771
0.0193974709814
-0.496610330906
-0.46904814848
-0.479569834607
-0.35656378983
0.885775976455
-0.129762152331
0.779552256652
-0.0365118129854
-0.21898495682
0.768074806878
0.635193985281
0.17131870269
-0.81920172607
-0.60192707962
0.209636160883
0.0557360664434
-0.324968855482
0.648310265047
-0.977441204142
-0.284368995526
-0.319359083395
0.226371595002
0.810880749019
-0.192213117953
0.841431540032
-0.709684441745
0.555502246711
-0.905807602996
0.568851306078
0.027972442514
-0.234329496178
-0.325476327471
-0.935800512761
0.436180607206
-0.865597730659
-0.795138375592
-0.817530891159
-0.271048169838
0.327844224544
0.699307643526
-0.523452942171
0.165757277133
0.249686133693
-0.739826297377
0.603622209479
0.778937086719
-0.972259786108
-0.740973096945
0.0631751991775
0.489722193885
0.819263072409
0.535414290791
-0.331774358096
-0.0963985467836
0.597217125221
-0.626768926538
-0.323008439686
0.134328903865
-0.697757843818
-0.529298155277
-0.198512217036
-0.610982100396
-0.0156204511289
-0.791326318832
0.308028730986
-0.747708912912
-0.956412348801
0.908875568214
0.911196738089
-0.8525662234
0.102567718896
0.436141566391
0.157441150897
0.0911390057244
0.92682530282
-0.0211614088166
0.0728377838274
0.869420725459
0.301087507114
-0.835115143431
-0.417072252721
-0.83307265892
-0.0255179388102
-0.538627956762
0.063576941549
-0.327506636851
-0.595993439868
0.170873963141
0.288351074926
-0.5449984511
-0.712494408365
0.643995434848
0.621689379534
0.866324451687
0.185102283439
-0.0118622377717
-0.0892944172725
0.808255172691
-0.0148892223265
-0.770740655655
-0.133657300746
-0.158650755342
0.536138242662
0.798007071098
-0.841907812363
0.276422002354
0.00124811501215
0.314100587487
-0.954504550047
0.374442875329
0.445002078081
-0.644958924571
0.567709346507
0.549153625627
-0.231056001246
-0.238561699036
0.455076309563
-0.551901616727
0.649500898661
0.990626013237
0.286022331142
0.241619435213
0.447602629839
0.245774567912
-0.745862357244
0.20201233943
0.590023941006
0.146407343968
-0.472300442042
-0.625980598817
-0.303340869802
-0.842174667145
-0.548918921876
0.446190082564
-0.937391073491
0.834896327853
-0.56034377585
-0.0698654287999
-0.263509724342
0.946006685758
-0.376832197874
-0.958085593971
-0.354472920237
0.841503979951
-0.483103389
0.31910629066
-0.615199169835
0.784841364055
0.930045771497
0.437995057525
0.68533091118
-0.118081543163
-0.413744004049
-0.643283905083
-0.702211048437
0.792995808417
-0.536376065487
-0.86483465974
0.13223764092
-0.20805604691
-0.427247248869
0.942993358219
0.374120758191
-0.0515020027374
-0.456943866119
-0.612051747785
-0.849300647306
0.108373496848
0.0301320871077
-0.624563294607
0.386677828725
-0.438933005433
-0.177531454508
-0.420013014326
-0.659261222383
-0.177199960346
0.935177211415
0.66691166606
-0.500642671941
0.171869995584
-0.340140694866
-0.941525891809
0.450437598272
0.498616746064
-0.363556477085
-0.81804225819
0.657624005099
-0.772063540663
0.626538540449
0.29692870412
0.429207203941
0.461027386293
0.816149787763
0.974286406352
-0.386000319973
-0.628215158579
0.248220739681
-0.667071729174
-0.617078252748
0.642409825892
-0.624714663732
-0.261169263568
-0.536329384285
-0.559896808346
-0.102539779262
0.652465708569
0.807638325923
-0.425202064079
-0.722222859642
0.645570651267
0.640826885116
0.0165627354774
-0.639692472938
-0.0541582051088
0.336549193055
-0.0191656941598
-0.385956557192
0.405915975972
0.0465548116039
-0.922021027396
0.982952078794
-0.697231583619
0.188261952846
-0.76762706608
0.14435644714
-0.582277423081
0.213806788226
0.865830203005
-0.391065813381
-0.413382027527
-0.4617480841
0.536806022364
0.789409649494
0.800229540042
0.729257758117
-0.0839692071534
-0.326719358998
-0.32632756594
0.890022659488
-0.117485311672
0.186225669605
-0.443704360764
0.878140314268
0.698457828057
-0.627471600649
0.0157841929732
0.615568466806
-0.560299423962
0.780496252985
-0.459123561436
-0.790345525789
-0.7167920988
-0.389494583302
-0.482434388734
0.584149923946
-0.428027755258
0.628602109798
-0.836523042
-0.580466918508
0.264991191246
0.0589087012899
-0.731008856459
-0.769258430064
-0.7642343821
0.628859985717
-0.639213078243
0.671031947062
0.417178741487
-0.148360131761
0.20425644344
0.373816933215
-0.993805866079
0.334203949855
0.796811412783
0.690310765288
0.0305107033248
0.568415467113
0.0508132007879
0.486573335934
-0.449517280823
0.165800718432
-0.242053796874
0.00634351854297
0.951151831822
0.719638946303
-0.815508552202
-0.23116905618
-0.4517837587
-0.614945165078
0.878803030111
0.116430098554
-0.996988988661
0.958761858196
0.274622579621
-0.649088813486
-0.0396421656084
-0.115916406503
0.973793408921
-0.199189280282
-0.372575703969
0.624557128035
0.885421331287
0.455613113225
0.598592967038
0.891783510993
-0.638440900527
0.152470002497
0.58213968033
-0.0968421512235
-0.931696996572
0.240525996039
-0.608566756273
0.387997208922
0.812536426781
-0.179570340399
-0.681035388059
0.748971671316
0.319545184793
-0.874107134076
-0.280981511812
-0.258724393887
-0.653613992914
0.246081779418
-0.332923471969
0.55132055914
0.126471337595
-0.0954524182069
0.779082269406
0.437113357305
0.83319451824
0.539188935196
-0.331736238779
0.388228402942
-0.337093690816
0.462636534709
-0.231282011943
-0.190043914168
-0.826276643253
-0.0533201219544
0.80027083228
0.867027588066
0.377088029151
-0.688636108968
-0.79853091346
0.486460567789
-0.494704215106
-0.122354666059
-0.298149190195
-0.425367143937
-0.967042661149
-0.310709300075
0.208405911142
0.868018671766
0.561531881625
0.543885268146
0.456549476618
0.723390587484
-0.569919986095
0.934697006939
-0.125105146087
0.408644316808
0.455208035789
0.712806582742
-0.174264890857
-0.150064699632
-0.78015743749
-0.0119087526886
0.422587770615
0.683536713747
0.202427886068
-0.180559666997
0.807581746828
0.0550567381398
0.879521019669
0.368842521465
0.771915361117
0.57623807347
-0.22861705198
0.8201131081
-0.0668749136846
-0.612408186825
0.449047932106
-0.888803140651
-0.243575925992
0.423990203413
0.20870699161
-0.623912058876
-0.830608934906
-0.587039300452
0.991508841263
0.545631554746
-0.0151499226946
0.174706498973
0.826550437196
0.841656517786
-0.264303704339
0.545652956747
-0.298667757475
0.227249919875
-0.760336675044
0.068169271889
-0.427982587271
0.190467497126
-0.382393701947
0.618542870974
-0.864750245089
-0.127928214252
-0.917526174966
-0.2050533598
-0.25171311917
0.203803480105
-0.433446335924
0.626228331777
-0.0198295002154
-0.529553509156
0.979610712662
-0.731780362067
0.943131195273
-0.828751262541
0.230083084555
0.913250841603
0.372099472512
-0.220012850205
0.719251120635
-0.507680129188
-0.332020695312
-0.927721727242
-0.605999535809
0.439949952641
0.448022011845
0.542468912453
0.545546407612
-0.738199551286
-0.441064860187
-0.401523629812
0.0854907459172
0.663736578333
0.489912470348
0.845880197124
-0.247640507937
0.33656665372
0.628816639328
0.049861194603
-0.0390751901988
-0.0276558562024
-0.984137657887
0.324924804816
-0.0357312291981
0.946826321931
0.623189974992
-0.648537281358
-0.914307395183
-0.64391867155
-0.38441645099
-0.586862859464
-0.109319314502
-0.0360512361626
-0.427303077906
-0.787352344513
-0.532057160855
0.839170785649
0.0638634446988
-0.188776987013
0.0303149735978
0.86833304742
0.904212762279
-0.708439414745
0.869806397477
-0.558856208572
-0.104006250169
-0.500684663047
-0.866890413386
-0.745475632568
0.0310095772215
-0.976847808808
0.560224795894
-0.378888766029
0.129246054997
-0.129729918965
0.708333225946
-0.651296197102
0.60365887029
-0.257849239733
0.505352292772
-0.769757602457
-0.00846549719207
-0.664468091406
-0.228189611843
-0.910151071944
-0.0567617564048
-0.668798164339
0.849035188528
-0.764028734486
0.953266810269
0.438925322163
-0.650002591298
-0.422953629932
0.265293602727
0.666566242305
0.491447400866
0.901623156215
0.896210183038
0.160481839029
-0.309467639426
-0.192613026105
-0.588088783326
-0.246387163449
-0.174874841757
0.167350085347
-0.276997530476
-0.309337846295
-0.692859819221
0.161679631638
-0.547618400085
-0.542083232744
-0.550262965166
-0.48090191488
-0.874573621546
-0.965818136259
0.97670512847
-0.343982169119
0.101916400699
-0.617816492487
0.265681727538
0.879210521734
-0.855994016192
-0.550926210292
0.487217124311
0.193702305123
0.561290473771
-0.305059026064
-0.613474272154
0.138625179957
0.814837875264
0.332502592668
-0.240694217069
0.983656521664
0.293333040104
0.100869872384
-0.835220345452
-0.129341436883
0.178370457544
-0.00971578577739
-0.791192396637
0.587810248053
-0.843697209148
0.528643571111
-0.985945962152
-0.21380965468
-0.856822781812
-0.942845409709
-0.0937730899442
0.30195361081
-0.592025208361
0.92497201958
-0.295958135545
-0.199244939075
0.140042100288
0.501624631832
-0.487261681583
0.74695661876
0.378062106195
-0.470085611614
0.220569564899
0.0435088853784
0.96296285913
-0.876464748791
-0.159807589911
0.41554620349
-0.447176487091
0.567615671006
0.487159382772
0.435279677271
-0.260238789185
-0.701288307466
0.80235135262
0.454298506569
-0.066194685604
0.935556280904
-0.049016895169
-0.787559950933
-0.0366696225228
0.385696664569
0.381173840698
-0.189803661532
0.238497765324
-0.391232083054
-0.863633770636
0.448977827896
-0.375771315815
0.0369027020279
-0.692752856586
0.429525288857
-0.0387871161247
0.842806773156
0.0152030780009
-0.989441426336
0.68920071008
-0.783458570767
0.652276004802
-0.278894126386
-0.066900575966
0.58179084412
0.332539701117
0.881633596186
0.0825969468275
0.328845889591
0.57766430951
0.658355339668
-0.359569988601
0.502817164573
0.664411007162
-0.829330920751
-0.862390669169
-0.276721245655
0.217137178512
-0.116567106485
0.4439781706
-0.330402516219
0.459760834751
0.780316286081
0.782542672448
-0.635599504505
-0.621351943622
0.894153976387
0.514155874187
0.425635010498
-0.0637363287308
-0.313507743775
0.887191409232
0.36672613711
-0.132857926148
-0.916866347878
0.941419664269
0.280930897575
-0.489035921375
0.471341116533
-0.820845605163
0.887275391598
0.677870690827
-0.98135007035
0.492177836344
0.770332875183
-0.841046331462
0.153364773045
-0.421430264017
-0.776966924911
-0.491237806927
-0.696995817217
-0.591898529672
-0.204862626456
-0.213177106042
-0.477320436674
0.49892553624
0.900674066106
-0.323241501969
0.981702562908
-0.997711568823
-0.464952841522
-0.584939235318
0.0284736565916
-0.714996666704
-0.502118987369
-0.614099956904
0.373651634628
-0.597905873234
0.912830472314
-0.507271089351
-0.369753919401
0.676259108207
0.393106423952
0.251011418028
-0.694637682107
0.884743406597
0.806392301311
0.261819099033
-0.160551767475
-0.911191429436
-0.168619314879
0.600513145312
0.624180089594
0.0665040427927
0.33539874743
0.494006657339
0.115915512291
-0.975080587639
-0.663986574193
0.936840355897
0.525442944048
-0.79951717147
-0.564744517535
-0.356287053303
0.738303855738
-0.977038469526
-0.597690012291
-0.683794600746
-0.777347189921
-0.868680347087
0.0639330725477
-0.295648864166
0.885033146141
0.853289695243
0.513483727278
0.202544115907
0.00212198241511
-0.515810684859
0.573109138136
-0.908901724615
0.0746425733289
-0.00752903334863
-0.200895656271
-0.563714115801
0.301893422941
0.438679116033
0.30866481742
-0.330283355846
-0.399379186912
-0.490585013356
-0.794157802157
0.216216706029
-0.548996538401
0.939140133916
-0.473062519745
0.690674477341
-0.11393427628
-0.483599948845
0.429883532961
-0.17138304037
-0.0709806671075
0.943313773188
-0.304739669777
0.182165840864
0.116930081373
-0.481243970594
-0.934301524525
0.427933710366
-0.435337018872
0.179110341301
-0.665278599459
-0.43367931128
0.759239821905
0.10321391917
-0.194372491939
0.555715637883
0.264787904694
-0.321667754255
0.670740018573
-0.662177326133
-0.751914709035
-0.173123370314
0.459893118341
0.463747367567
0.328516227259
-0.86963852451
-0.88515792098
-0.211796722844
-0.267857912133
0.901508131217
-0.0717996749081
-0.257289811862
0.473235547696
-0.0997662666968
0.688457792432
-0.709077329041
0.7709391848
-0.176472195756
-0.538201527402
0.0974574124511
-0.712509644904
-0.667213694199
0.00546888682004
0.109761946569
0.886394238319
-0.901854184832
0.109512649839
-0.938049324582
0.0158461346797
0.681672435287
0.570859019786
-0.259327990398
-0.894429277463
-0.60513964009
-0.0637576894515
0.646232222286
0.247093018302
-0.867146052401
-0.582224998763
0.161169526405
0.862495942115
0.0124137796674
-0.515779926748
-0.598915007107
0.0557120047552
0.871446336235
0.182449721354
-0.42776937431
-0.116769277572
-0.807120805967
-0.93135903245
0.716530493255
-0.944056548655
-0.913380709015
-0.299660673018
-0.515455407206
-0.295106305911
0.941779203243
-0.752777294171
-0.989776481015
-0.668460147612
-0.357425364011
0.253062968856
-0.83051963579
0.677167222173
0.91741094696
-0.771703275716
0.657774308249
0.0453195748352
-0.747376551238
0.0608910921673
-0.23946382536
0.200071496507
-0.574963063754
0.705114807592
-0.623802971433
0.379261880962
0.103985952058
0.448005713258
0.996006035924
-0.507151038417
0.189709588348
0.346568839368
0.805781626319
0.647828252314
0.789135986996
-0.146881492661
-0.187701555273
-0.0942448670139
-0.875320673008
0.0774710540907
-0.739339787948
0.840571589426
-0.309002465876
-0.5649107906
0.196859091806
0.81652319118
-0.722771202826
-0.165503713454
-0.524717830447
0.0930244526873
0.738474970626
0.727092636255
-0.984628191904
0.700158677861
0.91363371094
-0.667933277435
0.959687150114
-0.910877145538
-0.643613198375
-0.759327229684
0.902999840168
-0.782716119537
0.672075670863
-0.488560499443
-0.456044793131
-0.154368129974
0.800807046687
0.00497956622525
-0.567443298342
0.944250849364
0.858633026958
0.161488545699
-0.912938311172
-0.923473945522
0.816467301474
0.617789620487
-0.493727245611
0.339238918582
-0.171025059064
0.772016145214
-0.866915602576
-0.554891160202
0.383554591753
-0.56461302863
-0.634344883922
0.219118411526
-0.468181778501
0.11982703567
0.501171076073
0.100344021678
0.23693506288
0.569756377297
0.787632858567
0.896079228517
0.249899316463
-0.936637645194
-0.316795865942
0.94558898859
-0.890207803641
-0.748787310361
-0.0812549160933
-0.975650174762
0.589563429366
0.991015272758
0.693986191363
-0.380477548918
-0.684263594354
-0.469064397702
0.263441508529
0.804510968954
-0.0539428448208
-0.345669082298
-0.841865588906
-0.994784784284
0.312836609649
0.33754327773
0.19077448133
0.547278053422
0.461607791117
0.825305626079
-0.000191533001696
0.685806356229
0.451048180215
-0.111816568783
-0.240731299851
0.198652275447
-0.652634717955
0.222928522508
0.0889660526704
0.993579869924
0.172570946858
-0.033183899021
-0.528243106278
-0.551219554196
0.204079354817
0.897474132895
-0.252047367179
-0.950192109757
0.296746948652
0.978222774059
0.137731346251
0.160166848089
-0.19037712931
-0.526103104298
0.956368618548
-0.134975550417
-0.980240417773
0.894464960262
-0.56333862383
-0.00998374531945
0.206667001003
-0.317059723202
-0.0676185165721
0.208703871721
0.248603079705
-0.30576478533
0.114372062176
0.101122129715
-0.28203146852
0.824217642106
0.137274345277
0.803749391659
0.444969610107
-0.258614634288
0.570815972063
-0.669573589943
0.179517492286
0.0768198644321
0.338358337621
-0.266789459905
-0.180039311283
0.484908985655
-0.836858280194
-0.378632352977
0.243496659074
0.781638899464
0.537357341353
0.36985563442
0.143884402175
-0.791697584041
0.262430159596
0.0582947021264
0.155215781746
-0.865509825852
-0.793582940246
-0.961101086004
0.749960691081
0.723060327304
-0.48938789643
0.760660152596
0.746544051577
0.972254214423
0.220267535398
-0.93238552431
-0.237323248904
0.515231271758
0.823197205311
-0.910827963481
-0.0118224981079
-0.683003189773
0.109691567896
-0.883766194422
-0.208873190215
-0.640256927007
-0.917864116021
-0.522072986988
-0.103149601913
0.448862349995
0.818343117018
-0.0786241938765
0.63405226198
0.176674901785
0.554123693783
0.849084824705
-0.492623966634
0.346834407197
-0.851903951299
0.999895970237
0.578164246485
0.240400436941
0.00534753958389
-0.407092440167
0.574476511679
0.253982334316
0.287296560803
0.496836454731
-0.344904872763
-0.16734805041
-0.83287161027
0.270990571295
0.859872094946
-0.0611039712507
-0.983479816501
-0.593187396062
-0.912997507427
0.796374911651
-0.700480914346
0.820161342414
0.719196940034
-0.72721257179
-0.821645064466
-0.416811167
-0.473538825156
0.252469397463
-0.765436519255
-0.459500652258
0.779103575252
0.268518025793
-0.660024468807
0.593305728455
-0.0803422252477
-0.479649965702
0.565838142998
-0.358958142713
-0.4133729018
0.814969758335
0.971907940072
-0.780019382271
0.657529954152
-0.577088961687
0.34079024111
0.218906407894
-0.163886720297
-0.714746275607
-0.70453956301
0.915514310967
0.814878135557
-0.488886408506
0.267119939153
0.0708653484333
-0.523442459656
-0.661848316703
0.598363541717
-0.0398147718249
0.933367479061
0.763046415059
0.362050818928
0.231789785615
-0.338064483123
0.632253733294
0.437427911288
0.177696077497
0.283714802312
-0.737570328373
-0.850323654536
-0.9191315297
0.484122733113
-0.522449662319
-0.0877272064844
-0.335374825946
0.173172216576
0.0784938695517
0.424669566709
0.353756049277
0.178620681807
0.687923301706
-0.394130785953
0.82949492366
-0.0356405261664
0.117460359676
-0.164726810922
0.0575348229863
-0.681586580989
-0.43940179419
0.552817136555
0.14949925377
0.460084766374
-0.670067185046
-0.211734507971
-0.251257683356
-0.268967217691
-0.204758577493
-0.178698090077
0.908278095257
0.413882868482
-0.115604077993
-0.882311142041
-0.295451892079
0.433758293976
0.940262074725
-0.926620765605
0.816672133737
0.870650290385
-0.612037156079
-0.657565875684
0.407311888121
0.246929856855
-0.494365658222
0.284663037892
0.603879203172
0.713267095072
-0.198417373987
-0.556185060779
0.760550626075
0.0684700470776
0.345471444546
-0.459200205311
-0.696319466413
0.190479558988
0.283690348137
-0.268918515318
-0.620360561646
0.431766493377
0.946072175755
0.459708631546
0.337488614038
-0.291369681751
-0.925633842757
0.410016035296
-0.129090164846
0.153305989469
0.400209304643
-0.11737493639
-0.733392074703
0.86347336764
0.380188141463
0.594153636344
0.853392918021
0.657657420399
0.734881815204
-0.69455937464
-0.539603374017
-0.237134705474
-0.907456809861
0.580376083603
0.868414885679
-0.642115316017
0.0492373604701
-0.0839088620607
0.119666097989
-0.947583521494
-0.871420995611
0.342789817572
0.0679369371409
-0.539993027341
0.0475290170369
-0.0445765894991
-0.0259836383031
0.552527707393
0.23734198577
0.917910850144
-0.81421056628
-0.909652812233
-0.441717002702
0.662262135319
0.603486406619
-0.419369876698
-0.642404760474
0.0530824707763
-0.966159803465
0.906192483425
0.55821152139
0.283622399041
-0.627780215656
-0.885170378344
-0.980235519602
0.106611286222
-0.280580003195
0.547851528044
0.329168974556
0.685603665696
-0.314966799827
-0.373372381485
0.297511853237
0.523593968791
0.73862633886
0.356177668826
-0.352130339501
0.666488926337
0.268091484524
0.206314117676
0.311092797679
-0.185738961136
-0.0332265749609
-0.512519720646
0.596638517135
0.612805088302
-0.814202090344
-0.366626234572
0.11996457732
0.668848188282
0.569753551901
-0.0281748443967
0.348190001568
-0.0714979367089
-0.573250088458
-0.433072760231
-0.764797889085
0.216509390862
-0.025632388716
0.0789197455492
-0.722838353053
-0.405128298297
0.594351146493
0.7196994712
0.0596454732769
0.250458213856
-0.620003416451
-0.211357337006
0.272599469857
0.317957956472
-0.972299784864
-0.434342673461
0.0462783801309
0.233667910565
-0.957910551728
-0.73592494618
0.642550426076
0.389655745329
0.660128221442
0.873503110666
0.181250420684
0.731375459111
0.574167500813
0.139292479868
0.160070598435
-0.256126409182
-0.358467953427
0.280730660332
0.866550904367
-0.107105894375
0.0300032344797
-0.746369054361
-0.365387425356
-0.533349248274
-0.182862800862
-0.151969973903
-0.442782157289
0.493447051166
0.513734461869
0.855892490164
-0.489436775707
0.313629288312
-0.699203584652
0.333948278727
-0.894877999109
0.0662803657295
0.213404394186
0.0577053613468
0.641127534551
0.164713412589
-0.538208505875
0.634244037451
-0.135078611449
-0.540592366664
0.558449850411
-0.332180912324
0.624399484447
0.909519000619
-0.915065410224
0.851591289492
0.190345763668
0.341383615111
-0.930482809359
-0.154932091232
0.116887654139
-0.89338879575
-0.255728454889
0.629380501182
0.141431609369
0.300977153267
0.0957260192281
0.772414021622
-0.314125707672
-0.359628645147
0.555586592251
0.525274653226
0.172966953736
-0.414793036434
-0.877637939983
-0.161155154469
0.806287994366
-0.272510636992
-0.607391323449
-0.721470199486
-0.702116346601
-0.981731447174
0.906542825217
-0.55995920224
0.688286450088
0.877642566817
0.966090187085
-0.486477608998
0.0823739380434
-0.0923483308949
-0.131588984581
0.715143217686
-0.583480594044
0.986492469595
0.483927890678
-0.645736095376
0.713858699722
0.01485902611
0.758241375895
-0.903857353351
0.207323102691
-0.020446652155
-0.67375844517
0.460033019749
0.289561554106
0.311627969692
0.737385038369
-0.35589612442
0.419087907483
0.402385248549
0.0380333692458
0.483396633467
-0.798770880707
-0.922952944911
-0.0692718109834
0.25834493272
0.148180502283
0.769151861219
-0.651864918883
-0.674538751065
0.911408567676
-0.880638713644
-0.155171480308
0.661774173644
0.998790794412
0.624323704043
0.900044230687
-0.692494630617
-0.303589392614
-0.484941478715
0.812031664311
0.279854286816
0.326822006684
-0.8475887002
0.255935015178
0.23044077647
0.0675058860193
0.655397817835
0.192691290615
0.877015517043
0.615821357444
-0.217220323598
0.976699123682
0.57846092305
-0.165184606417
-0.866843585601
-0.981223843373
0.485553173368
-0.321601294587
0.600772745951
-0.168843179143
-0.952701360239
0.847492220667
0.575116619485
-0.870557507964
-0.61956847887
0.935463314939
0.932860538506
0.386023690663
0.906301673206
0.806678455549
0.513218515303
0.587391531263
-0.896187241357
-0.471928809887
-0.862204198931
0.897129681316
0.170770952402
-0.972784605676
-0.831517737524
0.829989639452
-0.890657318472
0.303664132383
0.402379337409
0.141932055549
-0.35303663729
0.819245573427
0.468959357431
0.153344961181
-0.526380183116
-0.0854141772787
-0.937017808684
0.427892418714
-0.869281062279
0.958689229737
-0.470380190979
-0.0256226990521
-0.970612000055
0.383511028426
-0.481439935427
-0.756488835179
0.476763854884
0.531226114306
-0.936894914872
0.17397754658
-0.554656150321
0.454609569909
-0.0245098379745
0.870019699983
-0.391146585196
-0.0159344292547
-0.467226574718
-0.225101539097
-0.741512250922
0.432661373729
0.644702355895
0.769913260057
-0.61877415474
-0.710203497977
-0.194234712878
0.768924726579
0.783436709211
0.930114981631
-0.0875584064691
-0.0774356993971
0.923629388104
0.988085974315
-0.242765613758
-0.069334151045
-0.579124296597
-0.666839361501
-0.928944344524
-0.474771884704
-0.429169005991
-0.224218663288
-0.194527338902
-0.534204659052
0.847270296536
0.812142276608
0.560476537306
0.020124516648
0.60495893154
-0.293081945298
0.611570554765
0.964464113382
0.701242708614
-0.0414464550071
-0.409602725109
0.407626689027
-0.803582816555
0.463517437702
0.107696438852
-0.23211019375
0.728285334076
0.515151777581
0.302872966577
-0.176035336579
0.87555424567
0.536882648394
-0.737540826572
0.861926122748
0.162767294244
-0.416462120885
0.457596689882
-0.762839816608
-0.2256653151
-0.813944787329
-0.315630883364
-0.179197500856
-0.430538203272
-0.00261443083008
0.253178178638
-0.804968929053
0.578337583734
-0.35561121569
0.599086314585
-0.0765201037889
0.134392279824
-0.168244372345
-0.904200460439
-0.797538319237
-0.570300052153
-0.531468797925
0.35516561559
0.411388230152
0.500116919648
0.923529544872
0.951256476568
-0.459328714298
-0.937750592681
0.0696966279981
-0.318508705183
0.349780679301
0.787144758682
-0.868894448742
0.196047643164
0.0331709201654
-0.215004966274
-0.077096596389
-0.339884343374
0.0589504756967
0.647944240588
0.792458044373
-0.930547347558
0.145756515853
-0.141773500313
0.434596912747
0.0681884673643
0.679739215515
0.415215008451
-0.578234737162
-0.390353540395
-0.279045083725
0.398706574931
0.174925485034
-0.128926390342
-0.0445939181505
0.575646139611
-0.0362728401204
-0.480177058286
-0.134537922864
0.894294109687
0.108188745893
0.109765091609
0.510040278566
0.505557194294
-0.269547849875
0.22256632673
0.666609120387
-0.956689157903
0.752319939926
0.448362601021
-0.280456236097
-0.236577203221
-0.76704440553
-0.945282414497
-0.774679580822
0.061694213308
0.173643008533
-0.781804447949
-0.826774111512
0.629360385337
-0.39703912913
-0.00102010725349
-0.292621350737
0.473793377419
0.491530936748
-0.544111285222
0.944265275068
0.817596140806
0.337990777702
0.179100092847
0.769277616738
-0.734427480747
-0.030180539427
-0.343755922623
0.549791761837
-0.307326210829
0.914828332085
-0.303855204503
-0.401573100067
0.323215472085
0.886643243764
-0.966572543586
0.201276835393
-0.201599408167
-0.46717149522
0.314927106274
0.38815445458
0.153930710159
0.648534799464
0.859253664201
0.0672517103245
0.132886747709
0.123912310343
-0.441896391944
0.691176675266
0.633837498671
-0.557731097045
0.285750928059
0.560344071798
-0.399480318625
0.507982722825
-0.25721997899
0.0438757120323
-0.19467552982
-0.878447672996
-0.21474859091
-0.729224769708
-0.931313401744
0.100307209358
-0.443736797155
0.237878726095
-0.652980148862
-0.511261130335
-0.927020526041
0.411700623678
-0.303548538549
0.531241453504
0.000964345654567
-0.612804415953
-0.391629256496
0.327803083695
-0.310725822082
0.64674146521
-0.802886180379
0.217611176356
-0.377547462663
0.407255013056
-0.857541162134
-0.142044251589
0.966010996064
0.759038515749
0.302363274984
-0.226745542702
-0.167690812822
0.606427077462
-0.939499945561
-0.807408482425
-0.505118846177
-0.893089629477
0.447670698168
0.188535246042
0.724854662941
0.0118040053346
-0.733001350885
0.322917878335
-0.94979890954
-0.744911760458
-0.0392152736473
-0.35719858613
0.195747160248
0.713867986005
0.59884251832
-0.563720958973
-0.674319430485
0.37963091898
-0.696435529583
-0.73944242943
-0.382075332648
0.921389157618
0.141274074211
0.93809810297
-0.434688364092
0.559542708156
-0.788315427532
0.995573590127
0.146634679191
-0.325622384694
-0.0952725051888
-0.615046380212
-0.427498793576
-0.894495119874
-0.0292633949766
-0.162723907792
0.879375789935
-0.408776098109
0.518883487123
0.487416614233
0.864267729879
-0.68766582816
0.426703430857
-0.653724234314
-0.329359921491
0.7374385697
-0.948663268214
-0.367847184473
-0.957167388226
-0.516837815395
-0.0583454217792
0.0930480566059
-0.753877173242
-0.24208065475
-0.179203488412
-0.547475798741
0.0877238480513
-0.576195837783
0.362119251891
-0.304820361704
-0.867909544213
-0.0456162118234
-0.796895370313
0.535411892259
-0.955831728624
-0.776582204296
-0.0768680366008
-0.484107182887
-0.895771016827
0.753589738002
0.284321808522
-0.520162505479
0.381373604981
-0.17845387552
-0.223049820131
0.659922032026
-0.100665293065
-0.823957104418
-0.951585335001
0.458394374258
-0.29102058562
-0.484026543486
-0.217164013775
0.149243339811
0.280810598802
0.0616551028139
-0.236490427153
0.352101268535
0.504494124666
0.181861943547
-0.693495646514
0.863498532402
0.723672522956
0.599939984937
0.909517486836
-0.19744236997
0.0967681859097
-0.447972884954
-0.884809200608
-0.50193644409
0.929723980004
-0.128850279301
0.279884396642
0.90222096615
0.880305103657
-0.668704534403
0.509091469416
-0.774425949645
0.20784142084
0.509118185969
0.315843952984
-0.144923474942
0.954140824524
0.441269752953
0.69965389346
-0.373019962601
0.580107720697
0.627126438456
0.0334851267418
-0.691711615071
0.196995447596
-0.354632625393
0.345726127048
0.996294776049
-0.604131307795
-0.0497832184235
0.909209854938
0.652036342793
-0.978246762398
-0.985361505629
-0.55553296829
0.959889422732
-0.863501834784
-0.33841150055
-0.380471385858
-0.0189778613073
0.287433585629
-0.959770625429
-0.851561580483
0.979324877392
-0.162922100755
-0.796181052911
-0.282455730257
0.668417532453
-0.296653019286
0.757326236184
-0.414037360364
0.120740412668
0.756131512945
-0.454934527804
0.586936302097
-0.747552915293
-0.163842419912
-0.605061206711
0.212293927713
0.211387029124
-0.188729933451
0.0763228443373
0.859414563473
-0.609391021921
0.253710234341
0.422422737473
-0.967249401115
-0.00673541006159
0.382593015628
0.430526452713
-0.553029492033
0.0294855420913
-0.981028498411
-0.493332424514
-0.864265943094
-0.660049971815
-0.849374445671
0.322438856882
-0.325627279722
-0.87014049869
-0.537360341077
-0.658879840734
-0.794699310865
-0.146636065046
0.297970562067
0.854223944717
0.177496565684
-0.421906197674
0.638723667213
-0.406822891047
0.888821731298
-0.521386376971
-0.278668234259
-0.743159048759
-0.272223367651
-0.0377720888706
-0.122593904852
0.538280205147
-0.466087603473
-0.729039557722
0.95887381174
0.461236362096
0.0846781787502
0.122555296488
0.341672401495
0.235343598893
-0.767992254003
-0.126512401569
-0.496032154295
-0.701481370128
0.787635142315
0.65310460138
-0.88530643584
0.900471504858
0.805342886708
-0.930906681502
0.915375894987
-0.411404670876
0.148642919177
-0.99406231894
-0.780794033678
0.23512867059
0.491697948104
0.532272622075
-0.816369169095
0.963975802936
-0.533096022028
0.555308502279
-0.185016966828
0.854486286666
-0.234662129776
-0.763350230522
0.658975561518
-0.227180134499
-0.836261993326
-0.279210668749
-0.692315313319
-0.298832475038
0.580577298824
0.685608281407
-0.301976176315
-0.229779683674
-0.338293383102
0.859212329595
-0.278903355724
-0.402501235523
-0.365668460838
0.553802970832
0.633202343983
-0.435672406779
0.892211003316
-0.738337759501
-0.178573958646
0.624540390987
0.628983801879
0.42747643408
0.892006941585
-0.669447510316
-0.969112331084
0.118693355488
0.288026416654
-0.341729965676
0.42496813082
-0.0429103970186
-0.537374204052
-0.908191044512
0.0800730170986
0.432457577939
-0.20751399771
-0.986909328107
-0.707417812289
0.842483915146
0.762417528278
0.634837813597
0.733268092621
0.366941338534
0.416660145896
-0.939012123346
-0.734063769672
0.955122563805
0.458784786203
-0.643554441564
-0.466884983014
0.0897527173917
0.125161342328
0.729451909824
0.111667106605
0.117917701569
-0.268219248369
0.261090812433
0.351523656745
0.127380124234
0.863287791866
0.354727551687
-0.535703130803
-0.169980662388
-0.832413769997
-0.972797970682
-0.519528638523
0.277830803114
0.0538338777137
-0.050587851382
0.572419253274
0.72510980293
0.775395914709
-0.255490022369
-0.303455225684
-0.919295697563
-0.398215403194
0.024021862553
-0.80800962666
-0.688756598854
-0.816612930824
0.169110149574
0.0464732268917
0.7230952033
0.200488000549
0.425731040029
-0.560036656352
0.147523362392
0.0774105249535
0.335631443459
-0.115104997716
-0.200134590793
-0.253630134049
-0.211471246304
0.993986414179
-0.732242887706
-0.479331475437
-0.0667225092135
0.66763498815
0.192270927488
-0.935981642482
0.922052049064
-0.615687413111
-0.113684406002
-0.943074915596
-0.772072150441
-0.335265858052
-0.279344375357
0.999276960321
-0.457384876769
0.411075309304
-0.417570786702
-0.752752825191
-0.971256210088
0.663535001883
-0.223050845395
-0.370471251818
0.9729897013
-0.330948866665
0.605236631264
0.118782660607
-0.752854595419
-0.424470726264
-0.472622376895
-0.593836546736
0.117583324121
-0.541867590537
0.131436397459
0.620028093587
-0.737569844334
-0.769505592991
-0.232657567524
0.321215911493
-0.970546860644
0.357016215479
-0.158686697618
0.343981012412
-0.196117071213
0.318815227955
0.681571829385
-0.731419161501
0.31216270913
-0.606549870747
-0.358163093995
-0.836588791953
0.053780043265
-0.424664867496
-0.132870968479
0.531285215716
-0.154116945701
-0.958488442886
0.896174572109
0.599936926136
-0.0970723557359
-0.228585029966
-0.823628567583
-0.795966140856
0.259343299993
0.667292675119
0.447877724884
-0.0794782137308
-0.332288132852
0.800200723887
0.512928465118
0.0715062435263
-0.819498208866
0.885281441982
0.55802596907
-0.376375555348
-0.752673968295
-0.8631320905
-0.343618777092
-0.717649355622
0.816651022364
0.852187930777
0.467290141401
0.685415860772
0.0336460007051
0.315978257268
-0.661272657419
-0.938455480862
-0.167316857771
0.820722646086
0.725604067918
0.105055973557
-0.32673180206
0.548184927276
0.041354656793
-0.611378121767
-0.320034791857
0.879064612677
-0.276720189328
-0.276068177638
-0.913173433109
-0.433278473781
-0.128583078849
0.447212338591
0.13263073716
0.935011676054
0.278276179359
0.605707514057
0.906243187194
0.869755178809
0.216892435898
-0.163198794865
0.319127574883
-0.0540580844687
-0.909009679343
0.918328394977
-0.678340204177
0.0250793757623
-0.516242356502
0.679462885687
0.322654189362
0.36855751967
0.116331051877
0.0957024647887
0.959470273162
-0.420398268834
-0.472416383016
0.482220497505
-0.611698882865
-0.61298101916
0.580632761309
-0.445521754208
0.368306258116
-0.732225765802
-0.51321864906
-0.901129761075
0.0910538975092
0.643103945676
0.857601642597
-0.337197371757
0.294487827929
0.87839447126
0.406010707104
0.25116771511
0.535897782085
0.0702784101144
-0.0671983804679
-0.987051314249
0.267971867145
-0.841659520516
-0.619881929934
0.881670121123
0.987790614468
0.0148631783766
-0.926940934453
0.432758304228
-0.366841765101
-0.892442483772
-0.875172459826
0.886073880693
0.882591191855
-0.787769492372
0.650230801391
-0.900513346877
-0.52317168959
-0.283650840722
0.782821581616
-0.329621283723
-0.196835748859
-0.0449914375245
0.336776136641
-0.223372611858
0.884720447311
0.975361073192
-0.963179303106
-0.0717057280244
0.206305783917
0.0177223192636
-0.555216422178
-0.799995071257
-0.395458787664
-0.947192907116
0.634974481703
-0.876648712938
0.627803030185
-0.350786356114
0.125242298354
0.287373900672
-0.767853319167
-0.583368078302
-0.925453924404
-0.705765773115
-0.806322263278
-0.699301608411
-0.705226728768
-0.478874120311
-0.490169434022
-0.235155871893
-0.820168974148
0.453041574741
0.0940574537937
-0.868581311495
-0.891706854354
-0.275403847831
-0.0117723827205
0.450016679596
-0.602517305862
0.864693522352
-0.131770261367
0.634948573073
-0.645215089321
0.466009705807
0.287140369316
0.302131643735
-0.243117085154
0.728467400179
0.903464737996
-0.0376556103677
-0.671552542862
-0.0627631377974
0.242903126465
0.856289843562
-0.304470593225
-0.818030396731
-0.270774476082
-0.833617195893
-0.282335581009
0.382247897185
-0.476873997672
-0.394071281661
0.199242336922
0.643637412785
0.641628525247
-0.904277147331
0.98214016963
-0.517234078397
-0.000483651121836
0.0845318998251
0.609947399177
0.906050403201
0.841135378224
0.645248615542
-0.404007909177
-0.805383332619
0.433991237228
-0.0441088089661
0.512305782792
-0.194191724281
0.0455645331516
-0.709146320187
-0.729032307156
-0.776763296496
0.135028339971
0.368092541949
-0.041695825884
-0.78275958002
-0.251787677931
0.0326280053115
0.778304973979
-0.315647562079
-0.258652034692
0.826995765528
0.326240847576
0.398953696039
-0.882372266056
-0.765139483388
-0.000236620445141
0.885941400576
0.417818664227
0.325883442784
0.626336694479
-0.101003823776
0.163607859361
0.423515434781
-0.71051125604
-0.094215571807
0.628414624834
-0.0996371030508
-0.51601020959
0.324360601846
0.504698030145
-0.228470800124
-0.863969341836
-0.97718626384
0.508711106077
-0.745859185287
0.157759699553
-0.238643062651
-0.388467325474
-0.536125461475
0.832848456403
0.00307560247232
0.167205926038
0.176752173644
-0.615145053635
-0.210578228492
-0.803645755184
0.0310494358276
0.358070485151
0.175712861364
-0.833357219354
-0.32412312515
0.327531946469
0.430215138199
0.34495556881
-0.0205922510813
-0.450016485681
0.0311788239562
0.270468857274
0.33052680126
0.938761267306
0.729976922608
-0.915970152338
0.0913937630781
-0.541070944907
-0.671163064055
-0.456156007635
-0.745108068402
-0.414560242726
-0.640249025021
0.771163650206
-0.477605802968
-0.759587428517
0.737632288409
-0.68376802306
-0.253515057184
-0.689634099264
0.090676290005
0.923802578625
0.775757850081
0.880072920387
-0.779086729959
-0.96485839099
0.648872411281
0.0624288263149
-0.247522133506
-0.512493677049
-0.829866974817
-0.121266876687
0.707775422073
-0.560854817666
-0.606028381848
0.929537183336
-0.968566358145
-0.438967134364
-0.987229092805
-0.134437946167
-0.462956394677
0.523094044283
-0.949385547246
-0.0362885395766
0.740071961786
0.411875058917
0.952019327832
-0.0394836987081
-0.55897053025
0.264344993355
-0.202610284124
-0.598921694973
0.0818474511669
-0.130514295704
-0.817721769794
0.746373184113
-0.151838759495
-0.492389685153
-0.976829291149
-0.334170580092
-0.129436519493
-0.136532588984
0.402110698765
-0.298019664578
0.133969343508
0.173478524688
-0.648343841081
0.786945232674
-0.981795402123
-0.124226926798
-0.582611924876
-0.450122588965
0.333354786895
0.0284679523533
0.797409040835
0.873775505919
0.768041774111
0.821876308191
-0.478475866188
0.710212014238
-0.914030008953
0.603176037927
0.449788757834
0.498757435042
0.705513021787
0.889404808205
0.511983276457
-0.186859515919
-0.942081152886
0.305557755788
-0.0705543851687
0.684679558094
0.603919216461
0.703791866377
0.0175944478159
-0.892920322262
0.709574500008
-0.279286737977
0.0727806710079
0.00148068781637
-0.115047150345
-0.617765673867
-0.403785661997
-0.972067716324
-0.443479783559
-0.384993377592
-0.92562846802
0.523436494482
0.252570859088
-0.354669577391
-0.974874100589
-0.449863434534
0.681318961937
-0.277190432464
-0.631077269564
-0.96031582325
0.14079506351
-0.656880134068
-0.139235104355
-0.148230685333
-0.356039257204
0.373553329136
-0.512811181597
-0.142702398287
-0.940932516527
0.854749355581
-0.335090005905
-0.0648155996795
0.300687115081
-0.381227098103
-0.592441715301
-0.398547011211
0.332573005813
-0.577923415675
-0.303651526305
0.359524451233
-0.532611079508
0.0581814057101
0.727645984589
0.905136217686
0.867581427643
-0.0829319420012
-0.583432959752
-0.611337663134
-0.775600093482
0.597544069293
-0.507646411972
-0.526218962487
-0.781256416844
-0.63448754744
0.336377895643
0.120590791977
-0.697136107245
-0.359147533473
-0.855751912818
-0.350405250126
0.843105722475
0.0119134619896
0.0534755059953
-0.052240535336
-0.0420084068947
0.00232970127819
0.366312914125
-0.642384683218
-0.534639856374
0.0177271343061
0.378171215373
-0.255344986856
-0.558858988525
0.391380291679
-0.168454098343
0.708071205484
-0.516423836453
-0.0558075048058
0.367153161574
-0.756981803416
0.691104530849
-0.537404471483
-0.244531184239
-0.65879878443
-0.0292160384619
0.930300808925
0.794122735699
0.217201307049
-0.534623901798
-0.498502326377
0.488329446799
-0.354811376234
-0.636581860763
-0.718461839015
-0.947601070182
0.511081803379
0.677945523362
0.351935258327
0.986005970096
0.381032141764
0.847498006016
0.847752383355
-0.405092733719
-0.533933621551
0.459510941467
-0.662765532296
0.90922387855
-0.26969714596
-0.10811724654
-0.21623598381
-0.237334522451
-0.0867399750155
0.915773732383
-0.349690370557
0.367917137168
-0.136792468923
-0.443335721374
-0.232008300927
0.964797557382
-0.269756613467
-0.720387249204
-0.93103139666
-0.564003075446
-0.34845340925
-0.601152622444
-0.130772489616
0.163648787108
0.281800473389
-0.482998691625
-0.632991599053
0.856265909298
0.467633276084
0.62845655315
0.584225705061
0.221743847955
0.585940576434
0.444891434281
-0.303136558626
0.419560148412
0.215753753733
-0.08521919686
-0.874591646115
-0.735826220409
-0.663881512117
-0.909145350945
-0.261865335068
0.514996562854
0.912542159175
0.753045546103
-0.227923078989
-0.639833502909
0.676554595201
0.200868622397
0.551132958076
-0.57408579246
-0.816027606833
-0.767133390549
-0.502581973673
0.0709634541796
0.49954310779
-0.56146979237
0.224187624637
-0.167008778913
-0.44553014876
0.379987625119
0.365342869425
0.247692592193
0.446474535598
0.307962377491
0.491016737523
0.0558221702158
0.290282428375
0.347105800022
0.406643676443
0.401253905295
-0.142379652139
-0.467331479347
0.0751816987704
-0.753914634363
0.433733138327
-0.769344797491
-0.403983595626
0.079218422442
0.881076479021
-0.139118448575
0.552007240043
-0.287776032007
-0.144093244589
0.722176647599
0.677802910253
0.823183073925
-0.509467799405
-0.470945986217
-0.0420841494225
-0.461256149564
0.736866881846
-0.0166663507121
-0.984474026706
-0.543893503892
0.0131279725562
-0.597952898605
0.902758304563
-0.498898577732
0.68895885404
-0.84349333456
0.87766249064
-0.982685075122
-0.170965693641
0.991932810519
-0.50820232512
-0.349781948167
-0.772286262144
0.207209500216
0.902210003589
0.182076625288
0.551754796861
-0.132110228606
0.790662213031
-0.990551158526
0.475098922819
0.168318868885
-0.517852798193
0.79374326207
-0.287932691152
0.581120350143
0.683960154984
-0.607274436467
0.554778510345
-0.767884080401
0.207303703452
-0.44396179133
0.534470074348
-0.473426979891
-0.340764307783
0.959249404935
-0.341757114347
-0.975171885035
0.25908479336
-0.344230331322
0.561419389041
0.741216198373
0.755791606694
0.543568441306
0.312749624172
0.810837448673
0.0237489281672
0.212165262463
0.251450663357
0.270467943441
0.851838171704
0.242574227285
-0.83904755257
-0.535434966075
0.729768863241
-0.300284402978
0.131870910463
-0.335822240472
-0.177690292885
-0.0780707558515
-0.0361496111718
-0.677112364961
0.526894718589
0.93771586948
0.93886489043
0.594086393556
