#include "conv_net.h"

const DTYPE weights_C1[C1_N_CHAN][C1_N_FILTERS][C1_W_DMNIN][C1_W_DMNIN] = {
	{
		{
			{0.188082665, -0.107899889, 0.0735258758, -0.059534952, -0.107528038},
			{0.109040558, 0.0664850771, -0.173447534, -0.0561515987, -0.21620962},
			{0.127737895, -0.0406185687, -0.130190149, -0.229192287, 0.149517059},
			{0.0568464585, -0.117837891, -0.222787693, -0.136190906, 0.156873733},
			{0.17024976, 0.0248896144, -0.222800523, -0.151823506, -0.0748162195},
		},
		{
			{-0.0950449333, -0.0643960461, -0.00431707548, -0.0213943962, 0.0851417035},
			{-0.207156941, -0.059257932, -0.211518034, -0.0303168409, 0.18198739},
			{-0.154664174, -0.126503199, 0.215316847, 0.477722853, 0.0855986699},
			{-0.121089146, 0.00332752382, 0.484834433, 0.499060631, 0.0487580635},
			{0.328520894, 0.364605844, 0.119774356, -0.125760213, -0.00574251218},
		},
		{
			{-0.224787384, -0.187501475, -0.0183124132, -0.0875336826, 0.340148687},
			{-0.290304244, -0.256771088, -0.152661249, 0.299514145, 0.27828905},
			{-0.331265539, 0.0586927831, 0.124642983, 0.0140950587, 0.140862569},
			{-0.231854573, -0.0100672403, 0.0315314084, 0.128907308, 0.107311644},
			{-0.158539295, 0.0796932951, -0.0255473908, 0.0556826107, -0.136098996},
		},
		{
			{0.163908109, 0.140178412, 0.203499287, -0.135727286, -0.135725543},
			{-0.000596028462, 0.488421291, 0.324209541, 0.143689215, -0.400920093},
			{0.241323426, 0.612070262, 0.531896293, -0.0689253211, -0.000137810581},
			{-0.192552418, 0.0977468342, 0.360546142, 0.10201399, -0.21024105},
			{-0.17036061, 0.178283572, 0.231340021, 0.180276424, -0.166034132},
		},
		{
			{0.366882294, 0.397445977, 0.605193555, 0.503888905, 0.382567704},
			{0.161084071, 0.219752192, 0.119119801, 0.353742868, 0.302639812},
			{-0.245771632, 0.0837676004, -0.134868041, -0.309229553, -0.0829052031},
			{-0.303598136, -0.510084093, -0.505045652, -0.287851572, -0.144923434},
			{-0.275516897, -0.28527537, -0.166409299, -0.104609072, 0.0532803573},
		},
		{
			{-0.039670907, 0.318580508, 0.240648285, -0.229731858, -0.16113241},
			{-0.0838927105, 0.394153953, 0.227619871, -0.369630903, -0.371419042},
			{0.291874379, 0.228491813, -0.139802068, -0.307214081, -0.316532373},
			{0.0357082933, -0.0832466334, -0.152188331, -0.065681532, 0.160338849},
			{-0.153152019, 0.120854348, 0.246809244, 0.484151065, 0.30982318},
		}
	}
};

const DTYPE weights_C2[C2_N_CHAN][C2_N_FILTERS][C2_W_DMNIN][C2_W_DMNIN] = {
	{
		{
		  {-4.5463e-02,-7.3677e-03,-4.2071e-02,6.0046e-03,-2.2165e-02},
		  {8.3469e-02,7.7265e-02,2.1071e-02,1.4746e-02,2.1899e-02},
		  {-1.8840e-02,2.2713e-03,1.2710e-02,-2.3337e-02,-3.5638e-02},
		  {-4.6109e-02,-5.5437e-02,5.4542e-04,-5.1593e-02,-2.4029e-02},
		  {7.2295e-02,-4.6714e-03,-5.9490e-02,-4.3188e-02,6.6087e-02},
		},
		{
		  {-4.0648e-02,-5.8853e-03,-1.8784e-02,-3.0970e-02,4.9024e-03},
		  {-1.4402e-02,1.3110e-02,5.3860e-02,-6.6584e-02,-2.2441e-02},
		  {2.7885e-02,4.3401e-02,-6.8497e-02,-2.5138e-02,-1.1474e-02},
		  {-4.7272e-02,-8.7617e-03,-5.2781e-02,-1.6285e-02,-8.9637e-02},
		  {-2.0013e-02,6.3429e-02,-5.9688e-02,4.9405e-02,7.2057e-02},
		},
		{
		  {5.0049e-03,6.2722e-02,-3.4554e-02,2.6605e-02,1.0137e-01},
		  {7.4190e-02,-6.1728e-02,-8.3481e-02,4.6331e-02,6.7931e-02},
		  {4.3724e-02,7.8948e-02,-2.9831e-02,1.0823e-01,5.9077e-02},
		  {1.8748e-02,-4.7593e-02,1.9804e-03,-8.9689e-03,5.1504e-02},
		  {2.4729e-02,9.4927e-02,-4.9397e-02,3.5099e-02,9.0524e-02},
		},
		{
		  {-4.3404e-02,-1.1082e-01,-1.3502e-02,9.1426e-02,3.4178e-02},
		  {7.3352e-02,-6.2592e-02,-1.5586e-03,-5.1325e-02,1.9852e-02},
		  {-8.6202e-04,3.2693e-02,-7.5030e-02,-8.0628e-03,-1.6538e-02},
		  {8.0092e-02,7.6592e-03,-5.5391e-02,-5.5234e-02,-5.8266e-02},
		  {-5.0811e-02,-2.1862e-02,-6.3860e-02,-4.5087e-02,5.1259e-02},
		},
		{
		  {-5.3370e-02,2.8777e-02,-9.8762e-03,-6.7821e-02,-1.6545e-02},
		  {1.8210e-02,-2.5724e-02,-5.3336e-03,-9.4392e-02,-3.5658e-02},
		  {-5.8506e-02,-7.4630e-02,-3.1120e-03,-1.9680e-02,-5.2586e-02},
		  {4.4730e-02,4.6050e-02,2.8133e-02,5.4327e-02,1.4946e-02},
		  {6.1660e-02,7.8876e-02,6.8398e-02,7.9197e-02,4.7631e-02},
		},
		{
		  {-6.9456e-03,6.8536e-02,1.4333e-02,-4.4857e-02,-7.4677e-02},
		  {-8.2268e-02,-2.2453e-03,-2.9233e-02,-5.6473e-02,3.8779e-02},
		  {-1.2078e-01,-9.1603e-03,5.8709e-03,7.3853e-03,-4.4093e-02},
		  {-8.8908e-02,-9.9445e-02,3.0559e-02,-1.2362e-02,8.5478e-03},
		  {-4.3464e-02,-8.7739e-04,-6.9324e-02,1.8896e-02,-4.8657e-02},
		},
		{
		  {7.6018e-02,2.5470e-02,-4.3281e-03,-7.8942e-02,4.8410e-02},
		  {7.8062e-02,3.5758e-02,-4.6778e-02,-1.0420e-01,3.0487e-02},
		  {-1.6921e-02,-4.3366e-02,-3.4852e-02,-5.6149e-02,3.6217e-02},
		  {9.5058e-03,-1.0675e-01,-5.0851e-02,5.0252e-02,-2.7388e-02},
		  {-5.8730e-02,2.9845e-02,5.2663e-02,-5.0435e-02,3.7243e-02},
		},
		{
		  {1.4583e-02,1.5070e-02,-3.4117e-02,-4.6412e-02,3.7913e-02},
		  {-2.0035e-02,6.3972e-02,-8.1261e-02,3.9408e-02,-3.3225e-02},
		  {-1.2579e-02,2.8796e-02,-5.0423e-02,3.2992e-02,-4.9838e-02},
		  {-5.1914e-02,-1.9556e-02,2.9098e-02,1.9753e-02,1.6422e-02},
		  {-5.9960e-02,-2.5844e-02,9.3393e-03,-8.0327e-02,1.7239e-02},
		},
		{
		  {-7.0333e-02,-1.6248e-02,2.1037e-03,-6.4513e-02,1.1017e-02},
		  {-1.9704e-02,-3.3171e-02,-6.3367e-02,-9.6005e-03,3.8472e-02},
		  {-6.2804e-02,-9.6553e-02,-8.0707e-02,-6.0972e-02,-6.7551e-02},
		  {-6.7281e-02,-2.1516e-02,-6.0040e-02,9.4209e-04,-5.4093e-02},
		  {-4.5470e-03,6.1882e-02,2.5694e-02,-3.2411e-02,7.9126e-02},
		},
		{
		  {6.3447e-03,7.4502e-02,6.0588e-02,4.4165e-02,2.3289e-03},
		  {-1.7061e-02,7.6188e-03,7.7508e-02,9.1210e-02,-5.1138e-02},
		  {-7.8007e-02,-5.0749e-02,1.7426e-02,2.3579e-03,-9.9654e-06},
		  {-2.4203e-02,3.0291e-02,-3.9221e-02,-6.4160e-02,-5.0030e-02},
		  {2.5638e-02,5.9455e-02,-1.4231e-02,-5.2606e-02,1.1803e-02},
		},
		{
		  {4.1344e-03,7.4698e-02,-7.8719e-02,4.0209e-02,8.8325e-02},
		  {1.3378e-02,7.8263e-02,-6.2492e-02,-5.2232e-03,2.5051e-02},
		  {6.6273e-02,6.2380e-02,-4.0241e-02,6.9260e-02,4.5330e-04},
		  {-1.2307e-02,1.7097e-02,1.4529e-03,-2.0890e-02,5.7786e-02},
		  {-5.2235e-02,3.1201e-02,-2.0520e-02,-3.0179e-02,-3.7686e-02},
		},
		{
		  {-4.4520e-02,-1.2821e-02,-6.2559e-02,-2.0100e-02,9.6687e-03},
		  {-1.3398e-02,-2.4849e-02,4.5141e-02,-4.7454e-03,3.3574e-02},
		  {-3.4105e-02,-4.2015e-02,1.9030e-02,8.8036e-02,-6.6523e-02},
		  {-8.4407e-02,3.6558e-02,6.4010e-02,-2.3648e-02,1.9819e-02},
		  {6.7062e-02,-9.6114e-03,2.6072e-02,-3.3480e-02,-2.5042e-02},
		},
		{
		  {-1.3114e-03,-1.0687e-01,4.8144e-02,3.3792e-02,-2.0607e-03},
		  {-2.5307e-02,-5.1933e-02,-6.4495e-02,-4.3761e-02,1.4163e-02},
		  {-1.0151e-01,-4.8138e-02,6.7186e-03,1.0234e-01,-2.6716e-02},
		  {8.3893e-03,-3.7739e-02,-4.0349e-02,4.9064e-02,1.4124e-02},
		  {4.9236e-02,-7.4996e-02,-4.7642e-02,-5.2363e-02,-2.9565e-02},
		},
		{
		  {6.4297e-02,-2.2391e-02,2.4440e-02,9.7084e-02,-3.7253e-02},
		  {7.3019e-02,8.2592e-02,-2.9573e-02,4.6246e-02,2.0924e-02},
		  {7.1722e-03,2.4511e-02,4.6782e-02,-5.8216e-02,-6.4705e-02},
		  {3.0703e-02,-3.3990e-03,2.3442e-02,-1.3593e-02,-3.6311e-03},
		  {1.7508e-02,3.4874e-02,1.5579e-03,8.2972e-03,-4.4971e-02},
		},
		{
		  {-2.0815e-03,-1.1348e-01,-4.7236e-02,3.5096e-02,3.9383e-02},
		  {-1.6394e-02,-3.3005e-02,-6.7076e-03,-1.0348e-01,-8.2210e-03},
		  {5.8482e-03,2.9584e-03,3.6793e-02,-3.9715e-02,-7.0199e-02},
		  {3.2463e-02,-5.3550e-02,6.8262e-02,4.1615e-02,2.8410e-02},
		  {2.2769e-02,-4.6603e-02,2.9550e-02,2.4155e-02,-3.8073e-02},
		},
		{
		  {1.5104e-02,-5.2811e-02,1.0664e-02,-3.2013e-02,-1.3240e-02},
		  {-6.4229e-02,-6.3272e-02,1.5081e-02,-1.1634e-02,5.0993e-02},
		  {3.8074e-02,1.2009e-02,-1.9238e-02,-1.2288e-01,-1.1462e-01},
		  {-6.5352e-02,3.9905e-02,-4.9363e-02,-1.9865e-02,-4.0931e-02},
		  {-9.8828e-03,-3.2424e-02,-2.6348e-02,3.4538e-02,-5.8003e-02},
		}
	},{
		{
		  {9.7645e-02,4.3491e-02,6.0395e-02,6.9160e-02,2.0556e-01},
		  {-6.9325e-02,3.1224e-03,1.0405e-01,-1.2584e-02,2.1958e-02},
		  {6.8095e-02,-2.8067e-02,-5.7001e-02,-6.1129e-03,6.5700e-02},
		  {-2.4279e-02,1.3449e-02,-3.8085e-02,-8.9558e-02,9.2404e-03},
		  {-7.6316e-02,-3.3529e-02,1.1205e-02,6.1532e-02,8.6823e-02},
		},
		{
		  {-2.5634e-02,1.2189e-01,8.0571e-02,-6.0909e-04,-6.8052e-02},
		  {-7.0444e-02,-7.2864e-02,-3.8603e-02,-3.0265e-02,2.4367e-02},
		  {-1.8396e-01,-2.4305e-01,-9.9215e-02,-5.5154e-02,2.3948e-02},
		  {-1.2125e-01,-1.4694e-01,-1.1791e-02,-4.1918e-02,-4.6064e-02},
		  {1.4368e-01,7.8346e-02,5.2177e-02,1.3274e-01,4.3142e-02},
		},
		{
		  {-3.6287e-02,-1.0247e-01,-5.6840e-02,1.2346e-01,4.7231e-03},
		  {3.2274e-02,8.8097e-02,1.1010e-01,2.1026e-02,-7.3046e-02},
		  {-6.5119e-02,8.3350e-02,3.1836e-02,-1.0173e-01,-1.4237e-01},
		  {-1.4136e-01,-4.9918e-02,-1.0730e-01,-1.7182e-01,-6.4202e-02},
		  {-8.9027e-02,-8.4591e-02,-8.1138e-03,-8.9068e-02,1.3505e-03},
		},
		{
		  {7.1186e-02,4.3976e-02,-2.3756e-03,7.9990e-02,9.0008e-02},
		  {4.8877e-02,-2.5574e-02,5.0960e-02,5.7322e-02,5.1780e-02},
		  {-2.4354e-02,-7.5788e-02,1.1489e-01,1.3212e-02,-1.1123e-01},
		  {-4.8970e-02,-2.0728e-02,-2.5686e-02,-6.4995e-02,-2.7930e-02},
		  {-5.3537e-02,-1.2109e-01,2.1141e-02,-1.1869e-01,-4.1154e-02},
		},
		{
		  {-3.6434e-02,-6.0317e-02,-1.4164e-01,-2.0052e-01,-1.1259e-01},
		  {1.4256e-03,1.0863e-01,-2.2508e-02,6.2352e-02,7.4045e-02},
		  {1.0592e-02,-3.2574e-02,-1.1424e-02,6.6193e-02,1.1346e-01},
		  {-2.0575e-01,-1.6427e-01,-1.6815e-01,-7.5838e-02,3.3034e-02},
		  {4.6806e-02,4.4789e-02,1.1795e-01,9.8126e-03,7.1987e-02},
		},
		{
		  {4.1523e-02,3.4693e-02,-6.2935e-02,-4.4732e-02,-3.7364e-02},
		  {-5.6261e-02,-1.8208e-01,-1.3533e-01,1.3338e-02,-1.9216e-02},
		  {-7.1930e-02,9.6130e-02,1.7545e-01,1.2499e-01,-2.0533e-02},
		  {2.1452e-01,2.2303e-01,6.9242e-02,5.8499e-02,-1.4394e-02},
		  {8.0040e-02,-7.6508e-02,-1.2982e-02,2.5652e-02,-8.4137e-02},
		},
		{
		  {-2.9823e-02,-8.8055e-02,7.3775e-02,5.7843e-02,-7.8415e-02},
		  {-9.4876e-03,5.3637e-02,6.8433e-03,3.2965e-02,1.1221e-01},
		  {6.1193e-02,-2.9822e-03,-1.6972e-01,8.2335e-02,1.3145e-01},
		  {-4.8765e-02,-1.3836e-02,3.3897e-02,1.7847e-01,4.2897e-02},
		  {7.5060e-02,1.4283e-02,-1.0108e-02,2.8721e-02,-1.9227e-01},
		},
		{
		  {4.2749e-02,-6.6099e-03,-2.0773e-02,-3.6206e-02,-2.0563e-02},
		  {-7.8755e-03,-4.1017e-02,-6.4382e-02,-4.7574e-02,1.5632e-02},
		  {4.7740e-02,-7.4398e-02,-5.2713e-02,7.5198e-02,-3.1835e-02},
		  {2.9371e-02,3.2795e-02,-6.8463e-02,-2.7901e-02,7.9283e-02},
		  {-9.4208e-02,1.3812e-03,-7.7505e-02,-5.0107e-02,5.2388e-02},
		},
		{
		  {-8.5427e-03,3.9561e-02,-3.6795e-02,-8.2008e-02,-2.4280e-02},
		  {1.0510e-01,2.2432e-02,-9.6658e-02,-2.5912e-02,-8.2965e-02},
		  {-7.7638e-02,-1.2347e-02,-5.2812e-03,-2.7588e-02,-1.2601e-01},
		  {-6.4217e-02,-7.5082e-02,5.3874e-02,1.1584e-02,-1.3943e-01},
		  {8.1025e-03,-2.2010e-02,-3.7148e-02,-1.3357e-02,2.0851e-02},
		},
		{
		  {-4.7333e-02,-1.3889e-01,-4.9282e-02,-6.1280e-02,-8.3381e-03},
		  {5.6404e-02,-1.0939e-01,-8.2138e-02,-9.5556e-02,-6.9145e-03},
		  {2.9448e-02,4.7213e-02,-3.6175e-02,4.8921e-02,-2.0668e-02},
		  {5.4660e-03,9.4070e-02,3.0526e-02,-8.2941e-02,-2.3938e-02},
		  {6.6489e-02,4.2735e-02,8.3789e-02,-4.5887e-02,-5.6275e-02},
		},
		{
		  {-4.8850e-02,-6.9897e-02,2.7038e-02,-1.3974e-02,-1.1877e-01},
		  {-1.3659e-01,-9.7982e-02,1.1363e-01,-2.2207e-02,5.6049e-02},
		  {-1.0374e-01,-2.4010e-02,2.1930e-01,1.1460e-01,-2.4571e-03},
		  {-1.3342e-01,1.2737e-01,1.2808e-01,-4.2827e-02,-1.0848e-01},
		  {4.0531e-03,1.4320e-01,8.4373e-02,-1.8485e-01,-1.0867e-01},
		},
		{
		  {1.0444e-01,7.4332e-02,3.6436e-02,-1.6532e-01,-1.0110e-01},
		  {-3.7376e-02,1.6319e-01,3.1342e-02,-8.3612e-03,-7.9029e-02},
		  {1.6447e-01,1.6481e-01,1.5510e-02,-8.0579e-02,4.9621e-02},
		  {1.8187e-01,-1.9437e-02,-2.4595e-02,-5.6891e-02,5.3328e-02},
		  {-1.4189e-01,-6.2919e-02,1.4158e-02,2.0586e-02,4.0103e-02},
		},
		{
		  {1.2002e-02,-2.6149e-02,-2.4445e-04,-1.0388e-01,4.0404e-02},
		  {-3.7205e-02,-2.0337e-01,1.3959e-01,5.5559e-02,-1.2834e-01},
		  {-8.5666e-02,2.2260e-01,3.2288e-01,2.3013e-02,-2.2691e-01},
		  {1.4498e-01,1.3369e-01,-2.3924e-03,-1.7552e-01,-5.0725e-02},
		  {1.6620e-01,-1.1092e-01,-1.6342e-01,-4.8664e-02,1.0794e-01},
		},
		{
		  {-8.0325e-02,-6.8814e-02,-9.5573e-02,-1.9318e-01,-1.3391e-01},
		  {-1.1340e-01,-2.5971e-02,-1.0132e-01,1.9073e-02,7.8850e-02},
		  {2.3381e-02,-2.1223e-02,-1.9416e-02,8.0494e-02,9.7639e-02},
		  {-1.4505e-02,6.0296e-02,-6.3097e-02,7.8257e-02,-2.9890e-02},
		  {9.3625e-02,-4.0812e-02,2.8628e-02,1.2953e-01,6.9282e-02},
		},
		{
		  {-1.6348e-01,5.2080e-02,5.5124e-02,6.4735e-02,-4.3755e-03},
		  {6.4974e-02,1.1628e-01,1.7526e-01,-5.8844e-02,3.7900e-02},
		  {7.7091e-02,1.1754e-01,-1.0913e-01,-1.2740e-01,-8.0331e-02},
		  {-1.0208e-03,-1.1738e-01,-1.8606e-01,-1.0854e-01,-1.1610e-01},
		  {-2.2757e-02,-5.7495e-02,-5.2012e-02,-1.2690e-01,-8.2784e-02},
		},
		{
		  {2.8882e-02,1.4367e-01,9.3455e-02,6.9118e-02,-1.6231e-01},
		  {1.7097e-03,8.2659e-02,-6.6808e-02,-6.0934e-02,-1.2178e-03},
		  {8.7406e-02,-2.6607e-02,7.1414e-02,1.9780e-01,2.4946e-01},
		  {-8.5137e-02,5.7133e-03,8.9502e-02,1.5757e-02,2.9909e-02},
		  {-8.7579e-02,-1.5850e-01,-1.0687e-01,-8.4714e-02,4.2331e-02},
		}
	},{
		{
		  {4.0287e-03,-4.9492e-02,-9.2024e-02,2.2272e-02,2.4015e-02},
		  {-4.5562e-02,-1.9487e-02,2.2066e-03,1.1251e-01,-1.9990e-02},
		  {5.1447e-02,8.6996e-03,4.2118e-02,7.0724e-02,-3.5472e-03},
		  {-8.1098e-02,-7.7328e-02,3.6963e-02,-1.5351e-02,7.0541e-02},
		  {4.2305e-02,5.9589e-02,-1.7537e-02,-4.0107e-02,-5.9937e-02},
		},
		{
		  {-3.0706e-02,-6.0544e-02,6.3554e-02,-9.5795e-02,-6.7765e-02},
		  {2.3580e-02,1.1310e-01,4.6820e-02,-1.1818e-01,-1.2947e-01},
		  {-2.9677e-02,2.1643e-02,9.8952e-02,-5.4859e-02,-8.5237e-02},
		  {3.7681e-02,1.6046e-02,3.8146e-02,5.2306e-02,-4.7140e-02},
		  {-6.0809e-02,-6.2735e-02,5.2046e-02,-5.7387e-02,5.3608e-02},
		},
		{
		  {3.8361e-02,7.1830e-02,2.8489e-03,6.7738e-02,3.4592e-02},
		  {-4.9619e-02,-8.8838e-02,1.0147e-02,3.6367e-03,7.6241e-02},
		  {4.8810e-02,-2.4625e-02,7.2928e-02,7.6384e-02,8.6045e-02},
		  {5.6058e-02,2.5951e-02,1.1930e-02,-9.1696e-02,3.9365e-02},
		  {3.5734e-02,-9.7688e-03,-1.0369e-01,7.1509e-02,1.1763e-01},
		},
		{
		  {-3.8477e-02,-6.3604e-04,-1.1874e-01,-5.0885e-02,6.8504e-02},
		  {6.4703e-02,3.0091e-03,-5.5250e-02,8.8542e-02,-1.6324e-02},
		  {2.7429e-04,6.3187e-02,9.1797e-02,1.1544e-01,7.2958e-02},
		  {-1.2155e-01,-6.4983e-02,1.0821e-01,-1.9060e-02,-4.3782e-02},
		  {-1.0871e-01,1.4859e-02,1.2349e-01,6.3910e-02,6.7507e-02},
		},
		{
		  {5.2310e-02,3.3699e-02,-6.5979e-02,4.2726e-02,-9.7902e-02},
		  {4.7392e-02,-3.2241e-02,-1.4559e-01,-1.0021e-01,-1.0303e-01},
		  {3.1703e-02,-5.2963e-02,-1.4222e-01,-7.6228e-02,-1.0688e-01},
		  {9.1986e-02,-1.9110e-02,5.9449e-02,-8.7489e-02,-6.9547e-03},
		  {-6.4571e-02,-6.6553e-03,-6.8204e-02,7.0182e-03,2.0326e-02},
		},
		{
		  {4.2584e-03,9.7533e-02,6.4744e-02,7.2265e-02,5.2197e-02},
		  {5.2987e-02,-6.7065e-02,-2.1808e-03,3.9792e-02,5.9544e-03},
		  {-9.4269e-02,-7.2275e-02,-2.6552e-02,2.3375e-02,-8.4244e-02},
		  {-3.8883e-02,2.8081e-02,-1.0061e-01,-1.0591e-01,-7.3144e-02},
		  {4.5362e-03,-6.8377e-02,-7.8799e-02,-4.9466e-02,-4.2328e-02},
		},
		{
		  {-7.6955e-02,3.3801e-02,-4.8958e-02,-5.9035e-02,-5.8740e-02},
		  {-1.1556e-01,-4.9149e-02,-3.6713e-02,-1.1866e-01,-9.3709e-02},
		  {2.8221e-02,-1.3683e-02,-9.0303e-02,-6.5534e-02,1.9535e-03},
		  {1.4821e-02,-1.4066e-01,-8.7791e-03,1.3006e-02,6.5871e-02},
		  {-2.7277e-02,-6.3311e-02,5.0469e-02,3.5166e-02,-6.0881e-02},
		},
		{
		  {-5.0097e-02,7.7044e-02,1.4484e-02,3.9042e-02,-8.2688e-02},
		  {5.8368e-02,-4.1200e-03,7.3732e-02,-3.3612e-02,6.6599e-02},
		  {3.4768e-02,-4.8944e-02,5.1606e-03,-5.2204e-02,3.0949e-02},
		  {1.2767e-02,-1.3029e-02,-3.6391e-02,5.7007e-03,5.8814e-03},
		  {2.2676e-02,-4.9656e-03,1.0737e-02,7.4295e-02,-7.2831e-02},
		},
		{
		  {-9.3201e-02,-5.8577e-02,-1.1344e-01,4.2655e-02,-8.5598e-02},
		  {-7.1875e-02,-2.6742e-02,-1.1574e-01,-7.2417e-02,-8.4458e-03},
		  {-4.4417e-03,-8.8889e-02,4.8400e-02,7.8701e-03,-9.1022e-02},
		  {6.0116e-03,-3.4336e-02,3.1065e-02,-7.2323e-02,-8.5918e-02},
		  {-1.2242e-03,-3.7177e-02,-5.1120e-02,-7.5766e-02,-2.6851e-02},
		},
		{
		  {4.2476e-02,5.3988e-02,6.3857e-02,4.3455e-02,8.2400e-02},
		  {-7.4166e-02,-1.5377e-01,4.2039e-02,7.8890e-02,-4.8059e-02},
		  {8.6477e-02,-1.1637e-01,-1.6446e-01,2.1039e-04,3.5627e-02},
		  {6.9478e-02,-4.7838e-02,-9.9270e-02,-7.7689e-02,-3.0151e-02},
		  {2.9116e-02,4.6527e-02,-5.3635e-02,-1.6230e-02,3.7324e-02},
		},
		{
		  {-4.1690e-02,-2.2465e-02,1.1196e-01,5.5884e-02,6.7280e-02},
		  {8.6297e-03,8.8834e-02,1.0924e-01,4.2882e-02,3.5117e-02},
		  {-9.9290e-03,-5.1022e-03,6.2770e-02,-3.0526e-02,5.7310e-03},
		  {1.7536e-02,3.4774e-03,3.5411e-02,1.8631e-02,-5.5730e-02},
		  {5.3096e-02,3.8000e-02,5.7668e-02,4.2023e-02,1.8974e-02},
		},
		{
		  {6.2856e-02,3.8947e-02,-5.1368e-02,-6.0411e-02,-3.3274e-02},
		  {-1.4409e-02,-4.3132e-02,-4.3711e-03,-7.8984e-02,-6.7111e-02},
		  {2.4460e-02,2.0864e-02,-3.2109e-03,-4.0313e-02,5.1571e-02},
		  {3.9861e-02,-4.0163e-03,-6.7251e-02,-5.6247e-02,-1.0238e-02},
		  {6.3381e-02,1.2963e-02,1.6112e-02,2.6734e-02,2.1059e-02},
		},
		{
		  {-6.7351e-04,-4.6847e-02,-1.0526e-01,9.2896e-03,-1.1138e-02},
		  {5.6745e-02,-6.6099e-02,-3.4688e-02,4.4583e-02,-1.3229e-03},
		  {-5.2419e-02,-2.7955e-03,1.3749e-01,-3.0166e-02,1.5159e-02},
		  {-1.0045e-02,8.5069e-02,3.1498e-02,1.0244e-02,2.6764e-02},
		  {3.4420e-02,7.4472e-02,1.8632e-02,3.4198e-02,6.9751e-02},
		},
		{
		  {9.1862e-02,5.7736e-02,-4.8862e-02,-6.3819e-02,2.3528e-02},
		  {3.9760e-02,7.3878e-02,5.8405e-02,4.8312e-02,4.6847e-02},
		  {-3.4240e-02,4.5596e-03,4.2370e-02,2.9970e-04,6.6286e-03},
		  {7.8677e-02,6.3365e-02,-1.8795e-02,7.6797e-02,-1.1835e-02},
		  {1.0478e-01,-6.9407e-02,2.7276e-02,-2.6653e-03,-2.7991e-02},
		},
		{
		  {1.5297e-02,-1.1321e-01,2.2132e-02,1.3289e-02,-8.9662e-02},
		  {-3.9773e-02,-2.7777e-02,-6.8119e-02,-1.2096e-02,-8.5577e-02},
		  {-7.7092e-02,-8.5535e-02,-6.3094e-02,1.2472e-02,-8.1553e-02},
		  {8.9716e-02,-4.6251e-02,-5.3196e-02,3.6097e-05,-1.1208e-01},
		  {6.4412e-03,1.6130e-02,5.2077e-02,-8.8564e-02,-7.5119e-02},
		},
		{
		  {-5.5119e-02,-4.5238e-03,1.8038e-02,8.1295e-02,4.7173e-03},
		  {2.4350e-02,-1.6387e-03,-2.6374e-02,-4.7052e-02,-1.1238e-01},
		  {-1.9695e-02,4.3368e-02,-5.8601e-02,-1.2272e-01,5.5636e-03},
		  {3.7132e-02,-2.2661e-02,3.1961e-02,-1.5493e-01,-4.7180e-02},
		  {-1.4817e-03,3.9893e-02,-7.4794e-02,-4.2183e-02,-1.0658e-01},
		}
	},{
		{
		  {1.2507e-02,-4.7085e-02,-8.9304e-02,-1.0572e-01,-2.7915e-03},
		  {-7.9715e-02,-1.1089e-01,-3.1404e-02,-2.9017e-02,4.3060e-02},
		  {-3.8328e-02,-7.6876e-02,-1.0133e-01,1.2508e-02,4.4954e-02},
		  {4.4858e-02,-2.6743e-02,-8.4876e-02,-1.2764e-01,8.6865e-04},
		  {-7.1277e-02,-4.8981e-02,-6.0311e-02,-7.3440e-02,-8.7909e-02},
		},
		{
		  {2.2538e-02,1.5684e-01,1.7715e-01,4.1053e-02,-1.5007e-01},
		  {-8.9228e-02,-1.0229e-01,1.0863e-01,2.3246e-01,1.0541e-02},
		  {-2.0893e-01,-1.4921e-01,1.8767e-02,1.7346e-01,1.1403e-01},
		  {-1.1187e-01,-1.7391e-01,-1.9272e-01,-1.0650e-01,1.9823e-02},
		  {-2.3569e-02,-7.1855e-02,-3.8013e-02,-1.0920e-01,-1.2879e-01},
		},
		{
		  {3.9958e-03,-8.7583e-02,2.8357e-02,2.9234e-02,2.0313e-02},
		  {4.3245e-03,6.9236e-02,3.6899e-02,2.0169e-01,2.9845e-03},
		  {-9.9932e-03,2.6177e-02,5.8070e-02,6.7752e-02,-3.7240e-02},
		  {3.1385e-03,-9.0420e-03,-7.4472e-02,-1.2768e-01,-1.2601e-01},
		  {-1.8193e-01,-9.5340e-02,-1.7297e-03,-2.2416e-01,-8.8034e-02},
		},
		{
		  {-6.9184e-02,-1.9550e-02,1.2360e-01,4.8941e-02,-1.4426e-01},
		  {-6.1859e-02,-7.0945e-02,1.0339e-01,2.0139e-01,5.5638e-02},
		  {-1.3439e-02,-7.0794e-02,5.9119e-03,3.0581e-01,-4.2471e-02},
		  {2.4374e-02,-1.1572e-01,-1.0265e-01,1.4696e-01,-7.1002e-02},
		  {2.9372e-02,-9.6384e-02,-8.2055e-02,1.0877e-01,-2.2373e-02},
		},
		{
		  {-8.5512e-02,-1.2598e-01,-1.5343e-01,-6.8470e-02,-9.3269e-02},
		  {2.8327e-02,1.2370e-02,-1.0672e-01,-8.0384e-02,-9.9835e-02},
		  {1.0022e-01,1.7697e-01,1.0191e-01,1.1323e-01,1.0683e-01},
		  {-1.1832e-02,-1.3230e-01,5.6641e-02,2.2605e-02,1.0375e-01},
		  {-4.7364e-02,-1.8808e-01,-1.2388e-01,-1.5846e-01,-1.5680e-01},
		},
		{
		  {-1.0403e-01,1.0276e-02,-7.6480e-02,-1.2224e-01,-9.8785e-02},
		  {-1.8339e-01,-5.0337e-02,-1.4787e-01,-1.1491e-01,-1.5016e-01},
		  {-1.7135e-01,-1.4164e-01,-1.4366e-01,1.1146e-02,4.2751e-02},
		  {5.1446e-02,-2.7822e-02,8.9261e-02,6.9114e-02,2.5157e-02},
		  {1.7799e-01,1.5366e-01,9.6853e-02,-4.0885e-02,5.0419e-02},
		},
		{
		  {-3.1965e-02,-9.4143e-02,-1.1123e-01,1.1654e-01,1.0156e-01},
		  {-2.2655e-02,-8.0993e-02,-3.2292e-02,1.5003e-01,1.8324e-01},
		  {-6.4149e-02,-9.3981e-02,-1.3354e-01,-8.6115e-02,2.7893e-01},
		  {-1.1864e-01,-1.4014e-01,-1.7553e-01,3.0233e-02,1.9782e-01},
		  {-3.6368e-02,-1.0886e-01,-7.4116e-03,2.9205e-02,3.5717e-02},
		},
		{
		  {1.1915e-01,-8.8049e-02,-3.1288e-02,6.7879e-02,5.9588e-03},
		  {9.2291e-02,-9.8312e-02,-4.2019e-02,-3.3944e-03,3.6147e-02},
		  {-2.5646e-02,-9.4020e-02,-7.0113e-02,-7.2062e-02,-7.8231e-02},
		  {-3.2884e-02,-6.1753e-03,-6.1651e-02,-1.2235e-02,-4.8899e-02},
		  {3.7448e-03,-8.7495e-02,-6.1536e-02,-7.4882e-02,-3.1526e-02},
		},
		{
		  {-1.3102e-02,2.3769e-02,-2.2788e-01,-1.3098e-01,-7.5281e-02},
		  {4.9376e-02,1.6250e-01,1.8447e-01,3.0933e-02,-2.6325e-02},
		  {-1.2107e-01,2.6888e-02,1.6289e-01,3.8046e-02,-2.2263e-02},
		  {-1.4049e-01,-1.2202e-01,1.0374e-01,7.1688e-02,-4.2058e-02},
		  {-2.6964e-02,-4.4940e-02,2.2162e-02,-6.3347e-02,-1.0505e-01},
		},
		{
		  {7.7829e-02,-2.4598e-01,-1.8994e-01,-1.5898e-01,1.5040e-02},
		  {2.6677e-01,1.6336e-01,-3.4228e-02,-5.9291e-02,3.5215e-02},
		  {1.5314e-01,2.6826e-01,1.1932e-01,-4.3691e-02,-6.1119e-02},
		  {-6.2079e-03,8.8968e-02,1.8271e-01,6.2017e-02,1.3037e-01},
		  {-1.0930e-01,-8.8805e-02,2.1232e-02,2.5436e-02,8.5415e-03},
		},
		{
		  {-1.1580e-01,-1.8663e-01,1.4704e-01,2.3280e-01,-6.2357e-02},
		  {-7.4522e-02,-2.1618e-01,6.0928e-02,2.0979e-01,-8.3049e-02},
		  {6.6630e-02,-1.1822e-01,6.6081e-02,1.4108e-01,-2.2029e-02},
		  {4.3077e-03,-8.8985e-02,1.2458e-01,1.6970e-01,-8.5948e-02},
		  {-8.8950e-02,-5.2660e-03,7.1091e-02,1.0926e-01,-2.0760e-01},
		},
		{
		  {-9.5759e-02,9.4891e-02,3.5092e-01,-3.5885e-02,-7.6604e-02},
		  {-3.7765e-02,6.6081e-02,2.0955e-01,-5.4759e-02,-1.2791e-01},
		  {-7.6358e-02,1.4664e-01,6.9109e-02,-1.5648e-01,-6.6784e-02},
		  {8.2290e-02,1.6255e-02,-1.0703e-01,-1.6581e-01,-5.1111e-02},
		  {-2.4664e-02,-6.3451e-02,-1.4403e-01,-4.4692e-02,1.2527e-01},
		},
		{
		  {-5.5903e-02,5.8851e-03,-3.3373e-02,4.2423e-02,-3.3941e-02},
		  {-1.0241e-01,-1.4034e-01,4.9780e-02,1.7748e-01,-5.3920e-02},
		  {-9.3777e-02,-9.8837e-02,5.3781e-02,1.7012e-01,-1.3682e-01},
		  {-5.2322e-02,-3.9298e-02,1.5683e-01,-1.1949e-01,-1.9363e-01},
		  {8.6844e-02,4.8592e-02,-1.2105e-01,-3.1248e-01,-1.1972e-01},
		},
		{
		  {1.3254e-01,-3.0184e-02,2.4482e-03,-2.4580e-02,-1.6754e-01},
		  {-9.4407e-02,-1.3124e-01,-1.5178e-01,-1.8934e-01,-1.3688e-01},
		  {-2.0682e-01,-8.7362e-02,-1.1611e-02,-9.7306e-02,-1.2966e-03},
		  {-1.6743e-02,1.3466e-01,6.2193e-02,-3.2123e-03,1.6544e-01},
		  {4.1317e-02,1.0688e-01,2.6846e-02,7.5218e-02,9.3089e-02},
		},
		{
		  {-1.1005e-01,-1.1051e-01,-4.7452e-03,2.8073e-02,-3.7441e-02},
		  {-3.9726e-03,2.2408e-02,1.6981e-01,1.2094e-01,4.2089e-02},
		  {7.0683e-02,1.8700e-01,6.5147e-02,1.5156e-03,7.8363e-02},
		  {1.2155e-01,1.1670e-01,-1.1579e-02,-1.6973e-01,-2.7812e-02},
		  {-5.2997e-02,-7.9948e-02,-7.4816e-02,-1.2935e-01,-1.1949e-01},
		},
		{
		  {-4.4789e-02,-4.2124e-02,6.4328e-02,-3.9536e-02,2.6802e-02},
		  {-9.8340e-02,-1.6721e-02,3.0041e-02,3.3114e-02,-4.2994e-02},
		  {3.9802e-02,-1.5391e-01,-1.8982e-01,-1.0543e-01,-6.1627e-02},
		  {1.3451e-01,1.4100e-01,1.2587e-01,-3.2502e-02,3.7241e-02},
		  {-9.8267e-02,-6.5043e-02,-7.5450e-02,-1.6148e-01,-1.7155e-01},
		}
	},{
		{
		  {1.2052e-01,1.0130e-01,4.4257e-02,-1.3377e-01,-6.8277e-02},
		  {9.7400e-02,-7.8689e-02,-1.0779e-01,-6.3915e-02,1.1447e-01},
		  {-3.0186e-02,-2.6719e-02,3.8303e-02,4.2444e-02,-4.8880e-02},
		  {1.0145e-01,2.4424e-02,-9.8759e-03,9.0189e-02,1.1842e-01},
		  {1.1738e-01,3.2058e-02,-1.6800e-02,-9.0890e-02,9.0511e-02},
		},
		{
		  {-2.4260e-02,-8.6212e-02,-1.3827e-01,-1.4379e-01,4.3462e-02},
		  {-4.3093e-02,6.2276e-02,-1.7962e-02,-2.1872e-01,-6.8758e-02},
		  {-8.1443e-02,8.0355e-02,8.1235e-02,1.3902e-01,7.0111e-02},
		  {-5.3227e-02,-5.0123e-02,1.2906e-01,1.6999e-01,1.9942e-01},
		  {1.6686e-02,-5.5422e-02,-7.5030e-02,7.9853e-03,-1.1759e-02},
		},
		{
		  {-5.5213e-02,-1.2776e-03,3.6633e-02,-1.0061e-01,-9.6087e-02},
		  {-1.2147e-02,-3.2309e-02,-1.0548e-01,2.8357e-03,-7.1136e-04},
		  {-1.6086e-02,7.8825e-02,3.0256e-02,7.0005e-02,-1.3802e-02},
		  {1.0560e-01,2.1825e-01,1.0418e-01,-8.7367e-02,-8.7595e-02},
		  {6.2049e-02,7.4708e-02,-3.3037e-02,-1.5401e-01,-1.1890e-01},
		},
		{
		  {9.4996e-02,2.1467e-03,-9.3858e-02,-1.3798e-01,-6.8959e-02},
		  {2.7686e-03,7.9437e-02,-2.3689e-02,-1.2820e-01,5.3541e-02},
		  {-1.5971e-01,-8.5225e-02,-1.5300e-01,-2.5703e-01,-1.3446e-01},
		  {6.0915e-03,-6.5567e-02,-1.7777e-01,-2.2115e-01,-1.6982e-01},
		  {1.3992e-01,-9.4990e-02,-5.6880e-02,-1.0246e-01,4.2554e-02},
		},
		{
		  {-6.7810e-02,-5.0656e-02,-1.3722e-03,-4.5796e-03,1.6201e-01},
		  {-4.3155e-02,-1.6158e-01,-1.1331e-01,-5.6035e-02,-3.4968e-04},
		  {5.0796e-02,-5.5383e-03,7.1995e-02,1.2580e-02,-1.6203e-02},
		  {1.7660e-01,2.9154e-01,3.5459e-01,3.5706e-01,8.7345e-02},
		  {-8.2245e-02,-8.1800e-02,3.2719e-03,6.6051e-02,-1.7357e-02},
		},
		{
		  {7.0966e-02,-6.2434e-03,-8.0376e-02,2.6320e-02,5.6380e-02},
		  {2.5014e-02,7.2043e-02,5.0474e-03,2.7650e-02,2.7476e-02},
		  {6.8022e-04,-6.0208e-02,-1.0711e-01,-2.0923e-02,1.2300e-02},
		  {-1.2454e-01,7.9295e-02,7.1923e-02,8.9083e-02,7.3843e-02},
		  {-9.8200e-02,6.7981e-02,3.0420e-02,5.9982e-02,1.7571e-02},
		},
		{
		  {-2.1604e-02,1.5086e-02,6.9763e-02,-4.4841e-02,-9.2081e-02},
		  {-6.6290e-02,-3.1022e-03,-5.1332e-02,-2.1528e-02,-6.6444e-02},
		  {5.6590e-02,9.2296e-02,1.2514e-01,-3.5534e-02,-7.7895e-02},
		  {1.8692e-01,1.5958e-01,-7.4691e-02,-2.0694e-01,-8.2296e-02},
		  {3.1118e-02,-8.0014e-02,-1.7001e-01,-1.7040e-01,-1.0691e-01},
		},
		{
		  {-4.3658e-02,5.7223e-03,-8.5238e-02,-3.1085e-02,1.5206e-02},
		  {-6.3838e-02,-3.2519e-02,-7.9017e-02,2.4676e-02,4.9531e-02},
		  {2.0652e-02,-1.8431e-02,-4.9532e-02,-4.8855e-02,-3.0471e-02},
		  {1.1982e-03,3.1124e-02,-3.3352e-02,-4.0604e-03,4.1419e-03},
		  {4.1111e-02,8.2707e-03,2.1739e-02,-6.1136e-04,2.3096e-02},
		},
		{
		  {3.0154e-02,-1.2305e-01,-1.3990e-01,1.8303e-02,1.2740e-01},
		  {1.6050e-01,5.8538e-03,-1.5028e-02,-7.4775e-02,1.4674e-02},
		  {9.1466e-02,1.3884e-01,4.8000e-02,5.3232e-02,1.7406e-02},
		  {-4.0661e-02,5.0156e-02,-3.3842e-02,-7.6673e-04,7.3014e-02},
		  {-3.7520e-02,1.0917e-01,1.3649e-01,-3.8488e-03,-1.1118e-01},
		},
		{
		  {-1.3420e-01,-8.2095e-02,1.8269e-02,1.7757e-01,7.6443e-02},
		  {-1.9694e-01,-1.6941e-01,-8.3853e-02,-1.8476e-02,-4.9010e-02},
		  {6.0743e-02,-1.1616e-01,-1.2408e-01,-8.4125e-03,7.5760e-02},
		  {-6.0676e-03,9.1824e-02,-9.4540e-03,3.3665e-02,-7.3707e-02},
		  {4.9540e-03,3.0724e-02,8.4104e-02,-9.7604e-03,-1.6544e-02},
		},
		{
		  {-9.3949e-02,-6.5459e-02,-9.1024e-02,-1.3674e-01,-4.1008e-03},
		  {-1.4770e-01,-2.3700e-01,-2.2492e-01,-2.0087e-01,-1.0382e-01},
		  {-2.9999e-02,-1.4094e-01,-2.4868e-01,-7.2657e-02,-3.6740e-02},
		  {1.6249e-01,-1.5870e-01,-1.0191e-01,-5.2987e-02,9.7001e-02},
		  {-7.7860e-02,-2.0719e-01,-8.3380e-02,-1.7039e-01,4.4363e-02},
		},
		{
		  {5.8737e-02,-5.0448e-02,-2.4300e-02,-5.0603e-02,-1.4859e-02},
		  {3.6134e-02,-1.5352e-01,-1.2621e-01,2.9040e-02,2.5882e-02},
		  {-3.3104e-02,-1.2576e-01,-1.1085e-01,3.6148e-02,3.7602e-02},
		  {-8.7029e-03,-6.5393e-02,-3.6097e-03,-1.6493e-02,-4.0505e-02},
		  {-3.2069e-02,-9.0926e-02,-1.4090e-01,-9.6404e-02,-9.1165e-02},
		},
		{
		  {-4.1905e-02,7.1888e-02,5.4008e-03,-3.3942e-02,6.2461e-02},
		  {2.1058e-02,1.4023e-01,-1.5303e-03,-6.5557e-02,-5.4866e-02},
		  {3.2402e-02,-3.6601e-02,-1.4334e-01,5.9457e-02,8.9011e-02},
		  {-1.4068e-01,-4.2178e-02,1.0454e-01,9.7153e-02,-4.0754e-02},
		  {-1.2904e-02,7.9241e-02,8.8766e-02,-7.1877e-02,-1.5549e-01},
		},
		{
		  {9.0382e-02,8.1340e-02,1.3488e-01,9.6865e-02,3.9732e-02},
		  {1.4977e-01,1.5889e-01,1.0411e-01,-1.2830e-01,-8.9299e-02},
		  {-1.0850e-01,-1.8954e-03,1.9367e-02,-8.9502e-02,-9.7898e-02},
		  {4.4753e-02,4.3917e-02,-9.1856e-03,-6.7408e-02,-1.3004e-01},
		  {2.8745e-02,-4.9522e-02,-1.3179e-02,1.3443e-02,-6.6167e-02},
		},
		{
		  {-2.6644e-02,-1.7881e-01,-1.9551e-01,-1.9881e-01,1.7977e-02},
		  {-1.9127e-01,-1.4966e-01,-4.2702e-02,7.1838e-02,-3.7911e-02},
		  {4.5206e-03,-9.6950e-02,1.3046e-01,6.6739e-02,1.6381e-01},
		  {-2.1369e-03,-5.4112e-02,5.1598e-02,2.1536e-02,1.1182e-01},
		  {3.9522e-03,2.9966e-02,-1.7471e-03,-1.2333e-01,1.5019e-02},
		},
		{
		  {-1.0765e-02,3.5538e-05,-3.2271e-02,-3.7095e-02,8.0686e-04},
		  {-9.4575e-02,-1.0069e-01,2.2460e-02,-1.3209e-02,-6.8530e-02},
		  {-1.3907e-01,-1.8146e-01,-1.3813e-01,-1.7504e-01,-1.0197e-01},
		  {7.3755e-02,-1.0035e-01,-1.2245e-02,1.3526e-01,2.0717e-01},
		  {5.3798e-02,2.4713e-01,2.5081e-01,9.4069e-02,6.5512e-02},
		}
	},{
		{
		  {-3.1724e-03,7.2129e-02,5.6533e-02,-3.5388e-02,-7.2487e-02},
		  {-5.5317e-02,-1.4828e-02,8.6030e-03,-4.8953e-02,4.7186e-02},
		  {3.0238e-03,-1.3941e-05,-3.8632e-02,2.6270e-02,3.9711e-02},
		  {-2.7300e-02,-4.5461e-02,-4.0381e-02,-3.6496e-02,-8.4517e-03},
		  {-1.8663e-02,6.9442e-02,8.5301e-02,-7.8648e-02,-6.6249e-02},
		},
		{
		  {-7.6924e-02,-4.6079e-02,2.8641e-02,6.0033e-02,2.5636e-02},
		  {-1.3562e-01,-1.1712e-01,2.3489e-02,1.3338e-01,-6.0959e-02},
		  {8.5871e-03,-8.3786e-02,-9.5887e-02,3.4492e-02,8.0224e-03},
		  {8.2302e-02,-1.9283e-02,-1.8531e-02,-6.1474e-02,9.9177e-02},
		  {-5.0546e-02,4.5612e-02,-5.9923e-02,-2.4187e-02,7.0231e-02},
		},
		{
		  {1.9043e-02,6.2666e-02,-3.7616e-02,-9.0094e-02,-2.4167e-02},
		  {1.5675e-02,6.2158e-02,7.1360e-03,-3.7754e-03,5.2329e-03},
		  {2.4736e-02,-3.0331e-02,4.3508e-02,5.2025e-02,1.0122e-01},
		  {-5.7140e-02,-8.8518e-02,-3.0613e-02,3.0561e-02,5.0904e-02},
		  {-9.9282e-02,1.5452e-02,-6.4910e-02,3.6759e-02,-1.1610e-01},
		},
		{
		  {5.0333e-02,7.6396e-02,1.8205e-02,9.7825e-02,-6.0679e-02},
		  {-2.1640e-02,-3.5231e-02,1.0098e-01,-3.5573e-02,1.0266e-01},
		  {7.9873e-02,-6.4038e-02,-1.5472e-01,1.1614e-01,6.7667e-02},
		  {9.3587e-02,-1.4517e-02,-1.7311e-01,1.9098e-01,5.6754e-02},
		  {8.0621e-02,-8.7730e-02,2.9271e-02,1.9161e-01,4.2129e-02},
		},
		{
		  {4.0856e-02,2.8830e-02,2.7520e-02,-1.0042e-02,2.7438e-02},
		  {3.8055e-02,1.5717e-01,4.0647e-02,1.0493e-02,2.8788e-02},
		  {-5.9240e-02,-5.0135e-02,1.0877e-02,-1.4775e-02,5.4678e-03},
		  {-5.7918e-02,-2.9211e-02,-6.6187e-02,-5.1359e-02,1.6402e-02},
		  {1.1856e-01,4.9542e-02,-6.4889e-02,-7.5868e-02,-4.8813e-02},
		},
		{
		  {-4.6932e-02,-1.2095e-02,1.4564e-02,9.7750e-02,-5.5881e-02},
		  {-1.8023e-01,2.4376e-02,5.9799e-02,-5.3194e-02,3.9353e-02},
		  {1.3878e-01,6.9775e-02,-3.6646e-03,-3.1123e-02,-3.6183e-02},
		  {-2.7842e-03,-5.4415e-02,-1.6432e-02,8.2066e-02,-7.1527e-02},
		  {4.9073e-02,1.3562e-01,-1.2675e-02,4.6246e-02,1.2348e-02},
		},
		{
		  {-1.0765e-01,-1.6810e-03,-5.3786e-02,2.0760e-02,-3.6186e-02},
		  {-4.5479e-02,-4.7835e-02,-6.0947e-02,-1.8094e-01,9.2578e-03},
		  {-1.2838e-01,-1.2717e-01,-1.0171e-01,-1.1809e-01,-4.3330e-02},
		  {-7.6478e-02,8.3941e-02,-1.8002e-02,-2.4161e-01,1.1045e-01},
		  {-7.8956e-02,-7.6731e-02,-6.5938e-02,-6.1299e-02,7.1307e-02},
		},
		{
		  {5.8871e-02,-3.1978e-03,-2.5861e-02,-6.6459e-02,2.0774e-02},
		  {8.3660e-02,-2.3745e-02,-8.0592e-02,-6.7079e-02,4.3882e-02},
		  {-2.8127e-02,1.9338e-02,-2.4211e-02,-3.8421e-02,-7.8730e-02},
		  {-3.8462e-02,-4.3793e-02,-9.0098e-02,-5.5835e-02,1.3202e-02},
		  {2.7860e-02,-7.8704e-03,-1.3016e-03,-4.2089e-03,4.0141e-02},
		},
		{
		  {9.9590e-02,3.2546e-03,-2.7745e-02,-9.5031e-03,3.4402e-02},
		  {-5.8812e-02,6.7252e-02,1.7583e-02,4.7405e-02,-2.3586e-02},
		  {6.1129e-03,2.4171e-02,7.1759e-02,-7.0069e-02,-3.0472e-02},
		  {5.2696e-02,-4.3068e-02,-6.7311e-02,-6.5254e-02,-7.6645e-02},
		  {6.8702e-02,-3.6263e-02,3.0995e-02,2.2456e-02,7.4174e-02},
		},
		{
		  {1.0072e-01,-1.4310e-01,-5.8018e-02,-6.1123e-02,2.7621e-02},
		  {2.2505e-02,5.7096e-02,-1.0948e-01,-1.2071e-01,6.1610e-02},
		  {-1.3245e-01,-4.0505e-02,2.9388e-02,-3.1854e-03,-1.0484e-02},
		  {6.8306e-03,-5.7710e-02,-1.4089e-03,-8.3722e-02,-6.2027e-02},
		  {-1.0592e-01,-1.9464e-02,-8.7081e-02,-2.1397e-02,-1.3298e-02},
		},
		{
		  {-1.1945e-01,-1.1313e-01,-1.7027e-02,3.7988e-02,6.9454e-02},
		  {-1.8514e-03,-1.4305e-01,-8.3241e-02,1.3633e-01,8.9626e-02},
		  {8.7740e-02,-1.5044e-01,-3.1769e-02,1.5238e-01,5.7429e-02},
		  {-9.7132e-02,-2.3291e-01,-1.2150e-01,6.9353e-02,-1.8366e-04},
		  {-1.2496e-01,-2.4910e-01,7.9814e-02,1.1475e-01,2.8972e-02},
		},
		{
		  {-1.0412e-01,-5.3099e-02,-1.9963e-03,-1.5204e-02,-8.2226e-02},
		  {-7.3523e-02,-1.3550e-01,1.0795e-01,-2.9504e-02,-6.9300e-02},
		  {-4.1232e-02,2.5853e-02,8.9066e-02,1.0341e-03,-6.2730e-02},
		  {-2.6945e-02,3.4379e-02,2.7157e-02,-4.2971e-02,-1.1107e-01},
		  {-4.2123e-04,2.3694e-02,3.0686e-02,3.1870e-03,7.6208e-02},
		},
		{
		  {-2.5300e-02,3.2184e-02,-1.2388e-01,-1.4254e-02,-1.4695e-01},
		  {-1.1423e-01,-4.3131e-02,4.3582e-02,-3.4308e-02,5.9590e-02},
		  {-2.7948e-02,9.8026e-02,-1.1024e-01,9.0598e-02,5.0672e-02},
		  {-7.6873e-02,-4.3037e-02,1.6938e-01,2.2961e-01,-8.6363e-02},
		  {-6.1801e-02,7.0187e-02,1.2266e-01,1.5916e-02,-5.8395e-02},
		},
		{
		  {7.1177e-02,4.6126e-02,-4.9784e-02,-4.0221e-02,-3.2175e-02},
		  {3.0238e-02,2.3385e-02,-4.3029e-02,-4.5132e-02,-9.9058e-02},
		  {4.4406e-02,-1.2589e-02,-9.1250e-02,-8.5143e-02,-3.6880e-03},
		  {-9.1736e-02,-4.8076e-02,-9.7464e-02,-1.4555e-01,-5.9094e-02},
		  {-7.7926e-02,-2.3642e-02,-1.1099e-02,-5.5710e-02,6.0815e-02},
		},
		{
		  {9.8935e-02,5.4877e-02,-3.4919e-02,-5.7309e-02,4.1844e-02},
		  {-1.1452e-01,-5.3205e-02,-7.2709e-03,1.5106e-01,1.4923e-01},
		  {-2.0686e-01,-1.5399e-01,1.5028e-02,1.0669e-01,2.4138e-02},
		  {-1.0939e-01,8.1535e-02,-2.7522e-02,-1.2394e-01,-1.2001e-01},
		  {6.6485e-02,5.7431e-02,2.4946e-02,-1.2775e-01,-1.3281e-01},
		},
		{
		  {3.4768e-02,3.9938e-02,5.0769e-02,-2.5116e-02,-2.5817e-02},
		  {-7.2024e-02,6.1574e-02,-2.1539e-02,9.4456e-02,5.2860e-02},
		  {1.7694e-01,1.3774e-01,6.8053e-02,1.4887e-01,6.7148e-02},
		  {-5.8247e-03,-1.1251e-01,-1.3470e-01,3.1051e-02,5.5910e-02},
		  {-1.5781e-01,-8.5704e-02,-5.3054e-02,1.3272e-01,2.3222e-02},
		}
	}
};
const DTYPE weights_F1[F1_ROWS][F1_COLS] = {
	{-0.0079624271, 0.040971797, -0.0137934173, -0.00350682484, -0.00817459822, 0.0155424159, -0.0113736056, -0.027839534, 0.0267631449, -0.0223635752, -0.0546004251, -0.0183662456, -0.0335136615, -0.00992943347, -0.00872796867, 0.0287289377, 0.0181043521, 0.0523452424, 0.041439686, 0.0115431519, -0.0455328226, 0.0178401917, 0.00549730239, 0.0347380154, -0.0257540457, 0.0214266405, 0.0705747679, 0.0788808465, 0.0615468994, -0.0512258559, 0.0148296328, -0.0418555737, 0.0392273553, 0.0291060396, 0.0381847396, -0.0539390519, -0.0586163662, -0.0666797757, -0.0506209992, 0.0454648584, -0.0271747056, -0.0983652547, 0.0192561112, -0.0842331275, -0.0148890112, 0.0467075706, -0.00866401661, -0.0279336553, 0.0309603997, 0.0317113921, 0.0116588334, 0.0381582454, 0.000710472639, -0.0126547962, -0.0269235242, 0.0708174855, 0.0650345758, 0.00504580326, 0.0444384143, 0.0500313863, 0.0397014245, -0.00285390299, -0.0505165681, -0.0628020316, 0.0174315814, 0.00727176666, 0.0369097739, 0.0204341505, 0.0203384534, -0.0354481563, 0.0220050588, -0.0116615957, 0.0494897328, -0.0572165921, 0.0151809063, -0.0630814061, -0.0822374374, -0.0117805423, -0.0160459764, -0.0215054434, 0.00178583025, 0.00262085581, -0.0134259528, 0.0668792948, 0.0357709043, 0.0214046594, 0.031716276, 0.0223589186, 0.0357907265, 0.0378984921, 0.0256782789, 0.0181317534, -0.0514778979, -0.0771536082, -0.0168319196, 0.0116739944, 0.0127928611, -0.0604161173, 0.00266688084, -0.0210970584, -0.0391425081, 0.106884569, 0.0671720058, 0.0280777812, -0.026335597, 0.00367483776, -0.00726716407, 0.00997280143, 0.0108583095, -0.0662774742, 0.00991043914, 0.0051714927, -0.0855916366, -0.09456563, -0.0128505947, -0.0155652454, -0.00373821775, 0.0353579521, 0.0386467054, 0.0491491072, 0.0608708337, 0.000517333043, -0.0123179099, -0.0177738704, -0.0175478235, 0.00986596104, -0.00495973323, 0.0675093234, 0.0477842242, 0.0613250285, 0.0393266603, 0.0498392992, 0.0178136844, -0.0505701602, -0.0352887437, 0.0330974422, 0.0516172089, -0.0502623506, -0.0929260254, -0.0248950496, 0.0575014725, 0.00520142866, -0.00041346479, -0.00559634017, 0.0210824795, -0.0539069958, 0.00400240766, 0.0137038967, 0.037318062, 0.0414164104, -0.0406343155, -0.0413003862, 0.0996913835, 0.0109078903, 0.001351933, -0.0794308558, 0.00662954478, 0.0620759688, 0.0793983042, -0.00317182532, 0.0357950144, -0.00411157869, 0.0705944747, 0.0141165713, -0.00496337935, -0.0480053723, -0.0799648836, -0.0736631379, -0.0832677111, -0.0458492376, 0.0610592291, -0.0410727113, 0.0331306905, -0.064673163, 0.0124548813, -0.0129756695, 0.0422177427, -0.0124798063, -0.0153253879, 0.0173327401, 0.0490710288, -0.0151594486, 0.0107122594, 0.00196088362, -0.0243055373, -0.0279469267, -0.0168670919, -0.0421943143, -0.0325481705, 0.0449059419, 0.0115818456, -0.0219911467, -0.0436172076, -0.0483817719, 0.00320009585, -0.010864744, -0.0419595689, 0.0183662996, -0.0403433107, -0.0516014434, 0.0102549139, -0.00348395342, -0.0368071496, -0.00681935204, -0.0178790167, 0.0613313243, 0.0494600385, 0.0440627895, 0.0269688629, 0.013552011, -0.0455342308, -0.0266452581, -0.0453713723, -0.0352225043, -0.0812473595, 0.0340176821, -0.00921435654, 0.00816818886, -0.017777117, -0.0549114235, -0.00507066399, 0.0275916588, 0.0373032317, 0.065515928, -0.0243620947, -0.0281727444, -0.00969259348, -0.00480417069, 0.0681834966, 0.0585796535, 0.0382245518, 0.0453828573, -0.0172416475, 0.016908288, -0.017611742, -0.00612643454, 0.00256095058, -0.0784215629, -0.0718020871, -0.037597917, -0.0185832195, -0.0154191693, -0.0520474724, 0.00503744138, -0.059947975, -0.00404610392, 0.0387459733, 0.0793773234, 0.0521735884, 0.0158226099, 0.0184172038, -0.0842925683, -0.0252255276, -0.010295447, 0.0375801437, -0.00946225598, -0.0720709711, -0.00727253873, 0.0159278642, 0.0289335996, 0.0372809246, -0.0282370783, -0.0511003956, 0.0859173685, 0.0891927406, 0.0209279899, 0.0368514173, 0.00240095658, 0.0508060716, 0.00426130276, 0.0431193933, 0.00136573892, 0.0203236621, -0.0546334647, 0.0278089996, -0.0359299667, -0.0303811245, 0.00803163834, -0.0134036308, 0.0325170346, 0.0258476622, -0.0295377895, -0.000162769051, 0.0514068343, 0.0479825176, -0.00879805535, 0.0188868307, -0.025719665, 0.0314460546, -0.01096626, 0.045786649, -0.00891206414, -0.0218695942, 0.0615398511, -0.030123597, -0.0372364782, -0.012303194, -0.0849558562, -0.0555463582, -0.0851359963, 0.0114554893, -0.039076943, -0.0457688533, 0.0275259465, -0.0390811563, 0.00685897656, -0.0188740697, 0.049927678, 0.0416024514, 0.0490497686, 0.0668762997, 0.0744060054, -0.0795930773, -0.0362159573, 0.00348234293, 0.0189207662, 0.0113718249, 0.0314190015, -0.0150587847, -0.0454930775, 0.0370808579, -0.0382337384, -0.0297981389, -0.0356175639, -0.0491114035, -0.0427457169, -0.0068476866, 0.00991971605, 0.00930840615, 0.0119635779, 0.0174241308, 0.0603518076, 0.0124528613, 0.0516368076, 0.00238014827, 0.0540680401, 0.0109476689, -0.0142709622, -0.047866419, -0.0533704571, -0.0202780478, 0.0225333963, 0.00176339934, -0.00315923337, 0.0119135212, -0.0272284858, -0.0308871195, -0.0133675393, -0.00203600945, 0.00793193933, 0.0469850414, 0.0761788711, 0.00468283053, -0.0183351897, 0.0225657187, 0.0185855664, -0.0176234469, 0.0270515066, 0.0225431602, 0.0181231741, 0.0235950723, 0.0429105461, 0.0209299717, -0.040463727, -0.016370004, -0.0266369972, -0.0365948118, -0.0436989814, 0.0674876943, 0.0659026131, 0.028316021, 0.0276110899, 0.107713811, 0.058511883, -0.0394360907, 0.0209464803, 0.0869246274, 0.0823114216, 0.0286522415, -0.00373530434, 0.0266333278, -0.00606978545, -0.0363272019, -0.0337730348, -0.0501581207, 0.00620773761, -0.0519415736, -0.0907339603, -0.0351183787, 0.0604009368, -0.0449156798, -0.0302841272, 0.0120172687, 0.0651581213, 0.0549754053, 0.0278215613, 0.0204268023, 0.0507146642, 0.00770614995, -0.0104621919},
	{-0.00962780137, -0.025543239, -0.0421642251, -0.0149161434, 0.00237839413, -0.00315122213, -0.0349773951, -0.0327060744, 0.0120362369, -0.04598682, 0.045503445, -0.0159092564, -0.0286058802, -0.00544712925, 0.0446837023, -0.0198468436, -0.0383405425, -0.0261378754, -0.00851484295, 0.0495413505, 0.017569622, 0.00665497314, -0.0423325337, -0.0379297882, -0.0455463901, -0.0245070755, 0.0564568043, 0.00440139603, 0.0514575541, 0.0168240108, -0.0241894834, 0.0210035723, 0.0362946168, 0.0112384027, 0.0498161651, 0.0256462079, -0.030151682, 0.0563187487, 0.0096466504, -0.00832502265, -0.0427616946, 0.0189330932, -0.0546247996, -0.0287850741, -0.0319771394, -0.0159718189, 0.0222996101, 0.0156774148, 0.0257751066, -0.0188972577, 0.0301785711, -0.0237418264, -0.0127886096, -0.0233322512, 0.0136995548, -0.00688172644, 0.0370377898, 0.052882418, 0.0103415791, 0.0344394073, -0.00200891076, 0.0322781727, 0.0398966186, -0.0128891794, 0.02654038, -0.00405297056, -0.0194496755, -0.0202832259, -0.00120274886, 0.0417482257, -0.00290875905, 0.0432345383, 0.0430507362, -0.0387320258, -0.0463272668, 0.00414450001, -0.0328919552, -0.0100274701, 0.00363314501, -0.0324824676, 0.0164491851, -0.0393595509, -0.0158114024, 0.0283202361, 0.0428780131, 0.0059493822, 0.00390242971, -0.0231381208, 0.0152957523, 0.0442396998, -0.0273309276, 0.0287436601, -0.0353807509, -0.0302785356, 0.0165901594, -0.040183574, -0.0342448056, -0.0102618514, -0.0339442156, -0.0462932587, -0.0182877574, 0.0368522778, 0.0239824932, 0.00147851079, -0.0170618556, -0.0282096677, -0.0136648342, 0.0454938374, -0.016844105, -0.0358352028, -0.0132090366, -0.0324407779, 0.00386785064, 0.00703339325, -0.050260704, -0.0406314433, 0.0292629413, -0.0326838233, -0.0423475578, -0.00487395842, -0.0157847386, 0.0405999683, -0.0206500553, -0.0334493779, -6.53447714e-05, 0.0358078741, 0.0313438028, -0.0319498144, 0.0137307886, 0.0126370881, -0.0432003215, -0.00463019125, -0.0141966511, 0.00302258763, 0.0412901081, -0.0530253612, -0.0148870097, 0.0129917627, 0.0543696582, -0.0407888405, -0.0408294909, 0.0223055035, 0.0198804513, 0.0269604381, 0.00857948326, -0.0283026602, 0.0607482195, 0.031394653, -0.0266336482, 0.0457689315, 0.0389389507, -0.0411353745, 0.0412668288, 0.00812430494, -0.01654757, -0.0356806666, -0.0256775487, -0.0360854045, 0.0577290431, -0.025402369, 0.02778011, -0.0362743661, -0.0466410704, 0.0328590386, 0.0288786516, -0.0240293387, 0.00287811644, 0.027058417, 0.0308444668, 0.0290667415, -0.0353416167, 0.0339082778, -0.0268463735, -0.0126208877, -0.0217756238, -0.0452870354, -0.027145505, 0.0476159528, 0.0477249324, -0.0345146172, 0.0343773477, -0.0343691893, -0.0236316733, -0.0243683979, 0.0479079895, 0.0192152839, -0.0440908708, -0.0153745804, -0.0132206073, 0.0410944223, -0.00934500527, -0.0173809361, 0.0465512685, -0.00468668994, 0.0217535701, 0.0334780477, 0.0414007567, 0.014851735, -0.00513678044, -0.00705426792, -0.0126302633, -0.0117259398, 0.0127120037, 0.0505811311, -0.0104212752, -0.00151917804, -0.0428152941, -0.0449703746, 0.0181256756, 0.0476335026, -0.0413381457, -0.00445341133, 0.0179624893, 0.0110200411, 0.0320625976, 0.00738729397, 0.0335947648, -0.0230691303, 0.00804486405, -0.0268378053, -0.0497039035, 0.0419376045, -0.00724548986, 0.0371300466, -0.0469272807, 0.0361675657, -0.00994169805, -0.027282333, 0.0634978563, 0.0240587965, -0.0113564655, -0.0290531497, -0.0454321243, 0.044649221, 0.0278967209, -0.0460257903, 0.0042236601, -0.0102363694, -0.0132007701, -0.0073388759, 0.0424538702, 0.0322572254, -0.0129238125, -0.00161257992, -0.00694963383, 0.0396236181, 0.0370832644, 0.026904216, 0.0342662036, -0.0268586967, -0.0126025863, -0.0263337139, -0.0528808087, -0.00866803061, -0.0414923914, -0.0116931275, -0.0593920499, -0.0531608537, -0.0207249783, -0.0109559698, 0.0233330633, -0.0282241907, 0.00317551172, -0.0381714553, -0.00554085243, -0.0228888784, -0.0290204156, -0.0174663011, 0.00726408837, -0.0197662879, 0.0173448883, 0.00766878435, -0.0200981945, 0.00966726243, 0.00368854543, -0.0365381315, 0.0299194306, 0.0123189017, 0.0365245044, -0.000223323514, 0.0188243538, -0.0142951617, 0.0473820306, 0.0139808804, -0.0240742583, -0.0166375581, -0.0338656045, -0.0209005643, -0.0127225043, 0.0142321, 0.0344648026, -0.00455745775, -0.0270585828, 0.0494760573, -0.0220789015, 0.0411720872, 0.00516970921, -0.0213518627, 0.0302562937, -0.011885467, -0.0433817618, -0.0204404723, 0.0118574686, -0.00383005734, 0.0294086207, 0.0397632383, -0.00936344266, -0.0252291877, 0.0010211732, 0.0128600625, 0.0321647786, -0.0365841091, -0.0262125209, 0.00447838241, -0.0116780316, -0.0453450046, -0.0416784324, 0.00449513178, -0.00570462504, -0.0585498735, 0.00402969494, 0.0244589392, 0.0346368216, 0.0197214298, -0.0218912512, -0.028296629, 0.0222016536, -0.0218889527, -0.0365566388, -0.021507239, -0.0245340783, -0.0111691002, 0.00810737815, -0.0236458313, 0.00210904377, -0.010054742, -0.0113597084, -0.0202116724, -0.039661739, 0.0236077327, 0.0200569294, 0.00997232459, 0.00547083514, 0.0137401735, 0.0197555013, 0.0399173312, 0.0296517033, -0.013930087, 0.0342326351, 0.0372970141, -0.0346754119, -0.0300563332, 0.018921081, -0.0376810692, 0.0348783173, 4.4289005e-05, 0.0563877858, 0.0108942864, -0.0426423289, -0.0332311578, 0.00217675162, -0.0131410966, -0.0272475202, 0.0221997499, 0.00504471594, 0.0144871138, -0.0532421507, -0.0044742031, -0.0334349088, 0.0196817741, -0.023232704, -0.026684273, -0.0130261099, 0.0220426898, -0.0423128679, 0.00843226537, 0.0142537933, -0.0219091363, -0.0415353738, -0.0545968637, -0.0455339178, 0.0359383263, -0.0477770045, 0.0376438871, 0.00054138893, -0.0110651599, -0.0456204228, 0.00755226752, -0.037581265, 0.0346467793, 0.0321440734, -0.0120759383, 0.0523774847, 0.00844064075, -0.0173920915, 0.0383509994, 0.0608444139, 0.0362511128, -0.0384780243, -0.0500462875},
	{-0.0358039401, -0.0378200226, -0.00647384906, 0.0402009338, -0.00660030916, 0.0419104658, 0.00202713651, 0.041181352, -0.015655091, -0.043785546, 0.00397697231, 0.020875128, -0.0426419415, -0.0438681953, 0.0119923363, -0.0116459969, 0.0338226445, -0.0461595654, 0.0237445328, 0.0137896007, 0.00943178218, 0.0281695388, 0.0477932245, 0.0337439403, -0.0305293333, -0.0197838023, -0.00524037518, -0.00416008197, 0.0229769349, -0.0313450173, -0.00821580272, 0.0210082643, -0.0211340096, -0.00594622828, 0.0513627455, -0.0496838763, 0.016958192, 0.0573419891, -0.0275397915, 0.0153653873, -0.0303636733, 0.0302370507, 0.00945081282, -0.0138978753, -0.0316215642, -0.0231205374, -0.0764000937, 0.0196886547, 0.0350805596, -0.0110121146, -0.0205799397, -0.0071995086, -0.0287748706, -0.0260580964, 0.0119461268, -0.00323281554, -0.00584117137, 0.00825723261, 0.0118635613, -0.0110120932, 0.0318304263, -0.000805558695, 0.0506152362, 0.0426559523, 0.0417254642, -0.0292897094, -0.0396273658, -0.0242942087, 0.0172990318, -0.0251972452, 0.0240453091, -0.0452725962, -0.00419736048, -0.0312389396, -0.0492162481, -0.0436033867, -0.00202991394, -0.0402230658, -0.0206056107, 0.0200402103, 0.00912273768, 0.00368776917, -0.0360791534, 0.0118530169, -0.00390894758, -0.0210471079, 0.0114451842, 0.0180899203, 0.0017475863, 0.0272239558, 0.0174381863, -6.01874272e-05, -0.0191024691, -0.0344938189, -0.0287182387, 0.0253199246, 0.0138209993, 0.0654806942, 0.0276571047, 0.0174929462, 0.00477555301, -0.0400760025, -0.0444330387, -0.0100163054, 0.0196618717, 0.0206339322, 0.00282486412, 0.0187470336, 0.00987019669, -0.0017289985, -0.0455827713, 0.0535587445, 0.0633828416, -0.0075765471, 0.00363357109, -0.0447068401, -0.016999254, -0.054376673, -0.0569720119, -0.0101214629, 0.0010416765, -0.0378655717, -0.0784692168, -0.0276640616, -0.0485956222, -0.0286173858, 0.0447299778, -0.0164349992, 0.0681787208, -0.01733304, -0.0150840133, 0.0503578447, 0.00573901925, -0.0395668671, -0.0281256381, -0.0256015677, 0.0147883883, -0.0371300243, -0.0612940975, -0.0117596993, -0.0372526646, 0.0366544463, 0.0319501907, 0.0130544025, -0.0473514386, 0.0245080274, 0.0564584024, -0.0497025512, 0.0413576886, -0.0387569219, -0.0405520909, 0.0105962679, -0.0319968909, -0.0154373609, 0.0271080844, -0.0173720829, -0.0172102284, -0.00580341509, -0.0262586009, -0.0392044336, -0.0353691727, -0.0665031224, 0.0206900518, -0.0142726935, 0.00382672227, -0.0243091863, 0.0267150067, 0.0391292274, -0.0288295224, -0.014424637, 0.0604446158, 0.0344923511, 0.0138181904, -0.0219633877, -0.0431488492, 0.0421802737, -0.00411782227, 0.0396515913, 0.0192709379, 0.041694928, -0.0371941626, -0.0039183395, 0.0438729227, -0.0234197751, 0.0207286961, 0.0304693133, -0.0223279223, -0.0166673698, 0.0433215313, -0.0281413384, 0.0210509673, 0.00502465433, -0.0435845554, -0.0423368923, 0.0339143053, -0.0203668736, -0.0404378027, 0.0459812544, 0.000242059847, 0.00283135194, -0.00244942494, -0.0110313715, -0.00487001287, 0.0212527774, 0.00214012829, 0.0478119329, -0.0102522355, -0.031010421, 0.00454590376, 0.0276066493, 0.0191390943, 0.0494014397, -0.024957642, 0.0138171781, 0.0119635565, -0.0484197475, -0.035876561, 0.0435421206, -0.0547856577, -0.0681971237, 0.0283873156, 0.0242880732, 0.0242521912, -0.00307373679, -0.0579598583, -0.0192189198, -0.0334687904, 0.0170773789, 0.0392112285, 0.0596198738, -0.0326784216, -0.0643744171, -0.0590408742, 0.0516833179, 0.0625216067, -0.0167234968, 0.0175658669, 0.0061529628, 0.0588101298, 0.0109205786, 0.0456442498, 0.017613275, -0.0355480462, 0.00683435844, -0.000286651979, 0.0459524877, -0.0174127445, 0.0291461144, -0.0253351815, 0.0321381167, -0.0487822369, -0.0144479237, -0.0201000273, 0.00537411263, -0.0657406524, 0.0561642647, -0.0494676679, -0.0329333246, 0.0149208996, -0.0416221954, 0.0365683213, 0.044178579, 0.0105730258, 0.0345318317, 0.0364132077, -0.00956550613, -0.0260848273, 0.00473883841, 0.0592090338, 0.0291287154, -0.0316489935, 0.0430277511, 0.0820861384, 0.0010575559, -0.0427212715, 0.00725009572, -0.0195092671, 0.0114644412, -0.00658782059, 0.00147505233, 0.0340125561, -0.0302248783, -0.0299645644, 0.065114744, -0.0252581239, -0.00255997758, 0.000773560605, -0.0454294942, -0.0110471845, 0.00652031368, 0.0102008395, -0.0518706664, 0.0475594774, 0.0412939191, -0.0163054559, 0.00721758045, -0.0204700362, -0.00393807516, -0.0263964515, 0.00297415676, -0.0204346329, 0.0417771302, -0.0431077965, -0.0222374722, 0.0321452767, -0.033518251, -0.0678485334, -0.0782130435, -0.00316719431, 0.0201795045, -0.0265060142, -0.0466357023, 0.0672598258, -0.00217477442, 0.0425677523, 0.0371522754, -0.0232090019, 0.0869497359, -0.0113801965, -0.0475057475, 0.0102352649, 0.0613862798, -0.0198259708, 0.0123898722, 0.0323260315, -0.0160227306, -0.0371007621, -0.0287925862, -0.0227010362, -0.0390103273, 0.00258612027, 0.0169212949, 0.0013333984, -0.0452360325, 0.0251367111, -0.00183226028, 0.00176898367, 0.0361480452, -0.00985998847, -0.0347357243, -0.00526852859, -0.00811809115, 0.0194432065, 0.0190865528, 0.00242904061, 0.0333952419, 0.0131262178, -0.0289805122, 0.0550515391, 0.039958477, 0.0222003348, 0.00407583499, -0.0248251427, -0.0264419876, -0.0403075404, -0.0454780422, -0.0184515696, -0.000341835344, 0.0713312775, -0.0373537205, -0.0267481524, -0.0329995565, -0.02719892, 0.0348283388, 0.0240475312, -0.0317896865, 0.046091795, 0.0634238794, -0.0182495024, 0.0127413124, -0.0177107342, -0.0318086594, 0.0335034169, -0.0266732723, -0.0422935411, -0.0336586274, 0.0149722584, -0.0272106379, -0.0362102836, 0.0269336142, -0.0455802344, -0.0425040908, -0.0102480939, 0.0553962626, -0.0619233735, 0.0173174292, 0.0688988864, -0.0125753265, 0.0151884323, 0.0142109375, -0.0359663405, -0.0532024838, 0.0157962143, -0.00273279287, -0.0349970944, -0.0279689711, -0.0402992554, -0.0476596355, -0.0452346839, -0.0497379638},
	{-0.0269580465, -0.0064612627, 0.0383325219, -0.0458512194, -0.0406372622, 0.0185275041, -0.0120844748, -0.00257357862, 0.0216554198, 0.02891968, -0.0298932977, 0.038851779, 0.0238919389, 0.0050496771, 0.0500809252, 0.0594841465, -0.0165292602, -0.0319692083, -0.0421068519, 0.0356853791, -0.00206558825, 0.0143941138, -0.0160114318, 0.0244308934, 0.0157251097, 0.00752307056, -0.0267627947, 0.0327753723, -0.0335509665, 0.0221795216, 0.0298066437, 0.0280537121, -0.0107243862, -0.0360449068, -0.0516832247, 0.0331185237, 0.0649666414, 0.0504522063, 0.00172847568, -0.0498026982, -0.0175665636, -0.0158028118, -9.63539642e-05, -0.0115679335, -0.024335837, 0.060807135, -0.0262697954, 0.0186293647, 0.0619792826, -0.0229016691, 0.0357730426, -0.0356316008, -0.0182306077, 0.0450687893, 0.0435316637, 0.0195599776, 0.0385974273, 0.00535392901, 0.0367049538, 0.0708653629, 0.00144580554, 0.081606932, 0.0403798148, -0.0315372348, -0.0186049193, 0.0642575696, 0.0672514215, 0.0209621675, 0.0161370263, -0.0315498002, -0.0136179216, 0.0263781231, 0.00957071502, 0.00157619559, -0.00149934844, -0.0234205313, 0.0944464058, 0.134065866, 0.0253295451, 0.0133477021, 0.00317094917, 0.079440482, -0.0259971526, 0.0242554396, -0.0496414155, 0.0188444369, 0.0238359645, -0.0293953102, 0.0590197667, -0.0483144075, -0.00111953623, -0.0854080245, 0.0434093252, -0.0373643413, -9.23059019e-07, -0.0526930317, -0.0218925681, -0.0547013618, 0.0491613932, 0.0280409846, 0.00939374883, -0.0363712497, -0.122978657, -0.0840566903, 0.0724104643, -0.0723024011, -0.0333424583, -0.0599368401, 0.0455210656, 0.0778995305, -0.00354602979, 0.0593289733, 0.0556894802, -0.0234711748, -0.0195628256, 0.0563880168, 0.0139007084, 0.0403193645, 0.0369309857, 0.00980325788, 0.0202689227, -0.0223219674, -0.0186514761, -0.02832775, 0.017396586, -0.041383557, -0.084398821, -0.182576865, -0.0701219067, 0.0163668245, 0.0156656131, -0.0486513749, 0.00384626957, 0.0741309077, 0.0168340765, 0.00273058238, -0.019789489, -0.0461665317, -0.0509653725, -0.0380738415, 0.0105663249, 0.0304213446, -0.00149301614, -0.0218049604, -0.0232904851, 0.0250331499, 0.0459917299, -0.0196129214, 0.0605118871, 0.0249705557, -0.0131634297, 0.0776009336, 0.0417954661, 0.0442070365, 0.0296452921, 0.0179509856, 0.0974596217, -0.0568496212, -0.110846318, 0.0153592685, -0.00346678658, 0.0298940223, 0.00269551273, 0.0571863167, -0.0487232246, -0.0196486935, 0.031195201, 0.033259701, 0.0182731915, 0.0307566095, -0.0448868498, 0.011449079, 0.046991732, 0.0497433431, -0.0118158162, -0.0129452245, 0.0525639839, 0.0176451094, -0.00712167751, -0.0457191281, -0.00379576557, 0.015096629, 0.00159709703, 0.0236825719, -0.0187680162, -0.0010441324, -0.0149901947, -0.0383322686, 0.0269763991, 0.0155593632, 0.0276490189, 0.0446120463, -0.0415314287, 0.00565533666, 0.022101121, -0.00924426131, -0.0508787856, 0.0441175625, -0.0106740324, -0.0489449725, -0.0195785649, 0.0336900055, 0.00992094353, -0.0539735891, -0.0544464253, -0.0145726977, 0.0610612482, -0.0678995177, -0.123856626, -0.074100107, -0.00999320112, 0.0461890511, 0.0739793777, 0.0343768708, 0.0270004589, 0.0249901619, 0.037363559, 0.0211704224, -0.0497979671, -0.0160925239, 0.0226580184, 0.0194761045, 0.0103160525, -0.0276044644, 0.0585486628, 0.0401152857, 0.0580714867, 0.0199288037, -0.0624105595, -0.0594768859, 0.0334686823, 0.0519792214, 0.0870107412, 0.0142564122, -0.0352604426, -0.00160997617, 0.00668550236, 0.0695254579, -0.0680107847, 0.0279757809, 0.0583674684, 0.0731116384, -0.0026522479, 0.0263513941, 0.0177663174, 0.0194030628, 0.0239028279, 0.000136607341, 0.00697141699, -0.0502903797, 0.0334893651, -0.0401129648, 0.0612448379, -0.00500185881, 0.132396355, 0.00654160511, 0.10295248, 0.0988762453, 0.0743092671, 0.0483820476, -0.0315932967, 0.0710312724, 0.0260324199, 0.039425429, -0.0102536995, -0.0852637887, -0.0349360593, 0.0275020525, 0.01911439, -0.0034932557, -0.0800396949, -0.032960061, -0.0623914078, 0.0104055051, -0.033578258, -0.021644149, 0.0529475249, 0.0691504702, 0.0207994785, 0.0691102073, -0.0156845469, 0.0708514079, 0.150959894, 0.0186200999, -0.0779654607, -0.0199028943, 0.0519365966, 0.0541295297, -0.0754250288, -0.0366660841, -0.00831341092, -0.0358363502, -0.0234323852, 0.0248476528, -0.0290036015, -0.0478469804, 0.0408710428, 0.0565486401, 0.0592852943, -0.0230798367, 0.0612202697, -0.0169802215, 0.052887097, 0.038356699, 0.0219480619, -0.0306176059, 0.0961635634, 0.0554988272, -0.0867842436, -0.0398616008, 0.0103027038, 0.0556507222, -0.0263192486, -0.0487932898, -0.0255239606, 0.0269425288, -0.0194965415, 0.0123457089, -0.0285645202, 0.0149710169, -0.0319972858, -0.00578656979, 0.069737792, 0.0581058301, 0.0572254993, -0.0406608582, 0.0229153913, -0.032362815, -0.0142953712, 0.0363326035, -0.0627648234, -0.0265781805, 0.0629484132, 0.0450537018, 0.0147672407, -0.0466880463, -0.00514901895, -0.00329968426, 0.0468487814, 0.0204124209, 0.0135174347, 0.0482456684, 0.0247685164, -0.0134840002, -0.039452564, 0.0145334285, 0.0721949264, 0.0262466073, 0.0326063223, 0.021158427, 0.025737226, 0.0151816225, -0.0217650495, 0.0839872211, 0.0521910153, 0.0104835667, -0.0800932571, -0.0937286243, 0.0357970484, 0.0855072513, 0.0312649086, 0.039338205, 0.0376228243, -0.0399946049, -0.0582367517, -0.00883293524, 0.00551926577, 0.0384124592, 0.0240848325, -0.0403606556, 0.0442685522, -0.0395038649, 0.0776809454, 0.0629513189, -0.0376066491, -0.0184796304, -0.0793273374, -0.0959627405, 0.00885473005, 0.0983112603, 0.0229567755, -0.00417589024, -0.00930889882, 0.0395916067, 0.0401485413, 0.0792242959, -0.0273795724, -0.018491229, -0.0064546885, -0.0329189636, 0.0752158538, -0.0444204099, 0.0172883924, -0.0271451045, 0.000437696959, -0.024687089, -0.0654130727, -0.00166702981, -0.0498585105, -0.0233759563},
	{0.00572255719, -0.0035382947, 0.0298085324, -0.0499895886, -0.0468125157, 0.0576970726, 0.0400177985, -0.0292789023, 0.0268577803, 0.0209681671, -0.0572094023, 0.0147372372, -0.0244327448, -0.00419411389, -0.0465346985, -0.011262577, -0.0225610826, 0.024899561, 0.0123542063, 0.0255308766, 0.0230793897, -0.0324021727, -0.0317392461, -0.00113589771, 0.0238653477, 0.0302808024, -0.00366183277, 0.00235745101, 0.044214841, 0.0264822897, 0.038302768, -0.00657823635, 0.0202615578, -0.0702244788, 0.0326521471, 0.0359716229, 0.0889003649, 0.0532975793, 0.0162330139, -0.0473052673, -0.0568073429, -0.0785509422, 0.0436208136, 0.0616824329, 0.0485616215, 0.075983189, 0.00755973533, -0.0170996822, -0.0228471067, 0.00821011234, 0.0035882392, 0.0277079493, -0.0229081158, 0.0324354097, -0.0191824492, -0.0160283074, -0.0419644937, -0.0257008821, 0.00365738687, 0.0166678727, 0.0178894959, -0.0135214888, -0.0196210407, -0.0402583815, -0.00626715366, -0.00922890566, 0.0275964513, 0.0361645482, 0.0261215568, 0.0457598455, -0.00953043252, 0.029819848, 0.0442081876, 0.0709112436, -0.00727789011, 0.0465082563, 0.0392308645, -0.0132535528, 0.0133165009, -0.0276137963, -0.0143844625, -0.0082001742, 0.00255587604, 0.0108201401, -0.0118802255, -0.0385669917, -0.0131998211, 0.0543934032, -0.03885765, -0.0679088458, 0.0707171038, -0.0475633666, 0.0123810563, 0.0245254915, -0.0237147007, -0.0429954268, -0.0272739157, -0.0497151278, 0.0526054837, 0.0448399968, -0.0569981933, -0.0179133974, -0.012375894, -0.00928975642, 0.0421397015, 0.0379919708, -0.0130288918, -0.0218308084, -0.0236296058, -0.029598875, 0.0315774269, 0.0582290776, 0.0151951183, 0.0291294288, -0.00936090853, -0.0219099578, -0.0282600746, -0.00217154226, 0.00479285931, 0.0381176397, 0.029037416, 0.0763723776, -0.00932822935, 0.0567305125, 0.00461081788, 0.014443771, -0.0193783864, -0.028525332, 0.00420394586, -0.0238902066, -0.0166162606, -0.000430660235, -0.0333880261, -0.0184452776, 0.0401815362, -0.025702903, 0.0448638424, -0.0218146853, -0.00757952128, -0.0179991722, 0.0585140251, 0.0100359675, -0.0157283861, -0.000886672875, -0.000296379236, -0.0470495038, -0.0586216487, 0.00316519733, -0.00384525955, 0.0529200733, 0.0169668682, 0.0490735136, -0.0633327365, 0.0248769931, -0.0214614905, -0.0517214723, 0.038128458, 0.000941911887, -0.0844629109, -0.0117002185, -0.0429780185, 0.0278992448, -0.0344804265, -0.0319584571, 0.00287998538, -0.0742256716, 0.00272948015, -0.0547926724, 0.00383064034, -0.0187220927, 0.0226601791, -0.011537319, 0.0397195891, 0.00354521116, -0.0146461409, -0.00894357078, -0.0449472442, -0.020699963, 0.00269496534, -0.0402262695, -0.0087709548, -0.032913886, 0.0222075377, 0.00606444571, -0.0398324244, -0.0409649611, 0.0358867459, -0.00796556938, 0.0222514365, 0.00309262308, -0.0441343226, 0.00232190406, 0.0472607352, -0.00621407665, -0.0229186527, 0.0461239032, 0.0308035146, 0.0135975154, 0.0198004544, -0.0324438736, 0.0309897345, -0.0379194207, 0.018155776, 0.00928935595, 0.0568207502, -0.0476491898, 0.0474570692, 0.000391392823, -0.00643333141, -0.0274205357, -0.00954599585, -0.00510046212, -0.0188625548, 0.0306577049, -0.00774165848, -0.0401656888, -0.0330915302, -0.00518655824, 0.0323443413, 0.0408479385, 0.0199539922, 0.0453526191, -0.0823808536, -0.00141852978, 0.0317216031, -0.0208832975, -0.0532524772, -0.000744080869, -0.0232499633, 0.0205957387, -0.00935271382, -0.0777496919, -0.0157970004, -0.0205355249, -0.0163185149, -0.0189503152, 0.0603509508, 0.0562279932, 0.0564093553, 0.0511437617, -0.0129118217, -0.0385909788, 0.014724792, 0.0087911021, 0.0746432021, 0.0313254669, -0.0228834115, -0.0249551404, -0.0193720236, -0.0444586873, 0.0437834859, 0.0310752112, 0.0240748152, -0.0566922538, -0.0216644667, 0.0334445834, -0.0715117678, -0.0428192168, 0.0474316813, -0.0104090525, -0.0220356621, -0.0237915758, 0.00839566626, 0.0321439616, 0.0184018817, 0.00660846801, -0.0184060149, 0.0444216058, 0.00638480531, -0.0259103831, 0.0122686848, 0.0162021425, 0.0205732286, -0.00401871977, -0.0104270009, 0.0362447836, 0.0107818609, 0.0459207408, 0.0204668287, 0.00123988022, -0.0510522984, -0.0529972464, -0.0385759361, 0.0393136069, 0.0212841071, -0.052072376, -0.00439483719, -0.00969060697, 0.04245428, 0.0162354596, -0.0490123294, 0.00436873874, -0.0232424773, 0.0116566801, -0.0370125324, -0.0249532238, 0.00277664559, 0.0295269638, 0.0325896144, 0.0527810939, -0.0199465547, -0.0117963869, 0.069613196, 0.0661698356, -0.0354875401, -0.0153344003, 0.0174696241, -0.0644753873, 0.00416003354, 0.000526734453, -0.0678450912, 0.0518488064, 0.0163249373, 0.000918182952, 0.0171076637, -0.021923393, 0.0108937677, -0.0284993909, -0.0276370272, -0.0362939462, -0.0382730998, -0.0449400544, -0.00187394477, 0.000463271106, 0.0465480164, 0.0407525264, -0.0333758853, 0.000948128931, -0.0418691523, 0.026156988, -0.02118586, -0.0628369674, 0.0221300665, -0.0133142481, 0.0288666356, -0.0109063648, 0.0208518188, 0.0420646854, 0.0321201161, 0.0202850439, 0.0337117016, -0.023499703, -0.00270072999, -0.0539886467, -0.0210794248, 0.0442396626, -0.00608354155, -0.0429947712, -0.0576024838, 0.0325970612, -0.0414001681, 0.0222484153, 0.0344259255, 0.0131061384, 0.0341751836, 0.0427489318, -0.0183674153, -0.0925953835, -0.0541589335, 0.0256002359, 0.0215012264, -0.00104347186, 0.000392456248, 0.0310649015, -0.0918718055, -0.0533662662, 0.0468782783, 0.0122381225, -0.0201729406, -0.0419350825, 0.0803521872, 0.042660512, 0.00880048051, -0.0198047794, 0.0438644961, -0.0185261816, -0.0161806848, -0.0813252851, -0.0551497228, -0.0237117205, 0.0187141653, -0.0372317173, 0.0355593562, 0.0390327983, -0.0587266535, 0.00239881105, 0.013202861, -0.00678473432, -0.0427006595, 0.0207072273, 0.0383677408, 0.0200318787, 0.0459187739, 0.055925969, 0.00597283384, 0.0291727949, 0.0428212322, -0.0182059724, -0.0259916931, 0.00926683657},
	{0.00939710531, -0.0637367889, 0.0251739062, -0.0339456089, -0.00193048222, 0.0437432788, 0.049248483, -0.0346346051, -0.0149282133, -0.0212282259, 0.0500072241, -0.00496772584, 0.0392525904, -0.00819834229, -0.0526723377, 0.00557013648, -0.0277227275, -0.00621970091, -0.0447410122, -0.0287672505, -0.0731318071, -0.0880934969, 0.00509538874, 0.065926671, 0.00602952996, 0.00562442373, -0.0752277151, -0.0640961528, -0.0538588203, 0.00647910731, -0.0978084728, -0.0728958026, -0.0415872745, -0.0411793999, 0.023843674, 0.0531120971, 0.191939428, 0.0895849243, -0.0370139256, -0.00812777225, 0.0275737811, 0.102128617, 0.0415032171, -0.021517124, 0.00260826666, 0.0577952713, -0.0343578756, -0.0567779839, -0.0447384417, 0.0391655304, -0.0177101027, -0.0151974997, -0.00976893492, -0.0813644752, 0.0332721546, -0.00588890212, -0.0269958116, -0.0117282728, -0.0232480932, 0.00615453767, -0.0428841412, -0.0876182467, 0.0962974951, 0.0997277945, -0.0202743448, -0.0295984298, 0.0402591117, 0.0607001856, -0.0443632789, -0.0468442515, -0.0638825297, 0.0104097612, -0.0308036171, -0.0518363304, -0.0100517729, 0.0456455313, -0.0721296743, 0.00741541246, -0.0654062331, -0.000761731644, 0.00711985817, 0.0152926138, -0.0206990745, 0.00081845402, 0.0335081182, 0.0269441791, 0.0243246332, 0.030543467, -0.0375064835, -0.0300506242, -0.0120112188, -0.0749040544, -0.0390155427, 0.0649324656, 0.00556977559, -0.0328264907, 0.031377878, 0.0564072393, -0.00580199575, -0.0385109521, -0.0166585445, -0.0153807653, -0.0614084415, -0.0118554439, -0.0201315749, -0.0609882064, -0.0381970331, -0.00504495716, 0.01874182, 0.00415944681, -0.0595003292, 0.07016927, 0.109700285, -0.0560211688, -0.123358808, 0.0618479811, 0.0488632172, 0.0188415386, -0.037607424, -0.128658071, 0.0706520826, 0.0115473811, -0.0300019104, -0.0191952158, -0.0211239532, -0.022144679, 0.101470768, 0.139052212, 0.00611011405, -0.0740615427, -0.040589802, -0.0116175227, -0.00776356924, -0.00975988433, 0.0314197466, -0.0924710408, -0.105907634, -0.0583104938, -0.0195758548, -0.0236683618, -0.0281657372, -0.083053045, -0.081770651, 0.0427315161, -0.0426181182, 0.0463093594, 0.0911324397, 0.10954424, 0.00337211229, -0.0244442411, 0.00999821164, 0.0585830137, -0.000938935613, -0.0768366084, -0.0565671772, -0.0223367009, -0.0801083595, -0.012283748, 0.0734079778, -0.0158837121, -0.0513755344, -0.0423494279, -0.0387482494, -0.0569693707, -0.00565747079, -0.0108724497, -0.0438435487, 0.104491487, 0.0420970358, 0.0198279023, -0.019943662, 0.000956415432, -0.0300411023, 0.106515467, -0.0200018808, 0.000103010003, -0.00726719899, -0.00943525787, -0.00772469817, 0.0382877886, 0.0124145187, -0.0397075191, 0.0250380319, 0.0125828683, -0.0309845358, -0.028076211, 0.0363898799, -0.0304910578, 0.0405894928, 0.044274468, -0.00957958493, 0.00670210645, 0.0288918801, -0.0151369441, 0.070446521, 0.0556630902, 0.0397526063, -0.0173156019, -0.0253994185, 0.0129444096, -0.0223805681, 0.0273948014, -0.0189036038, 0.0157755464, -0.0111465631, -0.0481196865, -0.0689357445, 0.0381810516, 0.00765696587, 0.0658023357, -0.0419568159, 0.0638219267, -0.0134828463, 0.0185591951, 0.0563698374, 0.0488995314, 0.0361567773, 0.0053434209, -0.00655566342, -0.0356507935, -0.0120441467, 0.00974590424, -0.0491888374, -0.0596049316, 0.0282002091, -0.0556336381, -0.036346931, 0.0292480271, 0.0837004483, 0.0186172761, -0.00930201635, -0.202734903, -0.12222103, 0.0301646851, -0.00576040242, 0.0240562595, 0.0754773691, -0.0162977669, 0.0468982607, 0.0418944843, 0.0704907924, 0.0323956311, 0.0140788238, -0.0512704812, -0.0835850909, 0.0451055281, 0.026047539, -0.0602209717, -0.0299241915, 0.0250462387, 0.0359846652, -0.0472494848, 0.0151679032, -0.0234003235, -0.108217493, 0.0395273715, -0.0991479605, -0.0781760812, -0.0431618877, -0.103516228, -0.0619417839, -0.0100213466, -0.089072004, -0.0990891829, -0.0455468297, -0.0555891171, -0.00714268861, 0.0345722772, 0.029647192, -0.0489338748, -0.040104486, 0.0774949715, 0.0356497578, 0.0531567633, 0.0531660393, 0.0114426576, 0.014755344, 0.0304012131, 0.0323092863, -0.0226713885, 0.0317431763, -0.0105729578, -0.0192838125, 0.0909672901, -0.00770311151, 0.00886381418, -0.142411232, -0.0277262628, 0.0253981054, 0.0761262849, -0.0353006124, -0.0993163809, 0.025159264, 0.00184284581, 0.0200547017, 0.011241395, -0.0561749078, 0.0178260487, -0.0792108625, 0.00660931831, -0.0141187562, 0.101838127, 0.00874964241, -0.071461603, -0.0427667275, 0.0779570192, -0.116454497, -0.0358708985, 0.054234378, -0.0448536165, -0.0177043602, -0.19578138, 0.0653900728, -0.00433561765, 0.0799175501, -0.0386331268, -0.00400405051, 0.0436851643, -0.012415858, -0.0834151879, -0.0337630473, 0.0636974797, 0.0280197542, -0.0271787029, 0.00172376726, -0.0182666574, -0.0296815187, -0.00863880944, -0.0533837266, -0.0264665894, 0.00589591032, 0.0303820521, -0.0770604834, -0.0230792668, 0.0232108161, -0.0404648148, -0.0236325487, -0.00210270449, 0.0443950184, 0.0101937279, -0.050762929, -0.0158549268, 0.0319478437, -0.0367046818, 0.0365198627, 0.0727116168, 0.086760506, -0.0433600321, -0.0512360074, -0.0251223501, -0.0507928692, 0.037965972, 0.105179816, -0.0190322343, -0.0397630408, -0.0373017266, 0.0389125459, -0.0737154186, 0.0539125912, -0.0826500729, 0.0566095039, -0.0628342777, -0.0674404725, 0.177901953, 0.021918973, 0.00425854651, 0.0192183163, -0.00535463216, -0.0558088049, -0.103161514, 0.0297403038, -0.00449904893, 0.0237236805, 0.0294943247, -0.0249394327, -0.031086931, 0.145520434, -0.00838912092, -0.0816495344, 0.00895985588, -0.0772826076, -0.0103102736, 0.0998489037, 0.0511646494, -0.0246922374, -0.0980204716, 0.182029814, 0.128897697, -0.116558291, -0.074075371, 0.0259853527, -0.0212311447, -0.00982551556, -0.00558783952, -0.106791198, 0.00171083852, -0.00101309118, 0.0304390565, 0.0540092587, 0.0322790779},
	{-0.0333050862, 0.00140487915, -0.00841644872, 0.0453099497, 0.0120848408, -0.0566132404, -0.00710050017, -0.0283555314, -0.0062129302, 0.00673133275, 0.0420443639, 0.00268066954, 0.0362889767, 0.0262064748, 0.00338368025, 0.0483833998, 0.0115934405, 0.0180373341, 0.0197238252, 0.0272062384, -0.0490372293, 0.0359764472, 0.0230812673, -0.0398540571, 0.041836489, 0.0540324152, 0.0403101072, 0.0239479281, 0.0115875127, 0.00517552858, 0.0198358893, -0.0317057595, -0.00621157559, 0.0484037846, -0.00880234595, -0.00228010863, 0.0096981423, -0.00659974571, 0.0345948189, -0.0328215733, 0.0490115322, -0.00949689373, -0.033844687, -0.0551399626, 0.0124461725, -0.0860607997, 0.00805397797, -0.0457494184, 0.0111763561, 0.0479800291, 0.0383212529, 0.057288304, -0.0214770772, 0.0141282799, 0.0115835499, -0.0123106288, 0.00516332639, -0.0520327017, 0.0465952717, 0.00447466923, 0.0275539719, -0.000636927842, -0.038622357, -0.0262304414, -0.0123373261, -0.0288443081, -0.0421863496, 0.0294409096, -0.00346903456, 0.0364984162, -0.0186531078, -0.0689969435, 0.016528612, -0.0598868094, -0.0212339349, -0.0166544858, -0.0800189525, -0.0800211951, -0.0302571934, -0.045427613, -0.0336525962, 0.011402932, -0.0105109708, -0.0166778155, -0.00362510933, 0.0488601997, 0.041556403, 0.0240562093, 0.030013483, 0.00575105008, -0.0313375294, 0.0258775577, 0.0201149248, -0.00217179465, 0.0344724022, 0.0170100145, 0.0356148705, 0.0182769261, -0.00306747272, -0.0232903194, 0.0207430683, 0.0219533239, -0.014807214, 0.048215609, 0.018372247, -0.00649446435, 0.0686365291, 0.0167812183, -0.0087716775, -0.0472553745, 0.00466190511, -0.0124839535, -0.0789465085, 0.0289281067, 0.0173859894, -0.00302821328, -0.020487465, 0.0432276428, 0.0436967388, -0.0249404386, -0.0259417202, -0.0970094502, -0.0812528804, -0.0365849882, -0.0479797944, 0.0450150818, 0.00629104301, 0.0163074993, 0.0421149656, 0.0189515743, 0.0290322322, 0.0534471944, 0.0161660146, -0.0282978378, 0.021709064, -0.0516770631, -0.0265311878, 0.0472392812, -0.0266518109, 0.0437979698, 0.0173118748, -0.00739015359, 0.0138334557, 0.0516982712, -0.0388194472, -0.0367153287, -0.031359978, -0.0197149273, -0.0815538168, -0.040024288, 0.0155046545, -0.0152809694, 0.0470531806, -0.0495334826, -0.0197692551, -0.00768536841, -0.0510423966, 0.0105898157, 0.0484147631, -0.0355399847, 0.0587829724, -0.0362152904, 0.0618563294, 0.0475939699, -0.0505989641, 0.0516789705, 0.00469188578, 0.0495842434, 0.00803550147, -0.017558746, 0.0577796102, 0.0807189643, 0.0169030093, -0.0281306561, 0.0388785675, 0.0117185488, -0.0178739093, 0.0447421893, -0.0401209742, 0.0251578297, -0.0418152027, -0.0383876152, 0.0143804895, 0.0378568321, 0.00955398474, 0.0493491031, 0.0390884504, -0.0450178981, 0.0132066207, 0.0143085327, 0.0233376697, 0.0433345735, -0.0224722046, 0.00671746535, -0.040956717, -0.0253779572, 0.0184557158, -0.00724088447, 0.0389077663, -0.0254226457, -0.0282883924, 0.0165336821, 0.00260812789, -0.00953229796, -0.0460966416, 0.0594229288, 0.0242321063, 0.00780371623, 0.0308384579, 0.0608980283, 0.0262488518, 0.0494166501, -0.0343079083, 0.0103585077, -0.0274240728, -0.020541789, -0.0677058175, 0.0500286296, -0.00956313405, -0.0197636709, 0.0137029793, -0.0301577393, 0.0557535701, -0.028107889, -0.0407125987, -0.0329625756, -0.0320236534, -0.00539721269, -0.0110733425, 0.0175913405, 0.0164648369, 0.020977769, 0.0464405455, 0.0666428283, 0.0883269608, -0.0371187702, -0.0478651598, -0.0432501212, -0.00657121697, 0.0533330105, 0.0306242928, 0.0166900363, 0.0108104665, -0.0832275823, 0.00159547734, 0.0160017014, -0.0352587961, 0.0286919829, -0.00841143727, -0.0226527285, 0.0267665777, -0.0309233312, 0.0337599888, -0.0583399981, -0.0754071772, 0.044475466, -0.0165652744, -0.0580506511, -0.00366040575, -0.0214540046, 0.0256351996, -0.00500859134, -0.0185213108, 0.0412312597, -0.0123844109, 0.0205083452, 0.00342375366, 0.0388157032, 0.0683123395, -0.0404909402, -0.0281503238, 0.060949441, 0.0840237141, 0.0674167424, -0.000997797702, -0.0132297715, 0.0153662553, -0.00977054518, -0.0595232062, -0.0280615818, 0.0217464287, -0.0540043749, -0.0261185821, 0.0338774882, -0.0206091329, 0.0268757008, 0.0302463137, 0.00487000821, 0.05333177, 0.0488194413, -0.00301553681, -0.03050703, -0.00338826794, -0.000810919446, 0.00708217546, -0.0357360952, 0.044929266, 0.0501001365, 0.0337892026, -0.0310055111, -0.0354888625, 0.0619258732, -0.0423286147, -0.0393935032, 0.0160185676, -0.0521712229, -0.0369761251, -0.0130120404, 0.0383107178, 0.0593243949, 0.0200879909, -0.00221647648, 0.0194417927, 0.00406252686, 0.0215058289, -0.0389788598, -0.0257051568, 0.027348578, -0.0155755198, 0.0305267423, -0.0156500135, 0.0767684504, 0.0327462628, -0.0146933692, -0.045616854, 0.0275738444, 0.00719461357, 0.0191122852, 0.0337958336, -0.0223915018, 0.0109060621, 0.039469298, -0.00243212492, 0.0204053484, 0.0354999565, -0.021805713, -0.0439987145, 0.03145466, -0.000710127584, 0.0342349559, 0.0198664144, -0.00169268297, -0.0352939591, -0.0378204174, 0.0132429171, 0.0160884578, 0.0344121903, -0.0292852819, 0.0251022708, 0.0127824107, -0.0075610918, -0.00203314563, 0.0166099556, -0.0554361269, -0.0479273684, 0.0587932095, 0.0657186955, 0.0321320705, -0.0293567125, -0.032803569, -0.00585504761, -0.0481712446, -0.0323241316, 0.0551786274, 0.00359691493, -0.00140961143, -0.0540526956, 0.0659874156, 0.0556315854, -0.0161011294, -0.0220600627, 0.0336410329, 0.0100000491, -0.000641522347, -0.0278862938, 0.0270496011, 0.0405763537, 0.020501798, 0.0374410264, -0.0754640326, -0.0274997484, 0.0220830198, -0.0198702943, 0.0325405113, -0.00111119123, -0.0318686292, -0.0312806703, 0.0069075278, 0.00327761308, 0.0234523714, -0.0178677235, 0.0178608429, -0.0324458368, 0.0237939227, -0.0190273505, -0.0343606845, -0.0606443211, -0.0497029833, -0.0314413644, -0.0415543653},
	{-0.0163381137, 0.0452331305, -0.0355396979, 0.0376407839, -0.0216881335, -0.0450640172, 0.04632416, 0.0100959036, 0.0201147236, -0.00500898156, -0.0310092568, 0.0139213325, -0.0480984412, -0.000305591064, 0.00980545674, -0.0312549397, 0.0335585997, -0.0126255518, 0.0221950449, -0.0483899564, 0.0117597319, -0.00431788759, -0.0116109084, 0.0216534454, -0.0341143385, -0.015732348, 0.0288371816, -0.022981843, 0.0428885818, 0.0360581093, -0.0401991755, -0.00625114003, -0.0110867238, 0.047886353, -0.0184396058, -0.0370585471, 0.0361988097, -0.0364335068, -0.0386093035, 0.0247029308, 0.0464199968, 0.0487700775, 0.0268637706, 0.0200920757, 0.0248453673, 0.0264601186, 0.0478759259, 0.0526052341, 0.0634777024, -0.00120128901, -0.00965342857, -0.00383178471, -0.0523218028, 0.0311103165, -0.0580885559, -0.00459354557, -0.0600988641, -0.0357705466, -0.0038349391, 0.00737863034, 0.0428643934, 0.0290455297, -0.0301886685, 0.0213433448, -0.0492153578, 0.0226701275, 0.0344665535, 0.063331008, 0.0649365857, -0.00125968596, 0.0473948605, -0.00862491131, 0.0370490663, -0.014104004, 0.0535990559, 0.0259192046, -0.00134456856, 0.0478883646, 0.0360777751, -0.0296443738, -0.0142797567, -0.0770689324, -0.0197015163, 0.0208692104, 0.0132730948, -0.0404104963, -0.0348828696, -0.0418027043, -0.0551651791, 4.34633257e-05, 0.0628429949, -0.0454611741, -0.0310023632, -0.0511606, 0.00328220893, -0.0306431185, -0.0575387925, -0.0522624962, -0.035042759, -0.0215412416, 0.0329589136, -0.0433966741, -0.00215350976, -0.0323487073, -0.00847742055, -0.0308243334, -0.0261740331, -0.0272419639, 0.0193149615, 0.00627496187, -0.00179392763, 0.0473164283, 0.0967365056, -0.0474804081, -0.00314478297, -0.00585087622, 0.0535214767, 0.0369129144, 0.115827315, 0.0636449233, 0.0306719393, 0.0310930479, -0.0688875392, 0.0186014567, -0.02468214, -0.00331624411, -0.0713355169, -0.000332851574, 0.0193879288, -0.0500984229, -0.061393667, 0.0552495718, 0.0533866771, -0.0844414979, -0.0639531538, 0.108379878, 0.121219538, 0.0366751701, -0.0382293463, 0.0245245788, 0.0691956729, -0.00062552985, -0.0121899797, -0.0371917933, -0.0379290469, -0.038661208, -0.0728098974, -0.0152104096, -0.00947380438, -0.00669864425, -0.064247936, -0.02299501, 0.0394011326, -0.0275681186, 0.0479768179, 0.004839906, -0.0399510823, 0.04176208, 0.00642971741, -0.0311691146, 0.0300897546, -0.0275873803, -0.004048476, -0.0349426679, 0.0370642506, -0.0680447221, -0.0788158327, -0.027030088, 0.0337503441, -0.0315208435, 0.0314009562, -0.0751773566, 0.0272057448, 0.0300077014, 0.0343331434, -0.0436851606, 0.0362273715, -0.0142443255, 0.0425598137, -0.00981572922, 0.0334730037, 0.00945262145, 0.0376287848, -0.00123264117, -0.0094475802, 0.0473201312, -0.0443014354, 0.0287028141, -0.0404355489, -0.0414531715, -0.0305406116, 0.0140179489, 0.0110166725, -0.0498804748, -0.0414388776, 0.0310320593, -0.0350268483, -0.0365061536, -0.0040213014, -0.00530166738, -0.0273292679, 0.0148059987, 0.0479441471, -0.0388778932, -0.0233799927, -0.00883786939, -0.0518113934, -0.0127791585, -0.0192075465, -0.0279009715, 0.0384957157, -0.0188214555, 0.0641173795, -0.0179799031, 0.00849211123, 0.0398432203, -0.00409952691, 0.0579872131, 0.0693704486, 0.0692979172, -0.00510271266, 0.0353045836, -0.01440797, 0.0217750929, -0.00829014182, -0.0585707277, -0.018505156, 0.00104306568, 0.0434021205, -0.00242053787, -0.0011477255, 0.00152586051, -0.030990405, 0.0578068383, 0.00280596898, 0.0578887835, -0.0190447047, 0.0227276105, 0.0214925669, 0.019308066, 0.0302412473, 0.0206299182, -0.0254622884, 0.0887997672, 0.0470481068, 0.0160413124, 0.0532715581, -0.0353302993, 0.0155057339, -0.057011582, -0.0902019665, -0.0918387771, 0.0379568972, -0.0393153168, 0.00862720422, -0.0654387623, -0.00921472255, 0.0215017796, 0.0157164019, -0.00827480108, 0.0831818655, 0.0213515591, 0.00865946244, 0.0156702604, 0.0529208146, -0.0324354395, -0.0540318601, -4.11220644e-05, -0.0708368719, 0.0361817069, 0.0390070267, -0.00437415577, -0.0210921839, -0.0437565334, -0.0312135369, 0.0356211774, 0.00710894167, -0.0683125034, -0.00936611928, -0.0246394649, 0.0115067093, 0.00606901711, -0.0267184731, 0.0326369032, 0.0349052399, 0.0306466352, -0.0621586889, 0.0314066708, 0.0014310996, 0.040488407, 0.0446368195, 0.0122268135, -0.0357486419, -0.0610706285, -0.0348895341, 0.0321056917, -0.0407484956, -0.0460376851, -0.07151445, -0.0115899695, 0.0442986116, -0.0471773706, -0.0609798729, -0.00812106766, -0.0699349046, -0.0590598583, -0.0306489877, -0.0322833769, -0.0333567448, 0.0112236161, 0.0301047191, 0.0570488311, -0.037150152, 0.00837455876, 0.0488295332, 0.0183023307, 0.029203672, -0.0538014099, -0.0198995993, 0.0104381554, -0.000590754906, -0.0312981345, -0.0355428979, -0.0294950251, -0.0486269481, -0.0538272783, 0.0261010733, -0.0402780138, 0.0581681356, 0.029137047, -0.0225725304, 0.0123560503, 0.0255543571, 0.017935317, 0.0124753416, 0.0163508933, 0.0310299434, -0.0177822076, -0.0476103574, -0.0403089486, -0.0443247072, -0.0479188636, -0.0148423752, -0.00262523396, 0.0356626287, -0.00669580605, 0.0174102969, 0.00341168605, -0.00483332854, -0.00868739095, -0.0421563759, -0.0319485888, -0.0179528315, -0.0715472549, -0.0588662513, -0.0429991223, -0.0356797203, -0.00667939382, -0.0364913754, -0.071002312, -0.0357254371, 0.114322409, -0.0348680764, -0.0328297243, -0.0638212934, 0.0428245254, 0.145389795, 0.0241701193, -0.017007323, 0.062453419, 0.0603443794, -0.0144385844, -0.0701721683, -0.0387200601, 0.0269259494, -0.0215169173, -0.0453637764, 0.0397911519, 0.00640048878, -0.00457081106, -0.0370635614, -0.0279853903, -0.0291573983, 0.0194031857, -0.0563431196, 0.00943548232, 0.0712760836, 0.0521305464, 0.0322162472, 0.0708086193, 0.0411562324, 0.0200193487, -0.025770111, -0.0368855298, -0.0203452762, 0.0200776774, 0.0227342825, -0.0189086329, 0.015391333, -0.00113835104},
	{-0.00425553415, 0.0526686199, 0.027837785, 0.0143754426, 0.0452937111, -0.030662382, -0.0719666034, 0.0251831207, -0.0093960138, -0.0517008491, -0.0188442916, 0.0461419784, 0.0370075628, -0.00573954917, 0.00793221034, 0.0333617888, -0.0501570366, -0.000645204913, -0.0154846674, 0.026737975, 0.00782791711, 0.0305977855, 0.0391769893, 0.00438459869, 0.0109913899, 0.0252257735, 0.0485025793, 0.00631867163, -0.0415709019, -0.0406328849, -0.00801493973, 0.00739329122, 0.00870577339, 0.0190168079, 0.0131573435, 0.00822892413, -0.0845611989, -0.0972625911, 0.0199163388, 0.0393609963, 0.000800666807, -0.0738170668, -0.0121281333, 0.0311068743, -0.0222002156, 0.0134076513, 0.0165384989, -0.0874098018, -0.0198166687, -0.0447927564, 0.0115641672, 0.00294382568, 0.0529025756, 0.00344939763, -0.0296405014, -0.0623071268, -0.0722760484, -0.00878454931, 0.055552803, 0.0162863825, -0.00290439278, 0.0301392339, -0.070469223, 0.0106190844, 0.012325312, 0.0459593199, -0.0140220188, 0.00825845543, 0.0528130904, 0.0259035919, 0.0311606247, -0.0260779653, 0.0252132919, 0.00677511049, 0.0257578585, 0.0498553589, 0.0248414595, 0.0503831655, -0.0283083953, -0.0338748209, -0.00104044157, -0.00332350237, 0.0288196579, 0.0407201014, -0.0214649085, 0.00455577625, 0.0194209591, -0.0212030429, 0.061240539, 0.0145965982, -0.0359091163, 0.00694835326, -0.0392972156, -0.0474093631, 0.00460306089, -0.0362416394, 0.00325375679, -0.0108974399, 0.035393104, 0.0373430289, 0.0472899415, -0.0188547485, 0.0697259977, -0.00231650681, -0.0110976622, 0.0278278552, -0.042402368, 0.00177870982, 0.0515155122, -0.0312832408, 0.0437865928, -0.0762011036, -0.0540524535, 0.0081953872, 0.0312494691, -0.0253038872, -0.0815724432, -0.00922621787, 0.00246488699, 0.0277014747, -0.0603417046, -0.0521263108, -0.0130073121, -0.0886266381, -0.0814933628, 0.0349722765, 0.0410254858, 0.0215698313, 0.0551914722, 0.0823314562, -0.0248705707, -0.0754422545, -0.00612884481, -0.0509678163, -0.0578493513, -0.00797020644, 0.0228981376, 0.0529687852, 0.00376736955, -0.0343754105, 0.0418754704, 0.00506567815, 0.016150672, -0.0326688588, -0.0332129076, 0.029120991, -0.0461969785, -0.0801872537, 0.0159849003, 5.12860352e-05, 0.0155759621, -0.0123329014, -0.00692096166, 0.0257432181, -0.0474813618, -0.0105481008, 0.0451357625, 0.0416813083, -4.87723119e-05, 0.0095017096, -0.0185977034, 0.0410213508, 0.0383190215, 0.0380913392, -0.0290708095, -0.0169564765, 0.0556916967, -0.0236762557, -0.00337444944, 0.0263643693, 0.0431122594, 0.0224094316, -0.0323311426, -0.0714397877, -0.0234180856, 0.00248088036, 0.0256747529, 0.0259398799, 0.0493112877, -0.038693361, 0.00746759493, -0.0139610842, 0.0138812456, -0.0321566202, -0.0305692144, -0.0394415036, -0.0268668123, -0.0475308262, -0.00916948263, 0.00806085579, 0.0459436961, -0.0284798406, 0.0310396627, -0.00656073354, -0.00166999095, 0.00952788256, 0.0328007601, 0.047078155, 0.0167308729, -0.0405201204, -0.0465640984, 0.0465203486, 0.0164451562, -0.0445092507, -0.0287931599, -0.0213247817, -0.019386027, -0.0180819742, 0.0495295599, -0.0249347333, -0.0488473997, -0.0102158738, -0.0795832574, -0.0343877636, -0.00746043306, -0.0323128253, 0.0308853891, 0.0212322138, -0.00275088474, -0.0647127256, -0.0204845127, 0.0412400663, 0.0182119589, -0.0603903979, -0.0390701331, -0.030149173, 0.0440946631, 0.0197608136, -0.053274814, 0.00941026397, -0.0353875048, 0.043591667, 0.00361364428, -0.035604693, 0.0406995341, 0.0472725555, -0.0481184758, -0.0018917959, -0.0322358459, -0.011575195, -0.0274591949, -0.053204, 0.0102921389, -0.0345585719, -0.0523038805, 0.0134648122, -0.0718086287, -0.0159051809, -0.0329497829, -0.0882150382, 0.0144922193, -0.0251012165, -0.0227024462, 0.0343806259, 0.0545416437, -0.00368109765, 0.0524600074, -0.0156309437, -0.0165182911, -0.0266445745, 0.0248266421, 0.00650549121, 0.016117407, -0.0067136595, -0.0144010885, -0.0230079181, 0.0779874772, 0.0593046099, 0.0316164605, 0.0189636424, -0.0239610672, -0.025369294, 0.0685058534, -0.000980334007, -0.00143275445, -0.0503300242, -0.00689396821, -0.0129508991, -0.0101091862, -0.020529028, -0.0445482917, 0.04112662, 0.0424769521, 0.0210633762, -0.00584227778, -0.00354319601, 0.050388027, 0.032867074, 0.0409678668, 0.0741436929, -0.0491978563, 0.0402317829, -0.0424748138, -0.00682777306, -0.00519432966, 0.00608221116, 0.0674722716, -0.0175099671, 0.00509448862, 0.0230582803, -0.048503723, -0.0575862378, -0.0146958511, -0.00271263765, 0.0427602939, -0.0181061514, 0.0174767729, 0.016825527, 0.0216982327, -0.00461777253, 0.0456783064, 0.0908087268, -0.00520467944, 0.0629041493, 0.0330307856, -0.0205044132, 0.0421335101, -0.0401404649, -0.0353638493, -0.0481104441, -0.014029718, 0.0169029925, -0.0109443683, -0.061442215, -0.016120879, -0.0412082486, -0.0103106992, 0.0481028147, 0.0660482123, -0.0246044584, -0.0353652164, 0.0121548641, 0.0151538802, -0.00759495795, -0.00937342271, -0.0527095124, -0.0342617407, 0.0392605923, -0.0746515915, -0.0535663925, -0.0153231844, 0.0214545149, -0.0524143949, -0.0319843479, 0.0311386809, 0.0144860344, -0.0285245068, -0.0403677449, 0.00667296909, 0.0379350148, 0.00846300833, 0.0164362863, -0.0268558059, -0.0113229621, 0.0268681869, -0.0197403785, 0.02245792, 0.0515046045, 0.0409491695, 0.0711464137, -0.03802092, -0.0413104184, 0.0426019803, -0.0237223655, -0.0134725291, 0.00933934189, -0.0157256667, 0.0782868266, 0.0180971883, 0.0281232428, -0.0336829163, 0.00362555753, -0.0506947339, -0.0234906357, -0.0638918504, -0.0213529374, 0.00290472829, -0.0261278953, 0.00735084293, -0.0221558176, -0.00234303414, 1.79793751e-05, -0.0229382329, -0.0185456593, -0.00627102936, -0.0232675616, -0.0813468173, 0.00609290227, -0.0320804082, 0.0473175645, 0.00510299113, -0.0447772853, 0.0287614036, -0.0357017927, 0.0083969105, -0.0307564493, 0.0250850841, -0.0111330021, -0.0255471859, -0.0665947273},
	{-0.0145408399, -0.0424665436, -0.0134465555, -0.00340245618, -0.00406592945, 0.0415546671, 0.0514845736, -0.0101897288, 0.047807619, 0.0433870293, 0.0536559299, -0.0366752595, 0.0130547974, -0.0028992896, 0.0489232205, -0.0107974866, -0.0243727434, -0.0337039493, 0.022377383, -0.00281864917, 0.0205000676, 0.0593443438, 0.0461363047, 0.00508672884, -0.00831402931, 0.0310822558, -0.0124664297, 0.0281622633, 0.0338105485, -0.0326069184, -0.0160375759, 0.0639959648, -0.0226509813, -0.0755047277, 0.0233394932, -0.000253262813, 0.0568636246, -0.0300319158, 0.0417627208, -0.00921654794, 0.0635989234, -0.0533473156, 0.0423839614, -0.017569948, 0.0189615153, -0.0389014184, 0.0287335236, -0.0300829392, -0.0141630117, -0.00154696556, -0.0255562123, -0.0436276942, 0.0469631813, 0.0443540327, -0.0369795263, -0.0441313833, -0.0072500729, 0.0153891249, 0.011469123, -0.0511482619, -0.0242737774, -0.0122131696, 0.0275585242, 0.0138766766, 0.0394553542, 0.00406301906, 0.0100791622, -0.047724396, 0.0407498777, 0.0502142012, -0.00970217306, 0.004495929, -0.0105009256, -0.0429106914, 0.0338196792, -0.0480437987, -0.0440992713, -0.0198373366, -0.0515003987, 0.0254960135, 0.0328530744, 0.0218820367, -0.0137373507, 0.0313701816, -0.0380527154, -0.0252904333, 0.0333644599, 0.00335149211, -0.0715255812, 0.0327847973, -0.0306219142, 0.0728632435, 0.0558965467, -0.0168709103, -0.0354377329, 0.0517976806, 0.0741912276, 0.0215470195, -0.00886655599, 0.0463449657, -0.0171465985, 0.0143603897, 0.000529046636, 0.0569502153, 0.0481947586, 0.0698933974, 0.0416098945, -0.0216226578, 0.025798317, 0.0397759341, 0.0456854515, 0.0192534421, -0.0495192111, 0.0276821572, 0.0107869534, 0.0468362793, -0.0430510454, -0.0591833927, -0.0102642402, -0.0175820831, 0.0205667559, -0.0517120138, 0.00468372833, -0.0543444306, 0.0484328307, -0.0144596919, 0.0551803373, 0.0153361829, 0.00871367473, 0.0142871402, -0.00210764538, 0.0255323797, -0.0239984691, 0.00705021666, 0.0028161502, 0.0375141911, -0.000572681776, 0.00811861269, 0.0645974427, 0.0331634209, 0.0508151874, 0.0636291131, -0.0329508223, 0.0109814042, -0.0144078648, 0.0494941175, -0.068701528, 0.0125028305, -0.00718251709, -0.0188852493, -0.0217893552, -0.0247968156, -0.0727914497, -0.0525538735, -0.000852888508, -0.0327397473, 0.0109265791, -0.0280987769, 0.0427164137, -0.00507622259, 0.0313821882, 0.0574784428, -0.0489186868, -0.0748108476, -0.0274595525, -0.0150218727, -0.041598849, -0.02036166, 0.0690305382, -4.63456636e-05, 0.0293133464, 0.00364554441, -0.0207786821, -0.0345054381, 0.000373909279, 0.0371123739, -0.0450780205, 0.0409032926, 0.0358356833, 0.0373634584, -0.023959456, -0.00911642704, -0.00639721891, -0.00856541749, -0.00844925921, 0.0338250883, 0.0413379148, 0.0241797082, 0.0220826901, -0.0418625697, 0.0211127922, -0.0197422933, 0.0232169945, -0.0359975547, -0.0507028215, 0.0510854945, -0.0482820757, -0.0413876362, 0.0156497117, 0.0460764281, -0.0538233817, 0.00809363835, 0.0093045719, 0.00897275563, -0.0254759546, -0.00291399821, -0.00940610375, 0.0504624918, -0.0314959735, 0.00277197198, 0.0273768995, -0.0171451364, -0.0259576924, -0.0176317729, -0.00161324115, -0.018002212, -0.0166714285, 0.092973277, -0.0202666633, -0.0551584363, -0.0426771231, -0.0339319184, 0.0184230153, -0.00895348005, -0.0504415259, 0.0193923377, -0.00471581658, 0.0308010876, -0.0152231101, 0.0195318032, 0.0336232632, 0.0299680233, 0.0688917339, -0.0140004223, 0.0372463949, 0.0465783887, -0.0218099076, 0.0121757844, 0.00778615754, 0.00876181014, -0.0467196591, -0.0490751229, 0.0191642493, 0.0556481667, -0.00688263588, 0.00906715821, -0.0335511267, -0.0512177981, 0.0727514178, 0.0401809886, 0.0304289293, -0.0187008772, 0.0179129597, -0.0561095886, 0.000851687801, 0.0269500148, 0.000518298009, -0.0549050607, -0.0446765758, 0.0418809876, 0.0164427627, 0.0203424077, 0.0442656651, -0.0675215274, 0.0155792404, 0.0401996933, 0.00578019535, -0.0302617028, -0.0244810302, 0.0434326157, -0.0124105699, 0.0825011507, -0.0373343751, -0.0454076827, -0.0109453881, -0.0438306928, 0.000469244376, -0.0235699769, -0.0647134483, 0.00801622123, 0.0370236561, -0.059137214, -0.0141370771, 0.0155638736, -0.0468588248, 0.0116813555, -0.0146933757, 0.010183108, 0.0703771785, -0.0566482693, 0.0106209861, 0.0503779091, -0.0216026101, -0.0418086983, -0.0584652983, -0.00728645734, -0.0268269163, 0.0358639471, -0.00903602317, -0.037018273, -0.0538824387, -0.0263835769, -0.032264661, 0.0398168862, -0.0613397658, 0.000495854707, -0.0494455993, -0.0435877964, 0.0917105079, 0.0959295258, -0.0184013341, -0.0127882734, 0.0969885215, -0.0168772712, 8.39347995e-05, -0.00990325026, 0.0711528361, 0.0159719978, -0.0698580965, -0.0395001993, -0.0325162448, -0.0263879374, 0.00427885447, -0.0196425766, -0.00257986854, -0.030159656, -0.00758328568, -0.00718069589, -0.0115358895, 0.0270721931, 0.0349464752, -0.0603040867, -0.00727226865, -0.025035996, -0.00928408653, -0.0434922241, 0.00453147991, -0.00175568252, 0.00280249584, 0.0122953774, 0.0630153939, -0.0568362586, 0.0124106603, 0.0336830355, 0.0571329035, -0.0417008623, -0.0384504423, -0.0226718802, 0.040573176, -0.0275378972, -0.0217493176, 0.0285442378, -0.0158414263, -0.0713641867, 0.00313848699, -0.0427532382, 0.00720529677, 0.0549566709, -0.0150212217, -0.0163557492, -0.018795561, -0.0372308381, 0.0759734511, 0.0613092519, 0.0242721252, 0.0669384971, 0.0379215591, 0.082884565, -0.000831419253, -0.0396344587, 0.0668183267, 0.00697369641, -0.0984266773, -0.0609468184, -0.00484593445, 0.0362178311, 0.0180917904, 0.0111326883, 0.0581292585, -0.0406359248, 0.0321526788, 0.0187287554, 0.0430254452, 0.0475276783, -0.0165154021, -0.0131197805, 0.0265631694, 0.00598967681, 0.0308840722, 0.0558224991, 0.0187080353, -0.0796351433, -0.0242641848, 0.00322854309, -0.0458447486, -0.0199655611, 0.0580578335, 0.0835927501, -0.0429232791, -0.0319638029},
	{-0.0286384765, -0.0357038975, -0.0328215025, 0.0223342106, -0.03731893, -0.00471225893, 0.0026581306, 0.0305397343, 0.0215748027, -0.0172053017, 0.0161450375, -0.0143414643, -0.0481324419, 0.00229419, 0.0124499016, 0.000115769806, -0.0110234879, 0.00876304414, -0.00351423793, 0.00245543942, -0.0169181097, 0.0408005193, 0.0329158008, 0.0333761722, 0.0193396416, -0.0255969595, 0.0197332017, 0.00121549924, -0.0262244549, -0.00470328704, 0.0455787815, 0.0158457793, 0.00686249044, -0.0507179946, 0.0269955657, -0.0460849516, -0.00227329088, 0.0287346616, 0.0307463985, -0.033845067, -0.0540111549, 0.0344750918, -0.0150358872, 0.0104959263, 0.0577818826, -0.04716013, 0.0151951537, -0.0778708309, 0.00148618198, -0.0190712363, -0.0232846141, 0.00748646632, -0.0467352383, 0.036324542, 0.0323366858, -0.00739001436, 0.0317052118, 0.0434882157, -0.0412777103, 0.0140825715, 0.0322320461, -0.0063643828, 0.00756407063, -0.0505481213, -0.00603567343, -0.000365508895, 0.0296358727, 0.00255001686, 0.00398143986, 0.0587580204, -0.00225594337, 0.00946328416, 0.00455010403, 0.0134557569, -0.0345443189, 0.0318664201, 0.0627776608, 0.0129661094, 0.0606932826, -0.0148884421, -0.0438332036, 0.00806080271, -0.00360716134, 0.0297750589, -0.0128012644, 0.0322307795, -0.0271199588, 0.0431039669, 0.0263159461, -0.0462635867, 0.0508607849, -0.0268604811, 0.00574017502, -0.0253098942, -0.0463137515, -0.00937110092, -0.0381078012, 0.0135207605, -0.00701146107, 0.0152375232, 0.0465276167, 0.0435901433, -0.0056262454, -0.0582553931, -0.0558023714, -0.0129118906, 0.0535548031, -0.0226324536, 0.0119633172, -0.0562092848, -0.0437854826, 0.0140088191, 0.0592674911, 0.0709129646, 0.0114227245, -0.0105769346, 0.0218799487, -0.0186351649, 0.00830861647, 0.0379111059, 0.00821903255, 0.0248445589, 0.00705584791, -0.043622531, -0.0228681173, 0.0412225686, -0.00346495421, -0.024717126, -0.0634145513, -0.0361906774, -6.90201705e-05, -0.0474851131, 0.00701065827, 0.0317725912, -0.0107563818, -0.0424253047, 0.0178994369, -0.0383500531, -0.0167224333, 0.0192170776, -0.0302087255, -0.0302924588, -0.0184309259, 0.0137109654, -0.0255014449, -0.0375958942, -0.0252482723, -0.0304330159, -0.0380468927, 0.0293726865, -0.0192724187, -0.00766096404, 0.0316905156, -0.0574939288, -0.0346329585, -0.0146871144, 0.00179403345, 0.0535168462, -0.0175091997, -0.0358966924, 0.053056173, -0.0161521193, 0.0664482489, 0.0551265515, -0.0510592014, -0.0423802361, 0.0162858944, 0.0514395051, 0.0448381193, -0.0331361182, -6.97299329e-05, -0.0407614112, -0.0375446901, -0.0260856543, -0.0400545709, -0.0388678536, 0.0212271251, 0.0213085972, -0.0130069777, -0.0102005797, 0.029734455, 0.0486390181, 0.0214401037, -0.0434830524, -0.0451646224, -0.00253356504, -0.0360148475, -0.0430789329, 0.0381557643, 0.0404507853, 0.0067878617, 0.0489939973, 0.0105437255, -0.0417515934, 0.0331351236, 0.0110343387, 0.0421510823, -0.0352443941, -0.0211385023, -0.0207004361, 0.000776089903, 0.0212645344, -0.0205276683, 0.0113302274, -0.0442741849, -0.00399914943, 0.00546504976, -0.00315938168, -0.0313213728, -0.0418225154, 0.0107687283, -0.0394870564, 0.0102668107, 0.0460470803, -0.0157455709, 0.000802105293, 0.015171051, 0.0488772281, 0.0183994677, 0.0430385135, 0.0172874704, 0.0253787711, -0.0151363369, -0.025455419, -0.00255310605, 0.0382799692, 0.0419639908, -0.00676571531, -0.025436284, 0.0190577377, -0.00281591411, 0.0534661449, 0.0353374444, -0.0104333153, 0.0356352255, -0.0363938548, -0.0399360172, -0.00738207856, -0.0289256722, 0.0339154042, -0.0145544987, 0.0329947546, -0.0198279954, -0.0275794994, 0.00412523281, 0.0388466567, -0.0471082702, -0.00212952541, -0.00599012431, -0.00652408833, -0.00326266862, -0.0118563613, 0.0171560962, 0.0466069691, -0.045638945, 0.0212646648, -0.0203705523, 0.0431962758, 0.0231940765, -0.0390149318, -0.0201467816, 0.0242501516, -0.0229547657, -0.00872055255, -0.0364386588, -0.0493686572, 0.0246153809, 0.0323951282, -0.0328542553, 0.03130408, 0.0468743555, 0.0473396294, -0.0193919819, 0.00190540683, -0.0342308916, 0.0419246852, 0.0187219568, -0.0271404684, 0.0157626588, 0.00537821976, 0.0160991084, -0.0010916309, -0.0318616554, -0.0206581149, -0.0530744605, -0.0383890793, -0.0323141105, -0.0276972074, 0.0153042935, -0.0650720447, 0.0129908863, -0.0376610383, -0.00014839512, 0.067482844, -0.0425642729, -0.00304864277, 0.042437274, -0.0162598267, 0.0224608239, 0.0166101996, 0.00658090459, 0.0141942175, 0.00484810164, 0.0294103157, 0.000648594229, 0.0381831527, 0.0455047674, -0.0435840078, -0.00189858989, -0.0551641546, 0.0180484559, -0.00778317405, -0.0340733416, -0.0362721123, -0.0521977209, -0.0490289442, -0.0589415915, -0.0293587334, 0.0109143816, -0.0488561355, 0.0302922316, -0.0353138074, 0.0104696928, -0.0146891288, -0.000934906129, 0.0136672724, 0.0127289547, 0.0541817583, 0.00108789082, 0.0347349308, -0.0513228774, -0.0499078669, 0.00297438307, -0.0214620698, -0.0546628013, -0.00740846898, -0.0254833791, -0.0211973898, -0.0280110817, -0.0172077399, 0.0501743704, -0.0192996711, -0.0200693123, -0.0493787192, -0.00199715979, -0.0308101457, -0.0442940295, 0.0507622212, 0.0326845348, 0.0232254714, 0.0135686323, 0.0369111374, -0.0330318362, 0.00186114386, -0.0431437977, -0.0497108102, -0.0515242107, -0.0569886304, -0.0453470871, -0.0484446436, 0.0287846327, 0.0573832095, -0.00393794244, -0.0175224822, 0.00160697359, -0.0534368269, 0.0108262338, -0.0199825112, 0.0442847274, 0.0153946411, 0.00870603137, 0.031704694, 0.0511972681, -0.0469851978, 0.00439868728, 0.0156005984, -0.0123356013, -0.047421325, -0.0151283769, -0.0694679096, -0.0229454394, -0.0125415018, -0.0295563918, 0.00796280336, 0.00226932298, 0.0322944708, 0.0214819163, 0.0203532316, 0.0795914307, 0.0275068842, -0.0315774046, -0.00675164396, 0.0432078168, 0.0382423401, -0.0503309704, -0.0288435481, -0.0205141548, -0.0450884774, 0.0308111534, -0.0470275134},
